{"learner":{"attributes":{"best_iteration":"97","best_ntree_limit":"98","best_score":"0.00011508538902175"},"feature_names":[],"feature_types":[],"gradient_booster":{"model":{"gbtree_model_param":{"num_parallel_tree":"1","num_trees":"118","size_leaf_vector":"0"},"tree_info":[0,0,0,0,0,0,0,0,0,0,0,0,0,0,0,0,0,0,0,0,0,0,0,0,0,0,0,0,0,0,0,0,0,0,0,0,0,0,0,0,0,0,0,0,0,0,0,0,0,0,0,0,0,0,0,0,0,0,0,0,0,0,0,0,0,0,0,0,0,0,0,0,0,0,0,0,0,0,0,0,0,0,0,0,0,0,0,0,0,0,0,0,0,0,0,0,0,0,0,0,0,0,0,0,0,0,0,0,0,0,0,0,0,0,0,0,0,0],"trees":[{"base_weights":[1.1905248E0,-1.8970127E0,1.9717671E0,-5.9923506E-1,-1.51351355E-2,3.737718E-2,1.9983075E0,-1.0062926E0,1.1213154E-2,3.737718E-2,1.0178423E0,1.7237238E0,5.99847E-1,-1.0062926E0,3.737718E-2,5.276097E-1,3.737718E-2,5.276097E-1,1.0178423E0,1.0178423E0,5.799331E-1,-3.0188778E-1,-1.4533731E-1,-1.4533731E-1,1.1213154E-2,1.1213154E-2,1.5828292E-1,4.4444445E-1,3.737718E-2,2.3181781E-1,1.5828292E-1,2.3181781E-1,3.053527E-1,4.426429E-1,3.053527E-1,1.5828292E-1,1.1213154E-2,1.1213154E-2,1.5E-1],"categories":[],"categories_nodes":[],"categories_segments":[],"categories_sizes":[],"default_left":[0,0,0,0,0,0,0,0,0,0,0,0,0,0,0,0,0,0,0,0,0,0,0,0,0,0,0,0,0,0,0,0,0,0,0,0,0,0,0],"id":0,"left_children":[1,3,5,-1,7,9,11,13,-1,15,17,19,-1,21,23,25,27,29,31,33,-1,-1,-1,-1,-1,-1,-1,35,37,-1,-1,-1,-1,-1,-1,-1,-1,-1,-1],"loss_changes":[5.4278734E4,8.5888086E2,9.6059375E2,0E0,3.0826508E2,2.5031146E2,2.3046875E0,3.3953064E1,0E0,9.9749E0,1.5888153E1,2.0102386E1,0E0,1.5868835E0,8.455327E0,2.2365074E0,7.442703E-1,2.3005772E-1,3.3200073E-1,4.0862942E-1,0E0,0E0,0E0,0E0,0E0,0E0,0E0,2.7648606E0,4.2664242E-1,0E0,0E0,0E0,0E0,0E0,0E0,0E0,0E0,0E0,0E0],"parents":[2147483647,0,0,1,1,2,2,4,4,5,5,6,6,7,7,9,9,10,10,11,11,13,13,14,14,15,15,16,16,17,17,18,18,19,19,27,27,28,28],"right_children":[2,4,6,-1,8,10,12,14,-1,16,18,20,-1,22,24,26,28,30,32,34,-1,-1,-1,-1,-1,-1,-1,36,38,-1,-1,-1,-1,-1,-1,-1,-1,-1,-1],"split_conditions":[7.080078E-1,8.979492E-1,7.0214844E-1,-5.9923506E-1,1E0,8.359375E-1,2E0,8.359375E-1,1.1213154E-2,2E0,7.0214844E-1,7.0214844E-1,5.99847E-1,7.87E2,7.0214844E-1,7.0214844E-1,2E0,1.1E1,1E0,2E0,5.799331E-1,-3.0188778E-1,-1.4533731E-1,-1.4533731E-1,1.1213154E-2,1.1213154E-2,1.5828292E-1,1E0,1.666E3,2.3181781E-1,1.5828292E-1,2.3181781E-1,3.053527E-1,4.426429E-1,3.053527E-1,1.5828292E-1,1.1213154E-2,1.1213154E-2,1.5E-1],"split_indices":[10,30,30,0,79,20,70,0,0,60,0,20,0,70,20,0,70,70,60,60,0,0,0,0,0,0,0,69,51,0,0,0,0,0,0,0,0,0,0],"split_type":[0,0,0,0,0,0,0,0,0,0,0,0,0,0,0,0,0,0,0,0,0,0,0,0,0,0,0,0,0,0,0,0,0,0,0,0,0,0,0],"sum_hessian":[2.25E4,4.54325E3,1.795675E4,4.313E3,2.3025E2,2.33E2,1.772375E4,1.27E2,1.0325E2,1.2625E2,1.0675E2,8.225E1,1.76415E4,1.12E2,1.5E1,9E0,1.1725E2,7.75E0,9.9E1,8.5E0,7.375E1,1.11E2,1E0,5.25E0,9.75E0,1E0,8E0,3.5E0,1.1375E2,1.25E0,6.5E0,1E0,9.8E1,3.75E0,4.75E0,2.25E0,1.25E0,1.1275E2,1E0],"tree_param":{"num_deleted":"0","num_feature":"80","num_nodes":"39","size_leaf_vector":"0"}},{"base_weights":[9.198895E-1,-1.4712137E0,1.5257581E0,-1.5627365E0,-6.185959E-3,2.7272224E-2,1.5511689E0,-1.1310068E0,-1.5644851E0,-7.8446126E-1,8.181668E-3,2.7272224E-2,7.892206E-1,9.0402794E-1,4.6572044E-1,-4.4364706E-1,-2.3533839E-1,-5.1727355E-1,-4.6745464E-1,-7.8446126E-1,2.7272224E-2,1.22473925E-1,8.181668E-3,4.082464E-1,2.3676617E-1,2.3676617E-1,1.3908393E0,-7.8446126E-1,-2.9369818E-2,-2.3335974E-1,8.181668E-3,1.7962006E-1,1.22473925E-1,3.27009E-1,4.4746387E-1,-7.4839644E-2,-2.3533839E-1],"categories":[],"categories_nodes":[],"categories_segments":[],"categories_sizes":[],"default_left":[0,0,0,0,0,0,0,0,0,0,0,0,0,0,0,0,0,0,0,0,0,0,0,0,0,0,0,0,0,0,0,0,0,0,0,0,0],"id":1,"left_children":[1,3,5,7,9,11,13,15,17,19,-1,21,23,25,-1,-1,-1,-1,-1,27,29,-1,-1,31,-1,-1,33,35,-1,-1,-1,-1,-1,-1,-1,-1,-1],"loss_changes":[2.988649E4,5.592197E2,6.604883E2,1.1933594E0,2.1755994E2,1.7327957E2,1.1511719E1,5.285446E0,1.2470703E0,6.2408295E0,0E0,8.960937E0,8.640289E0,8.841196E0,0E0,0E0,0E0,0E0,0E0,4.0525818E-1,1.8882843E0,0E0,0E0,6.469202E-1,0E0,0E0,3.7424088E-1,3.8909912E-3,0E0,0E0,0E0,0E0,0E0,0E0,0E0,0E0,0E0],"parents":[2147483647,0,0,1,1,2,2,3,3,4,4,5,5,6,6,7,7,8,8,9,9,11,11,12,12,13,13,19,19,20,20,23,23,26,26,27,27],"right_children":[2,4,6,8,10,12,14,16,18,20,-1,22,24,26,-1,-1,-1,-1,-1,28,30,-1,-1,32,-1,-1,34,36,-1,-1,-1,-1,-1,-1,-1,-1,-1],"split_conditions":[7.0214844E-1,8.979492E-1,7.0214844E-1,1E0,1E0,7.0214844E-1,1E0,7.0214844E-1,7E0,3.49E2,8.181668E-3,2E0,7.0214844E-1,7.7001953E-1,4.6572044E-1,-4.4364706E-1,-2.3533839E-1,-5.1727355E-1,-4.6745464E-1,6.59E2,7.0214844E-1,1.22473925E-1,8.181668E-3,1E0,2.3676617E-1,2.3676617E-1,1E0,1E0,-2.9369818E-2,-2.3335974E-1,8.181668E-3,1.7962006E-1,1.22473925E-1,3.27009E-1,4.4746387E-1,-7.4839644E-2,-2.3533839E-1],"split_indices":[0,20,20,60,69,30,60,30,50,60,0,60,10,30,0,0,0,0,0,55,10,0,0,60,0,0,78,40,0,0,0,0,0,0,0,0,0],"split_type":[0,0,0,0,0,0,0,0,0,0,0,0,0,0,0,0,0,0,0,0,0,0,0,0,0,0,0,0,0,0,0,0,0,0,0,0,0],"sum_hessian":[2.0627396E4,4.1697515E3,1.6457645E4,3.9245137E3,2.4523782E2,2.5989963E2,1.6197745E4,1.8443464E1,3.9060703E3,1.3114648E2,1.1409133E2,1.4011159E2,1.19788025E2,3.218781E1,1.6165558E4,1.6081934E1,2.3615298E0,1.3790877E2,3.7681616E3,1.26469025E2,4.6774654E0,8.139726E0,1.3197186E2,7.918768E0,1.11869255E2,5.8314347E0,2.6356377E1,1.25303734E2,1.1652921E0,1.9140553E0,2.76341E0,1.7486373E0,6.1701303E0,2.310452E0,2.4045923E1,1.1637E0,1.2414003E2],"tree_param":{"num_deleted":"0","num_feature":"80","num_nodes":"37","size_leaf_vector":"0"}},{"base_weights":[7.940954E-1,-1.2806985E0,1.3243686E0,2.183503E-2,-1.3298398E0,2.183503E-2,1.3430959E0,2.183503E-2,-3.7531906E-1,-1.3546425E0,-7.213559E-1,6.550509E-3,1.0846623E0,8.6881214E-1,1.3474894E0,-5.377416E-1,6.550509E-3,-3.1139976E-1,-4.0704405E-1,-3.1139976E-1,2.183503E-2,5.5324864E-1,1.2813411E0,2.183503E-2,1.1081507E0,3.3244523E-1,4.0444016E-1,-3.4800392E-1,-7.738599E-2,-1.5242462E-1,2.183503E-2,2.7518848E-1,1.659746E-1,2.7518848E-1,3.9886168E-1,1.6949788E-1,6.550509E-3,5.649929E-1,3.3244523E-1,6.550509E-3,-1.0414353E-1,1.6949788E-1,2.5097156E-1],"categories":[],"categories_nodes":[],"categories_segments":[],"categories_sizes":[],"default_left":[0,0,0,0,0,0,0,0,0,0,0,0,0,0,0,0,0,0,0,0,0,0,0,0,0,0,0,0,0,0,0,0,0,0,0,0,0,0,0,0,0,0,0],"id":2,"left_children":[1,3,5,7,9,11,13,15,-1,17,19,-1,21,23,25,27,-1,-1,-1,-1,29,31,33,35,37,-1,-1,-1,-1,-1,39,-1,-1,-1,-1,-1,-1,41,-1,-1,-1,-1,-1],"loss_changes":[1.9015738E4,3.223711E2,4.1251562E2,1.4785533E1,5.0996094E1,7.422838E1,2.719336E1,2.4964263E0,0E0,1.7988281E0,1.152893E2,0E0,1.1872757E1,9.045737E1,1.4902344E0,4.4268556E0,0E0,0E0,0E0,0E0,6.788232E0,1.0398488E0,4.9939728E-1,3.2215614E0,1.9663086E0,0E0,0E0,0E0,0E0,0E0,3.5952973E-1,0E0,0E0,0E0,0E0,0E0,0E0,2.7070034E-1,0E0,0E0,0E0,0E0,0E0],"parents":[2147483647,0,0,1,1,2,2,3,3,4,4,5,5,6,6,7,7,9,9,10,10,12,12,13,13,14,14,15,15,20,20,21,21,22,22,23,23,24,24,30,30,37,37],"right_children":[2,4,6,8,10,12,14,16,-1,18,20,-1,22,24,26,28,-1,-1,-1,-1,30,32,34,36,38,-1,-1,-1,-1,-1,40,-1,-1,-1,-1,-1,-1,42,-1,-1,-1,-1,-1],"split_conditions":[7.0214844E-1,2E0,2E0,1E0,8.979492E-1,7.241211E-1,7.0214844E-1,7.0214844E-1,-3.7531906E-1,1E0,8.0615234E-1,6.550509E-3,7.0214844E-1,7.0214844E-1,1E0,7.0214844E-1,6.550509E-3,-3.1139976E-1,-4.0704405E-1,-3.1139976E-1,3E0,2E0,1E0,1E0,7.0214844E-1,3.3244523E-1,4.0444016E-1,-3.4800392E-1,-7.738599E-2,-1.5242462E-1,3.67E2,2.7518848E-1,1.659746E-1,2.7518848E-1,3.9886168E-1,1.6949788E-1,6.550509E-3,1.5E1,3.3244523E-1,6.550509E-3,-1.0414353E-1,1.6949788E-1,2.5097156E-1],"split_indices":[30,70,70,79,20,10,20,10,0,60,0,0,20,10,60,20,0,0,0,0,60,60,67,60,0,0,0,0,0,0,70,0,0,0,0,0,0,50,0,0,0,0,0],"split_type":[0,0,0,0,0,0,0,0,0,0,0,0,0,0,0,0,0,0,0,0,0,0,0,0,0,0,0,0,0,0,0,0,0,0,0,0,0,0,0,0,0,0,0],"sum_hessian":[1.7281227E4,3.5173838E3,1.3763842E4,7.472999E1,3.4426538E3,1.5113565E2,1.3612706E4,6.660435E1,8.125645E0,3.306644E3,1.3600975E2,8.6423256E1,6.4712395E1,1.2676666E2,1.3485939E4,6.974116E0,5.963023E1,1.659554E1,3.2900483E3,9.667905E1,3.9330696E1,7.7328067E0,5.697959E1,2.51137E1,1.0165296E2,2.5206347E1,1.3460733E4,5.289229E0,1.6848872E0,4.1047263E0,3.522597E1,3.3484924E0,4.3843145E0,4.87517E0,5.210442E1,1.9691478E0,2.3144554E1,2.9544022E0,9.869856E1,3.358171E1,1.6442611E0,1.247205E0,1.7071971E0],"tree_param":{"num_deleted":"0","num_feature":"80","num_nodes":"43","size_leaf_vector":"0"}},{"base_weights":[7.2138625E-1,-1.1513201E0,1.2081667E0,-1.2392058E0,1.4619618E-2,2.842331E-2,1.230343E0,-6.122931E-1,-1.242431E0,-6.122931E-1,8.526993E-3,2.842331E-2,6.2938315E-1,6.2938315E-1,3.697189E-1,-3.4883502E-1,-1.8368794E-1,-4.2754242E-1,-3.7082693E-1,-1.8368794E-1,2.842331E-2,9.8670974E-2,2.842331E-2,6.2938315E-1,9.8670974E-2,1.8881495E-1,1.0450339E0,-2.919349E-1,8.526993E-3,3.2890323E-1,2.842331E-2,1.8881495E-1,9.8670974E-2,2.5116256E-1,3.5686374E-1,-8.758047E-2,8.526993E-3,8.526993E-3,9.8670974E-2,8.526993E-3,9.8670974E-2],"categories":[],"categories_nodes":[],"categories_segments":[],"categories_sizes":[],"default_left":[0,0,0,0,0,0,0,0,0,0,0,0,0,0,0,0,0,0,0,0,0,0,0,0,0,0,0,0,0,0,0,0,0,0,0,0,0,0,0,0,0],"id":3,"left_children":[1,3,5,7,9,11,13,15,17,19,-1,21,23,25,-1,-1,-1,-1,-1,-1,27,-1,29,31,-1,-1,33,35,-1,37,39,-1,-1,-1,-1,-1,-1,-1,-1,-1,-1],"loss_changes":[1.264866E4,2.93365E2,2.9358496E2,4.6660156E0,1.22246956E2,8.957005E1,1.691504E1,3.2740211E0,1.3066406E0,9.121269E0,0E0,7.059889E0,5.80159E0,3.0107088E0,0E0,0E0,0E0,0E0,0E0,0E0,3.6586573E0,0E0,1.2226434E0,1.9766312E0,0E0,0E0,7.627163E-1,4.147389E-1,0E0,1.5012667E0,1.5313177E0,0E0,0E0,0E0,0E0,0E0,0E0,0E0,0E0,0E0,0E0],"parents":[2147483647,0,0,1,1,2,2,3,3,4,4,5,5,6,6,7,7,8,8,9,9,11,11,12,12,13,13,20,20,22,22,23,23,26,26,27,27,29,29,30,30],"right_children":[2,4,6,8,10,12,14,16,18,20,-1,22,24,26,-1,-1,-1,-1,-1,-1,28,-1,30,32,-1,-1,34,36,-1,38,40,-1,-1,-1,-1,-1,-1,-1,-1,-1,-1],"split_conditions":[7.402344E-1,8.979492E-1,7.0214844E-1,1E0,1E0,7.0214844E-1,1E0,7.0214844E-1,2E0,8.0615234E-1,8.526993E-3,3E0,1E0,7.0214844E-1,3.697189E-1,-3.4883502E-1,-1.8368794E-1,-4.2754242E-1,-3.7082693E-1,-1.8368794E-1,1.3E1,9.8670974E-2,1E0,4.62E2,9.8670974E-2,1.8881495E-1,9E0,7.0214844E-1,8.526993E-3,9E0,7.0214844E-1,1.8881495E-1,9.8670974E-2,2.5116256E-1,3.5686374E-1,-8.758047E-2,8.526993E-3,8.526993E-3,9.8670974E-2,8.526993E-3,9.8670974E-2],"split_indices":[10,20,20,60,69,30,60,31,70,0,0,60,69,30,0,0,0,0,0,0,60,0,71,60,0,0,70,30,0,50,31,0,0,0,0,0,0,0,0,0,0],"split_type":[0,0,0,0,0,0,0,0,0,0,0,0,0,0,0,0,0,0,0,0,0,0,0,0,0,0,0,0,0,0,0,0,0,0,0,0,0,0,0,0,0],"sum_hessian":[1.3872754E4,2.8617751E3,1.1010979E4,2.6611233E3,2.0065178E2,1.9938054E2,1.0811599E4,1.4484161E1,2.6466392E3,1.1065653E2,8.999524E1,1.04530754E2,9.4849785E1,2.590442E1,1.0785694E4,1.1041077E1,3.443085E0,8.126995E1,2.5653691E3,9.853992E1,1.2116619E1,8.048722E0,9.6482025E1,9.1194984E1,3.6547973E0,7.1850257E0,1.8719395E1,5.3270316E0,6.789587E0,4.4266477E0,9.205538E1,8.901398E1,2.1810122E0,1.0685657E0,1.765083E1,4.2747364E0,1.0522954E0,1.4804084E0,2.9462392E0,8.908438E1,2.9709978E0],"tree_param":{"num_deleted":"0","num_feature":"80","num_nodes":"41","size_leaf_vector":"0"}},{"base_weights":[6.740091E-1,-1.0698359E0,1.1361823E0,-1.1698781E0,3.3173203E-2,3.3173203E-2,1.1603463E0,-8.493801E-1,-3.5166812E-1,-5.6835246E-1,9.951961E-3,5.9675974E-1,3.3173203E-2,5.9675974E-1,3.4863564E-1,-3.3689258E-1,-1.7050575E-1,-5.6835246E-1,9.951961E-3,1.7902793E-1,9.951961E-3,3.3173203E-2,5.9675974E-1,1.7902793E-1,3.1701115E-1,4.0273196E-3,-5.6835246E-1,3.3173203E-2,4.8421014E-2,3.1496647E-1,1.7902793E-1,-1.7050575E-1,9.951961E-3,-1.7050575E-1,-2.7784862E-2,9.951961E-3,2.6312118E-2,9.448995E-2,1.7902793E-1],"categories":[],"categories_nodes":[],"categories_segments":[],"categories_sizes":[],"default_left":[0,0,0,0,0,0,0,0,0,0,0,0,0,0,0,0,0,0,0,0,0,0,0,0,0,0,0,0,0,0,0,0,0,0,0,0,0,0,0],"id":4,"left_children":[1,3,5,7,9,11,13,15,-1,17,-1,19,21,23,-1,-1,-1,25,-1,-1,-1,27,29,-1,-1,31,33,35,-1,37,-1,-1,-1,-1,-1,-1,-1,-1,-1],"loss_changes":[8.777741E3,2.5348853E2,2.3041992E2,5.805664E-1,1.0450712E2,7.5720116E1,1.0177734E1,2.658081E0,0E0,5.957962E0,0E0,5.807129E0,8.158965E0,1.4169259E0,0E0,0E0,0E0,1.985115E0,0E0,0E0,0E0,3.267765E-2,4.823577E0,0E0,0E0,3.2468295E0,1.9486237E-1,5.015373E-3,0E0,5.258002E-1,0E0,0E0,0E0,0E0,0E0,0E0,0E0,0E0,0E0],"parents":[2147483647,0,0,1,1,2,2,3,3,4,4,5,5,6,6,7,7,9,9,11,11,12,12,13,13,17,17,21,21,22,22,25,25,26,26,27,27,29,29],"right_children":[2,4,6,8,10,12,14,16,-1,18,-1,20,22,24,-1,-1,-1,26,-1,-1,-1,28,30,-1,-1,32,34,36,-1,38,-1,-1,-1,-1,-1,-1,-1,-1,-1],"split_conditions":[8.461914E-1,8.979492E-1,7.0214844E-1,2E0,1E0,1.1E1,1E0,7.758789E-1,-3.5166812E-1,7.19E2,9.951961E-3,1E0,8.378906E-1,1.2E1,3.4863564E-1,-3.3689258E-1,-1.7050575E-1,5E0,9.951961E-3,1.7902793E-1,9.951961E-3,3.56E2,4.9E1,1.7902793E-1,3.1701115E-1,1E0,1.53E2,9.18E2,4.8421014E-2,1E0,1.7902793E-1,-1.7050575E-1,9.951961E-3,-1.7050575E-1,-2.7784862E-2,9.951961E-3,2.6312118E-2,9.448995E-2,1.7902793E-1],"split_indices":[0,30,20,70,79,60,60,25,0,70,0,69,30,49,0,0,0,40,0,0,0,45,70,0,0,71,72,41,0,78,0,0,0,0,0,0,0,0,0],"split_type":[0,0,0,0,0,0,0,0,0,0,0,0,0,0,0,0,0,0,0,0,0,0,0,0,0,0,0,0,0,0,0,0,0,0,0,0,0,0,0],"sum_hessian":[1.0888551E4,2.280937E3,8.607613E3,2.0923416E3,1.8859563E2,1.8378157E2,8.423832E3,1.7861486E1,2.07448E3,9.652182E1,9.207381E1,7.391472E1,1.0986686E2,1.9780716E1,8.404052E3,1.3533903E1,4.327583E0,9.268974E1,3.8320816E0,7.0939674E1,2.9750485E0,8.625129E1,2.361557E1,1.2399431E1,7.381285E0,6.045214E0,8.664452E1,8.519702E1,1.0542694E0,6.5787663E0,1.7036802E1,2.682846E0,3.3623683E0,8.5356316E1,1.2882121E0,8.414059E1,1.0564317E0,4.6259985E0,1.9527678E0],"tree_param":{"num_deleted":"0","num_feature":"80","num_nodes":"39","size_leaf_vector":"0"}},{"base_weights":[6.4010644E-1,-1.0253575E0,1.0831405E0,2.8891504E-2,-1.0924671E0,2.8891504E-2,1.1083982E0,-8.1814045E-1,2.8891504E-2,-3.3633155E-1,-6.6480756E-1,2.8891504E-2,9.332476E-1,6.7024684E-1,1.1144726E0,-3.20108E-1,-1.1838735E-1,8.667451E-3,-1.1838735E-1,2.8891504E-2,-2.678869E-1,8.667451E-3,7.5252704E-2,8.667451E-3,3.275672E-1,2.8891504E-2,8.9235973E-1,2.6770794E-1,3.3470803E-1,-8.929563E-1,8.667451E-3,1.5621631E-2,8.352286E-1,1.3818769E-1,8.667451E-3,4.6062562E-1,2.6770794E-1,-1.2960973E-1,-2.678869E-1,1.3309512E-1,3.006416E-1,2.0294781E-1,1.3818769E-1],"categories":[],"categories_nodes":[],"categories_segments":[],"categories_sizes":[],"default_left":[0,0,0,0,0,0,0,0,0,0,0,0,0,0,0,0,0,0,0,0,0,0,0,0,0,0,0,0,0,0,0,0,0,0,0,0,0,0,0,0,0,0,0],"id":5,"left_children":[1,3,5,7,9,11,13,15,17,-1,19,21,23,25,27,-1,-1,-1,-1,29,-1,-1,31,-1,-1,33,35,-1,-1,37,-1,-1,39,-1,-1,41,-1,-1,-1,-1,-1,-1,-1],"loss_changes":[6.2258887E3,1.7503442E2,2.4699805E2,1.2707473E1,2.0154297E1,1.6163853E1,1.6733887E1,3.5574923E0,1.0030489E0,0E0,6.1534252E1,3.381443E-2,4.2833977E0,4.8248722E1,1.9501953E0,0E0,0E0,0E0,0E0,1.9162994E1,0E0,0E0,6.7581887E0,0E0,0E0,1.3850781E0,1.349289E0,0E0,0E0,1.4360523E0,0E0,0E0,1.1923852E0,0E0,0E0,3.865121E-1,0E0,0E0,0E0,0E0,0E0,0E0,0E0],"parents":[2147483647,0,0,1,1,2,2,3,3,4,4,5,5,6,6,7,7,8,8,10,10,11,11,12,12,13,13,14,14,19,19,22,22,25,25,26,26,29,29,32,32,35,35],"right_children":[2,4,6,8,10,12,14,16,18,-1,20,22,24,26,28,-1,-1,-1,-1,30,-1,-1,32,-1,-1,34,36,-1,-1,38,-1,-1,40,-1,-1,42,-1,-1,-1,-1,-1,-1,-1],"split_conditions":[7.5E-1,3E0,2E0,7.241211E-1,8.979492E-1,1E0,7.0214844E-1,7.319336E-1,1E0,-3.3633155E-1,1E0,8.359375E-1,7.0214844E-1,7.0214844E-1,1E0,-3.20108E-1,-1.1838735E-1,8.667451E-3,-1.1838735E-1,7.0214844E-1,-2.678869E-1,8.667451E-3,7.0214844E-1,8.667451E-3,3.275672E-1,1E0,7.0214844E-1,2.6770794E-1,3.3470803E-1,1.1E1,8.667451E-3,1.5621631E-2,1E0,1.3818769E-1,8.667451E-3,1E0,2.6770794E-1,-1.2960973E-1,-2.678869E-1,1.3309512E-1,3.006416E-1,2.0294781E-1,1.3818769E-1],"split_indices":[30,70,70,10,10,71,20,20,79,0,79,0,0,0,60,0,0,0,0,0,0,0,20,0,0,60,10,0,0,70,0,0,67,0,0,60,0,0,0,0,0,0,0],"split_type":[0,0,0,0,0,0,0,0,0,0,0,0,0,0,0,0,0,0,0,0,0,0,0,0,0,0,0,0,0,0,0,0,0,0,0,0,0,0,0,0,0,0,0],"sum_hessian":[8.435292E3,1.772133E3,6.6631587E3,6.668243E1,1.7054507E3,9.6244896E1,6.566914E3,1.6712837E1,4.9969593E1,1.5968937E3,1.0855695E2,7.748028E1,1.8764616E1,9.131971E1,6.475594E3,1.4239819E1,2.473018E0,4.8836376E1,1.1332145E0,4.4566513E1,6.399044E1,6.2359592E1,1.51206875E1,1.6676991E0,1.7096918E1,1.9903427E1,7.141628E1,1.5573115E1,6.460021E3,1.4700906E1,2.9865606E1,5.08337E0,1.0037317E1,1.2962638E0,1.8607164E1,3.1720088E0,6.824427E1,1.2712815E0,1.3429625E1,1.1575161E0,8.879801E0,1.7010826E0,1.4709263E0],"tree_param":{"num_deleted":"0","num_feature":"80","num_nodes":"43","size_leaf_vector":"0"}},{"base_weights":[6.1359227E-1,-9.775589E-1,1.0485022E0,3.5471648E-2,-1.0564502E0,3.5471648E-2,1.0753343E0,1.0641495E-2,-2.887466E-1,-1.0958376E0,-5.657065E-1,1.0641495E-2,1.3639383E-1,6.854579E-1,3.246823E-1,-3.7253308E-1,-3.2636562E-1,3.5471648E-2,-2.4923162E-1,2.5779823E-2,7.615426E-1,3.5471648E-2,2.6515985E-1,-8.3077204E-1,3.5471648E-2,1.2712131E-1,3.0623916E-1,1.0641495E-2,6.3749295E-1,-2.4923162E-1,-1.1929506E-1,-1.1929506E-1,1.0641495E-2,2.6515985E-1,1.0094469E-1],"categories":[],"categories_nodes":[],"categories_segments":[],"categories_sizes":[],"default_left":[0,0,0,0,0,0,0,0,0,0,0,0,0,0,0,0,0,0,0,0,0,0,0,0,0,0,0,0,0,0,0,0,0,0,0],"id":6,"left_children":[1,3,5,7,9,11,13,-1,-1,15,17,-1,19,21,-1,-1,-1,23,-1,-1,25,27,-1,29,31,-1,-1,-1,33,-1,-1,-1,-1,-1,-1],"loss_changes":[4.4794023E3,1.6670044E2,2.0574121E2,5.9755383E0,2.520288E1,1.6019773E-1,1.282666E1,0E0,0E0,8.300781E-2,5.411077E1,0E0,5.4651227E0,4.7150906E1,0E0,0E0,0E0,1.591018E1,0E0,0E0,2.3572526E0,2.6726341E0,0E0,1.7504482E0,8.604057E-1,0E0,0E0,0E0,2.458824E0,0E0,0E0,0E0,0E0,0E0,0E0],"parents":[2147483647,0,0,1,1,2,2,3,3,4,4,5,5,6,6,9,9,10,10,12,12,13,13,17,17,20,20,21,21,23,23,24,24,28,28],"right_children":[2,4,6,8,10,12,14,-1,-1,16,18,-1,20,22,-1,-1,-1,24,-1,-1,26,28,-1,30,32,-1,-1,-1,34,-1,-1,-1,-1,-1,-1],"split_conditions":[7.0214844E-1,2E0,1E0,1E0,8.979492E-1,8.0615234E-1,7.0214844E-1,1.0641495E-2,-2.887466E-1,2E0,1E0,1.0641495E-2,7.0214844E-1,1E0,3.246823E-1,-3.7253308E-1,-3.2636562E-1,7.0214844E-1,-2.4923162E-1,2.5779823E-2,2E0,7.0214844E-1,2.6515985E-1,4.46E2,4E0,1.2712131E-1,3.0623916E-1,1.0641495E-2,1.95E2,-2.4923162E-1,-1.1929506E-1,-1.1929506E-1,1.0641495E-2,2.6515985E-1,1.0094469E-1],"split_indices":[20,60,60,69,10,0,10,0,0,70,69,0,35,69,0,0,0,0,0,0,73,0,0,50,40,0,0,0,50,0,0,0,0,0,0],"split_type":[0,0,0,0,0,0,0,0,0,0,0,0,0,0,0,0,0,0,0,0,0,0,0,0,0,0,0,0,0,0,0,0,0,0,0],"sum_hessian":[6.4705723E3,1.3886915E3,5.081881E3,5.3740093E1,1.3349515E3,6.865642E1,5.0132246E3,4.873884E1,5.001253E0,1.2346268E3,1.00324684E2,5.3804512E1,1.4851904E1,8.942228E1,4.9238022E3,5.578065E1,1.1788462E3,4.586869E1,5.4455997E1,3.7741587E0,1.1077745E1,2.7018793E1,6.2403484E1,1.37038765E1,3.2164814E1,1.0952897E0,9.982455E0,2.0641108E1,6.377686E0,1.2304271E1,1.3996055E0,1.9557656E0,3.020905E1,5.0174994E0,1.3601863E0],"tree_param":{"num_deleted":"0","num_feature":"80","num_nodes":"35","size_leaf_vector":"0"}},{"base_weights":[5.923018E-1,-9.3917936E-1,1.0217993E0,-1.0627481E0,-6.1850246E-2,4.1309983E-2,1.0554045E0,-5.6229913E-1,-3.204971E-1,-5.6229913E-1,1.2392995E-2,5.4835725E-1,4.1309983E-2,5.4835725E-1,3.1769818E-1,-2.8468716E-1,-1.6868974E-1,-5.6229913E-1,1.2392995E-2,1.6450718E-1,1.2392995E-2,4.1309983E-2,5.2374107E-1,5.4835725E-1,3.0116388E-1,-1.6868974E-1,-2.770812E-1,2.8252554E-1,4.1309983E-2,8.475766E-2,1.6450718E-1,1.6450718E-1,2.5410905E-1,-1.6868974E-1,1.2392995E-2,8.475766E-2,1.2392995E-2,1.2392995E-2,8.475766E-2],"categories":[],"categories_nodes":[],"categories_segments":[],"categories_sizes":[],"default_left":[0,0,0,0,0,0,0,0,0,0,0,0,0,0,0,0,0,0,0,0,0,0,0,0,0,0,0,0,0,0,0,0,0,0,0,0,0,0,0],"id":7,"left_children":[1,3,5,7,9,11,13,15,-1,17,-1,19,21,23,-1,-1,-1,25,-1,-1,-1,27,29,31,-1,-1,33,35,37,-1,-1,-1,-1,-1,-1,-1,-1,-1,-1],"loss_changes":[3.2508457E3,1.1730591E2,1.3021509E2,2.9161377E0,7.041198E1,4.165658E1,7.1782227E0,6.9418883E-1,0E0,1.5901413E0,0E0,5.410187E0,2.0110748E0,2.0508804E0,0E0,0E0,0E0,3.7918854E-1,0E0,0E0,0E0,3.1474638E-1,2.3658063E0,8.164024E-2,0E0,0E0,4.3011284E0,6.522864E-1,7.2654104E-1,0E0,0E0,0E0,0E0,0E0,0E0,0E0,0E0,0E0,0E0],"parents":[2147483647,0,0,1,1,2,2,3,3,4,4,5,5,6,6,7,7,9,9,11,11,12,12,13,13,17,17,21,21,22,22,23,23,26,26,27,27,28,28],"right_children":[2,4,6,8,10,12,14,16,-1,18,-1,20,22,24,-1,-1,-1,26,-1,-1,-1,28,30,32,-1,-1,34,36,38,-1,-1,-1,-1,-1,-1,-1,-1,-1,-1],"split_conditions":[8.461914E-1,8.979492E-1,7.0214844E-1,1E0,1E0,1.9E1,2E0,7.0214844E-1,-3.204971E-1,7.56E2,1.2392995E-2,1E0,8.0615234E-1,1E0,3.1769818E-1,-2.8468716E-1,-1.6868974E-1,6.1E1,1.2392995E-2,1.6450718E-1,1.2392995E-2,1E0,7.0214844E-1,2.19E2,3.0116388E-1,-1.6868974E-1,7.0214844E-1,2.6E1,7.0214844E-1,8.475766E-2,1.6450718E-1,1.6450718E-1,2.5410905E-1,-1.6868974E-1,1.2392995E-2,8.475766E-2,1.2392995E-2,1.2392995E-2,8.475766E-2],"split_indices":[0,20,30,60,69,70,70,30,0,60,0,79,31,71,0,0,0,60,0,0,0,72,10,41,0,0,10,71,32,0,0,0,0,0,0,0,0,0,0],"split_type":[0,0,0,0,0,0,0,0,0,0,0,0,0,0,0,0,0,0,0,0,0,0,0,0,0,0,0,0,0,0,0,0,0,0,0,0,0,0,0],"sum_hessian":[4.9397827E3,1.0816614E3,3.8581216E3,9.4793646E2,1.3372488E2,1.2490821E2,3.7332134E3,8.173206E0,9.3976324E2,7.3597786E1,6.01271E1,5.5504818E1,6.94034E1,2.3630196E1,3.709583E3,5.758121E0,2.4150848E0,7.2575745E1,1.0220407E0,5.207813E1,3.4266884E0,6.1755188E1,7.6482077E0,1.3297335E1,1.0332861E1,6.502778E1,7.5479603E0,2.9893892E0,5.87658E1,2.5372722E0,5.1109357E0,1.0011319E1,3.2860155E0,4.8930516E0,2.6549084E0,1.890655E0,1.0987341E0,5.597784E1,2.7879605E0],"tree_param":{"num_deleted":"0","num_feature":"80","num_nodes":"39","size_leaf_vector":"0"}},{"base_weights":[5.730044E-1,-9.196259E-1,1.0002148E0,-1.0459046E0,-9.989622E-2,4.029447E-2,1.0382084E0,-5.729004E-1,-3.1542104E-1,-5.729004E-1,1.2088341E-2,5.3925145E-1,1.2088341E-2,5.3925145E-1,3.1291097E-1,-1.7187013E-1,-2.830735E-1,-5.729004E-1,4.029447E-2,4.029447E-2,5.3925145E-1,5.3925145E-1,2.8511924E-1,1.1393964E-2,-1.7187013E-1,-1.7187013E-1,1.2088341E-2,8.693189E-2,1.2088341E-2,1.6177544E-1,8.693189E-2,1.6177544E-1,2.564502E-1,-1.7187013E-1,1.2088341E-2],"categories":[],"categories_nodes":[],"categories_segments":[],"categories_sizes":[],"default_left":[0,0,0,0,0,0,0,0,0,0,0,0,0,0,0,0,0,0,0,0,0,0,0,0,0,0,0,0,0,0,0,0,0,0,0],"id":8,"left_children":[1,3,5,7,9,11,13,15,-1,17,-1,19,-1,21,-1,-1,-1,23,25,27,29,31,-1,33,-1,-1,-1,-1,-1,-1,-1,-1,-1,-1,-1],"loss_changes":[2.4047607E3,8.678345E1,1.07381836E2,1.4343262E0,6.0101925E1,3.803475E1,8.386963E0,6.534314E-1,0E0,4.3346825E0,0E0,1.0223949E1,0E0,1.1862025E0,0E0,0E0,0E0,8.0726624E-1,1.1082077E0,1.287657E0,2.3631668E-1,2.1878624E-1,0E0,1.066735E0,0E0,0E0,0E0,0E0,0E0,0E0,0E0,0E0,0E0,0E0,0E0],"parents":[2147483647,0,0,1,1,2,2,3,3,4,4,5,5,6,6,7,7,9,9,11,11,13,13,17,17,18,18,19,19,20,20,21,21,23,23],"right_children":[2,4,6,8,10,12,14,16,-1,18,-1,20,-1,22,-1,-1,-1,24,26,28,30,32,-1,34,-1,-1,-1,-1,-1,-1,-1,-1,-1,-1,-1],"split_conditions":[8.5009766E-1,8.979492E-1,7.0214844E-1,2E0,1E0,1E0,2E0,2.5E1,-3.1542104E-1,2.39E2,1.2088341E-2,7.0214844E-1,1.2088341E-2,2.48E2,3.1291097E-1,-1.7187013E-1,-2.830735E-1,2E0,7.0214844E-1,1.1E1,2.01E2,1E0,2.8511924E-1,7.7001953E-1,-1.7187013E-1,-1.7187013E-1,1.2088341E-2,8.693189E-2,1.2088341E-2,1.6177544E-1,8.693189E-2,1.6177544E-1,2.564502E-1,-1.7187013E-1,1.2088341E-2],"split_indices":[10,30,30,70,79,79,70,50,0,70,0,0,0,50,0,0,0,50,31,70,59,71,0,2,0,0,0,0,0,0,0,0,0,0,0],"split_type":[0,0,0,0,0,0,0,0,0,0,0,0,0,0,0,0,0,0,0,0,0,0,0,0,0,0,0,0,0,0,0,0,0,0,0],"sum_hessian":[3.768742E3,8.3837854E2,2.9303635E3,7.262278E2,1.1215079E2,1.1112914E2,2.8192344E3,8.919334E0,7.173085E2,6.443116E1,4.7719627E1,6.808355E1,4.3045597E1,1.9606823E1,2.7996274E3,2.7750027E0,6.1443315E0,5.9552216E1,4.8789425E0,1.0527582E1,5.7555965E1,1.186933E1,7.7374926E0,2.3259435E0,5.7226273E1,1.2094136E0,3.669529E0,1.9366295E0,8.590953E0,5.652842E1,1.0275477E0,7.7526884E0,4.1166415E0,1.143013E0,1.1829304E0],"tree_param":{"num_deleted":"0","num_feature":"80","num_nodes":"35","size_leaf_vector":"0"}},{"base_weights":[5.5480653E-1,-8.6900145E-1,9.776082E-1,5.4303378E-2,-9.873991E-1,1.6291015E-2,1.0187777E0,5.4303378E-2,-2.34804E-1,-3.1282598E-1,-5.7548666E-1,5.9078705E-1,3.0950788E-1,-2.0405722E-1,1.6291015E-2,5.4303378E-2,-2.42736E-1,5.4303378E-2,2.43372E-1,-2.555014E-1,-2.2463076E-2,-8.0911994E-1,5.4303378E-2,1.6291015E-2,5.1221216E-1,1.6291015E-2,-2.42736E-1,-9.755055E-2,1.6291015E-2,8.4977336E-2,2.43372E-1],"categories":[],"categories_nodes":[],"categories_segments":[],"categories_sizes":[],"default_left":[0,0,0,0,0,0,0,0,0,0,0,0,0,0,0,0,0,0,0,0,0,0,0,0,0,0,0,0,0,0,0],"id":9,"left_children":[1,3,5,7,9,-1,11,13,-1,-1,15,17,-1,19,-1,21,-1,23,-1,-1,-1,25,27,-1,29,-1,-1,-1,-1,-1,-1],"loss_changes":[1.729529E3,1.0651227E2,1.3387451E2,2.425782E0,1.3424805E1,0E0,1.1404541E1,4.528818E-1,0E0,0E0,3.4549362E1,3.0051828E1,0E0,2.7683702E0,0E0,9.144937E0,0E0,9.606776E-1,0E0,0E0,0E0,1.6167555E0,7.4165773E-1,0E0,1.0467244E0,0E0,0E0,0E0,0E0,0E0,0E0],"parents":[2147483647,0,0,1,1,2,2,3,3,4,4,6,6,7,7,10,10,11,11,13,13,15,15,17,17,21,21,22,22,24,24],"right_children":[2,4,6,8,10,-1,12,14,-1,-1,16,18,-1,20,-1,22,-1,24,-1,-1,-1,26,28,-1,30,-1,-1,-1,-1,-1,-1],"split_conditions":[8.3984375E-1,2E0,1E0,1E0,8.979492E-1,1.6291015E-2,7.0214844E-1,7.0214844E-1,-2.34804E-1,-3.1282598E-1,1E0,1E0,3.0950788E-1,7.0214844E-1,1.6291015E-2,1.5E1,-2.42736E-1,7.2021484E-1,2.43372E-1,-2.555014E-1,-2.2463076E-2,1.5E1,7.0214844E-1,1.6291015E-2,1E1,1.6291015E-2,-2.42736E-1,-9.755055E-2,1.6291015E-2,8.4977336E-2,2.43372E-1],"split_indices":[20,60,60,69,10,0,0,0,0,0,69,69,0,30,0,50,0,11,0,0,0,60,0,0,60,0,0,0,0,0,0],"split_type":[0,0,0,0,0,0,0,0,0,0,0,0,0,0,0,0,0,0,0,0,0,0,0,0,0,0,0,0,0,0,0],"sum_hessian":[2.8706155E3,6.5701746E2,2.213598E3,4.291968E1,6.140978E2,4.110727E1,2.1724907E3,4.0452747E1,2.4669344E0,5.399994E2,7.4098335E1,6.500632E1,2.1074844E3,5.8289065E0,3.462384E1,3.327523E1,4.0823105E1,2.0158169E1,4.4848145E1,3.786028E0,2.0428784E0,8.521397E0,2.4753834E1,1.6562479E1,3.5956903E0,1.4401419E0,7.0812545E0,4.1709156E0,2.0582918E1,1.0096399E0,2.5860503E0],"tree_param":{"num_deleted":"0","num_feature":"80","num_nodes":"31","size_leaf_vector":"0"}},{"base_weights":[5.369174E-1,-8.5819626E-1,9.55814E-1,-1.0214666E0,-7.065343E-2,4.8808873E-2,1.013572E0,-1.6381802E-1,-3.0928174E-1,-5.4606E-1,1.4642662E-2,5.311904E-1,4.8808873E-2,5.311904E-1,1.0213333E0,-5.4606E-1,1.4642662E-2,1.5935713E-1,1.4642662E-2,4.8808873E-2,4.2134783E-1,1.5935713E-1,2.5636077E-1,7.837953E-1,3.0726364E-1,4.8808873E-2,-1.6381802E-1,2.3507835E-1,4.8808873E-2,7.052351E-2,1.5935713E-1,1.5935713E-1,2.7120113E-1,-1.6381802E-1,1.4642662E-2,1.4642662E-2,7.052351E-2,1.4642662E-2,7.052351E-2],"categories":[],"categories_nodes":[],"categories_segments":[],"categories_sizes":[],"default_left":[0,0,0,0,0,0,0,0,0,0,0,0,0,0,0,0,0,0,0,0,0,0,0,0,0,0,0,0,0,0,0,0,0,0,0,0,0,0,0],"id":10,"left_children":[1,3,5,7,9,11,13,-1,-1,15,-1,17,19,21,23,25,-1,-1,-1,27,29,-1,-1,31,-1,33,-1,35,37,-1,-1,-1,-1,-1,-1,-1,-1,-1,-1],"loss_changes":[1.2786555E3,6.49198E1,9.5368774E1,2.228119E0,4.4517868E1,2.4976162E1,8.144043E0,0E0,0E0,2.3636208E0,0E0,3.788868E0,9.661925E-1,6.688564E-1,2.7404785E-1,1.1080856E0,0E0,0E0,0E0,2.0784807E-1,2.0553784E0,0E0,0E0,1.7202883E0,0E0,8.2719874E-1,0E0,7.077603E-1,3.5676146E-1,0E0,0E0,0E0,0E0,0E0,0E0,0E0,0E0,0E0,0E0],"parents":[2147483647,0,0,1,1,2,2,3,3,4,4,5,5,6,6,9,9,11,11,12,12,13,13,14,14,15,15,19,19,20,20,23,23,25,25,27,27,28,28],"right_children":[2,4,6,8,10,12,14,-1,-1,16,-1,18,20,22,24,26,-1,-1,-1,28,30,-1,-1,32,-1,34,-1,36,38,-1,-1,-1,-1,-1,-1,-1,-1,-1,-1],"split_conditions":[7.0214844E-1,8.979492E-1,8.120117E-1,2E0,1E0,1.9E1,1E0,-1.6381802E-1,-3.0928174E-1,7.87E2,1.4642662E-2,1E0,8.0615234E-1,2E0,7.0214844E-1,5E0,1.4642662E-2,1.5935713E-1,1.4642662E-2,1E0,7.0214844E-1,1.5935713E-1,2.5636077E-1,1E0,3.0726364E-1,1E0,-1.6381802E-1,7.0214844E-1,8.9208984E-1,7.052351E-2,1.5935713E-1,1.5935713E-1,2.7120113E-1,-1.6381802E-1,1.4642662E-2,1.4642662E-2,7.052351E-2,1.4642662E-2,7.052351E-2],"split_indices":[0,30,30,70,79,70,71,0,0,70,0,79,31,70,33,40,0,0,0,73,10,0,0,65,0,71,0,10,34,0,0,0,0,0,0,0,0,0,0],"split_type":[0,0,0,0,0,0,0,0,0,0,0,0,0,0,0,0,0,0,0,0,0,0,0,0,0,0,0,0,0,0,0,0,0,0,0,0,0,0,0],"sum_hessian":[2.185545E3,5.0445032E2,1.6810947E3,4.1758182E2,8.6868515E1,9.29119E1,1.5881829E3,5.449486E0,4.1213232E2,4.844577E1,3.8422745E1,4.0719723E1,5.2192177E1,1.4854805E1,1.573328E3,4.691635E1,1.5294195E0,3.81407E1,2.5790215E0,4.621323E1,5.978946E0,6.7586875E0,8.096117E0,2.2111465E1,1.5512166E3,2.4010847E0,4.4515266E1,3.8564405E0,4.2356792E1,2.0288212E0,3.950125E0,4.668569E0,1.7442896E1,1.0414649E0,1.3596199E0,1.46288E0,2.3935604E0,3.8876274E1,3.4805174E0],"tree_param":{"num_deleted":"0","num_feature":"80","num_nodes":"39","size_leaf_vector":"0"}},{"base_weights":[5.163792E-1,-8.3855695E-1,9.3892497E-1,-1.0112077E0,-1.080507E-1,5.018401E-2,1.0038555E0,-5.596292E-1,-3.0828032E-1,-5.596292E-1,1.5055204E-2,5.2701974E-1,5.018401E-2,5.2701974E-1,3.0470085E-1,-1.6788876E-1,-2.7206895E-1,-5.596292E-1,5.018401E-2,1.5810592E-1,1.5055204E-2,5.018401E-2,5.2701974E-1,1.5810592E-1,2.690584E-1,1.5055204E-2,-1.6788876E-1,-1.088654E-1,1.5055204E-2,1.5055204E-2,8.658057E-2,8.658057E-2,1.5810592E-1],"categories":[],"categories_nodes":[],"categories_segments":[],"categories_sizes":[],"default_left":[0,0,0,0,0,0,0,0,0,0,0,0,0,0,0,0,0,0,0,0,0,0,0,0,0,0,0,0,0,0,0,0,0],"id":11,"left_children":[1,3,5,7,9,11,13,15,-1,17,-1,19,21,23,-1,-1,-1,25,27,-1,-1,29,31,-1,-1,-1,-1,-1,-1,-1,-1,-1,-1],"loss_changes":[9.582562E2,5.0098328E1,7.983069E1,2.3871765E0,3.8974766E1,2.239987E1,9.749268E0,5.760665E-1,0E0,2.6329727E0,0E0,3.133232E0,2.3203907E0,7.2894907E-1,0E0,0E0,0E0,7.2496796E-1,3.7939358E-1,0E0,0E0,1.6239786E-1,6.794462E-1,0E0,0E0,0E0,0E0,0E0,0E0,0E0,0E0,0E0,0E0],"parents":[2147483647,0,0,1,1,2,2,3,3,4,4,5,5,6,6,7,7,9,9,11,11,12,12,13,13,17,17,18,18,21,21,22,22],"right_children":[2,4,6,8,10,12,14,16,-1,18,-1,20,22,24,-1,-1,-1,26,28,-1,-1,30,32,-1,-1,-1,-1,-1,-1,-1,-1,-1,-1],"split_conditions":[8.5009766E-1,8.979492E-1,7.0214844E-1,5E0,1E0,1.9E1,1E0,3.4E1,-3.0828032E-1,2.39E2,1.5055204E-2,1E0,7.7978516E-1,2.48E2,3.0470085E-1,-1.6788876E-1,-2.7206895E-1,2E0,1E0,1.5810592E-1,1.5055204E-2,1.943E3,7.0214844E-1,1.5810592E-1,2.690584E-1,1.5055204E-2,-1.6788876E-1,-1.088654E-1,1.5055204E-2,1.5055204E-2,8.658057E-2,8.658057E-2,1.5810592E-1],"split_indices":[10,30,30,70,79,70,71,50,0,70,0,79,31,50,0,0,0,50,68,0,0,50,0,0,0,0,0,0,0,0,0,0,0],"split_type":[0,0,0,0,0,0,0,0,0,0,0,0,0,0,0,0,0,0,0,0,0,0,0,0,0,0,0,0,0,0,0,0,0],"sum_hessian":[1.6713691E3,3.9708643E2,1.2742827E3,3.2086716E2,7.621926E1,7.996474E1,1.194318E3,9.824921E0,3.1104224E2,4.459154E1,3.1627716E1,3.3198483E1,4.676625E1,1.5107802E1,1.1792101E3,3.4510252E0,6.373895E0,4.108015E1,3.5113904E0,3.1089529E1,2.1089556E0,4.2064396E1,4.7018538E0,8.74797E0,6.3598323E0,1.6279808E0,3.945217E1,1.2383024E0,2.273088E0,4.080979E1,1.2546064E0,1.0275632E0,3.6742907E0],"tree_param":{"num_deleted":"0","num_feature":"80","num_nodes":"33","size_leaf_vector":"0"}},{"base_weights":[4.9498904E-1,-8.007257E-1,9.180115E-1,5.8642894E-2,-9.501908E-1,5.8642894E-2,9.9761486E-1,1.759287E-2,-2.4195042E-1,-6.50089E-1,-3.163037E-1,1.759287E-2,6.516875E-1,5.8642894E-2,1.008918E0,-3.060296E-1,5.8642894E-2,1.759287E-2,2.6623777E-1,1.759287E-2,5.3378046E-1,6.3906074E-1,3.0518192E-1,-4.8072785E-1,5.8642894E-2,8.88635E-2,1.6013414E-1,1.6013414E-1,2.4845009E-1,1.759287E-2,-1.4421836E-1,1.759287E-2,-9.376599E-2],"categories":[],"categories_nodes":[],"categories_segments":[],"categories_sizes":[],"default_left":[0,0,0,0,0,0,0,0,0,0,0,0,0,0,0,0,0,0,0,0,0,0,0,0,0,0,0,0,0,0,0,0,0],"id":12,"left_children":[1,3,5,7,9,11,13,-1,-1,15,-1,-1,17,19,21,-1,23,-1,-1,-1,25,27,-1,29,31,-1,-1,-1,-1,-1,-1,-1,-1],"loss_changes":[7.0329614E2,6.195427E1,9.5521484E1,2.765039E0,8.384918E0,3.6692352E0,1.1491333E1,0E0,0E0,2.3264431E1,0E0,0E0,2.1608405E0,1.9406679E0,2.1593628E0,0E0,5.8355026E0,0E0,0E0,0E0,1.5182114E-1,2.1306562E0,0E0,2.505064E0,2.7771878E-1,0E0,0E0,0E0,0E0,0E0,0E0,0E0,0E0],"parents":[2147483647,0,0,1,1,2,2,3,3,4,4,5,5,6,6,9,9,12,12,13,13,14,14,16,16,20,20,21,21,23,23,24,24],"right_children":[2,4,6,8,10,12,14,-1,-1,16,-1,-1,18,20,22,-1,24,-1,-1,-1,26,28,-1,30,32,-1,-1,-1,-1,-1,-1,-1,-1],"split_conditions":[7.0214844E-1,3E0,1E0,1E0,1E0,5.9E1,7.0214844E-1,1.759287E-2,-2.4195042E-1,8.8378906E-1,-3.163037E-1,1.759287E-2,1E0,7.0214844E-1,7.0214844E-1,-3.060296E-1,6.9E1,1.759287E-2,2.6623777E-1,1.759287E-2,4.1E1,7.2021484E-1,3.0518192E-1,3.4E1,2.43E2,8.88635E-2,1.6013414E-1,1.6013414E-1,2.4845009E-1,1.759287E-2,-1.4421836E-1,1.759287E-2,-9.376599E-2],"split_indices":[20,60,62,69,69,60,22,0,0,10,0,0,73,10,26,0,50,0,0,0,50,11,0,60,56,0,0,0,0,0,0,0,0],"split_type":[0,0,0,0,0,0,0,0,0,0,0,0,0,0,0,0,0,0,0,0,0,0,0,0,0,0,0,0,0,0,0,0,0],"sum_hessian":[1.2807733E3,3.1500928E2,9.6576404E2,2.5823633E1,2.8918564E2,4.862504E1,9.1713904E2,2.3124805E1,2.6988273E0,7.637308E1,2.1281256E2,3.918246E1,9.442576E0,8.982767E0,9.0815625E2,5.2392925E1,2.3980156E1,1.9454963E0,7.49708E0,4.2460995E0,4.7366676E0,2.1773523E1,8.8638275E2,1.0756161E1,1.3223994E1,1.0238093E0,3.7128584E0,4.553748E0,1.7219774E1,3.057526E0,7.6986346E0,1.2183464E1,1.0405304E0],"tree_param":{"num_deleted":"0","num_feature":"80","num_nodes":"33","size_leaf_vector":"0"}},{"base_weights":[4.7429156E-1,-7.669174E-1,8.9856946E-1,-9.918623E-1,-7.830946E-2,6.582603E-2,9.8641104E-1,-5.3508586E-1,-3.0670288E-1,-5.3508586E-1,1.9747809E-2,5.261185E-1,6.582603E-2,5.261185E-1,1.0042781E0,-2.2705778E-1,-1.6052577E-1,-5.3508586E-1,1.9747809E-2,5.261185E-1,1.9747809E-2,6.582603E-2,3.487092E-1,1.5783556E-1,2.3737732E-1,1.5783556E-1,3.0262557E-1,-2.4226645E-2,-1.6052577E-1,1.5783556E-1,4.6968173E-2,2.0726761E-1,6.582603E-2,6.2180284E-2,1.5783556E-1,6.2180284E-2,1.9747809E-2,1.9747809E-2,6.2180284E-2],"categories":[],"categories_nodes":[],"categories_segments":[],"categories_sizes":[],"default_left":[0,0,0,0,0,0,0,0,0,0,0,0,0,0,0,0,0,0,0,0,0,0,0,0,0,0,0,0,0,0,0,0,0,0,0,0,0,0,0],"id":13,"left_children":[1,3,5,7,9,11,13,15,-1,17,-1,19,21,23,25,-1,-1,27,-1,29,-1,31,33,-1,-1,-1,-1,-1,-1,-1,-1,35,37,-1,-1,-1,-1,-1,-1],"loss_changes":[5.178964E2,3.876082E1,5.919751E1,3.275772E0,3.1561913E1,1.4611771E1,7.793701E0,3.8853884E-2,0E0,1.4548664E0,0E0,2.3152733E0,4.5557427E-1,3.747177E-2,1.6168213E0,0E0,0E0,2.6334572E-1,0E0,1.3656616E-3,0E0,2.7146602E-1,1.6528733E0,0E0,0E0,0E0,0E0,0E0,0E0,0E0,0E0,2.395457E-1,2.4587345E-1,0E0,0E0,0E0,0E0,0E0,0E0],"parents":[2147483647,0,0,1,1,2,2,3,3,4,4,5,5,6,6,7,7,9,9,11,11,12,12,13,13,14,14,17,17,19,19,21,21,22,22,31,31,32,32],"right_children":[2,4,6,8,10,12,14,16,-1,18,-1,20,22,24,26,-1,-1,28,-1,30,-1,32,34,-1,-1,-1,-1,-1,-1,-1,-1,36,38,-1,-1,-1,-1,-1,-1],"split_conditions":[8.9990234E-1,8.979492E-1,8.120117E-1,6E0,1E0,1.9E1,1E0,7.241211E-1,-3.0670288E-1,4.9E1,1.9747809E-2,1E0,8.0615234E-1,5.45E2,7.0214844E-1,-2.2705778E-1,-1.6052577E-1,5E0,1.9747809E-2,1.39E2,1.9747809E-2,1E0,7.0214844E-1,1.5783556E-1,2.3737732E-1,1.5783556E-1,3.0262557E-1,-2.4226645E-2,-1.6052577E-1,1.5783556E-1,4.6968173E-2,6.6E1,8.9208984E-1,6.2180284E-2,1.5783556E-1,6.2180284E-2,1.9747809E-2,1.9747809E-2,6.2180284E-2],"split_indices":[0,31,30,70,78,70,72,10,0,71,0,79,31,70,32,0,0,40,0,59,0,73,10,0,0,0,0,0,0,0,0,71,34,0,0,0,0,0,0],"split_type":[0,0,0,0,0,0,0,0,0,0,0,0,0,0,0,0,0,0,0,0,0,0,0,0,0,0,0,0,0,0,0,0,0,0,0,0,0,0,0],"sum_hessian":[9.8113074E2,2.4973444E2,7.313963E2,1.8791017E2,6.1824272E1,6.3244427E1,6.6815186E2,7.892093E0,1.8001807E2,3.4330654E1,2.7493618E1,2.7150362E1,3.6094067E1,1.377441E1,6.5437744E2,5.61138E0,2.2807133E0,3.2622627E1,1.7080257E0,2.5568836E1,1.5815254E0,3.1346872E1,4.747195E0,1.0303889E1,3.4705212E0,3.9648716E0,6.5041254E2,1.662873E0,3.0959755E1,2.4532084E1,1.0367522E0,3.0110571E0,2.8335815E1,1.6444788E0,3.1027162E0,1.7296115E0,1.2814455E0,2.58572E1,2.4786153E0],"tree_param":{"num_deleted":"0","num_feature":"80","num_nodes":"39","size_leaf_vector":"0"}},{"base_weights":[4.4832528E-1,-7.5459E-1,8.675182E-1,-9.808009E-1,-1.2171495E-1,5.6464106E-2,9.778411E-1,-5.5125797E-1,-3.0582803E-1,-5.5125797E-1,1.6939232E-2,5.171526E-1,5.6464106E-2,1.551458E-1,3.006752E-1,-1.653774E-1,-2.552789E-1,-5.5125797E-1,5.6464106E-2,5.6464106E-2,1.551458E-1,1.6939232E-2,1.551458E-1,1.6939232E-2,-1.653774E-1,1.6939232E-2,-9.038769E-2,1.6939232E-2,3.2320607E-1,5.695053E-2,1.551458E-1],"categories":[],"categories_nodes":[],"categories_segments":[],"categories_sizes":[],"default_left":[0,0,0,0,0,0,0,0,0,0,0,0,0,0,0,0,0,0,0,0,0,0,0,0,0,0,0,0,0,0,0],"id":14,"left_children":[1,3,5,7,9,11,13,15,-1,17,-1,19,21,-1,-1,-1,-1,23,25,27,-1,-1,-1,-1,-1,-1,-1,-1,29,-1,-1],"loss_changes":[3.8426196E2,2.8102333E1,5.747159E1,2.9676971E0,2.5791588E1,1.3382212E1,9.621368E0,2.1080732E-1,0E0,1.6946487E0,0E0,2.8315096E0,2.934614E0,0E0,0E0,0E0,0E0,6.5027237E-1,2.7700925E-1,2.4601465E-1,0E0,0E0,0E0,0E0,0E0,0E0,0E0,0E0,4.7588265E-1,0E0,0E0],"parents":[2147483647,0,0,1,1,2,2,3,3,4,4,5,5,6,6,7,7,9,9,11,11,12,12,17,17,18,18,19,19,28,28],"right_children":[2,4,6,8,10,12,14,16,-1,18,-1,20,22,-1,-1,-1,-1,24,26,28,-1,-1,-1,-1,-1,-1,-1,-1,30,-1,-1],"split_conditions":[8.701172E-1,8.979492E-1,7.402344E-1,8E0,1E0,4E0,2E0,3.4E1,-3.0582803E-1,2.39E2,1.6939232E-2,2.8E1,7.0214844E-1,1.551458E-1,3.006752E-1,-1.653774E-1,-2.552789E-1,2E0,3.58E2,8.461914E-1,1.551458E-1,1.6939232E-2,1.551458E-1,1.6939232E-2,-1.653774E-1,1.6939232E-2,-9.038769E-2,1.6939232E-2,8.720703E-1,5.695053E-2,1.551458E-1],"split_indices":[10,30,20,70,79,62,60,50,0,70,0,50,22,0,0,0,0,50,40,0,0,0,0,0,0,0,0,0,35,0,0],"split_type":[0,0,0,0,0,0,0,0,0,0,0,0,0,0,0,0,0,0,0,0,0,0,0,0,0,0,0,0,0,0,0],"sum_hessian":[7.597429E2,1.9612961E2,5.636133E2,1.4408058E2,5.2049026E1,5.9413113E1,5.0420016E2,8.0256195E0,1.3605496E2,3.1029554E1,2.101947E1,2.5162355E1,3.4250755E1,7.540395E0,4.966598E2,3.2942832E0,4.731336E0,2.8516134E1,2.5134206E0,4.7979846E0,2.0364372E1,3.0310028E1,3.9407268E0,1.2306626E0,2.7285473E1,1.3242007E0,1.1892198E0,2.2955475E0,2.502437E0,1.0144421E0,1.4879951E0],"tree_param":{"num_deleted":"0","num_feature":"80","num_nodes":"31","size_leaf_vector":"0"}},{"base_weights":[4.183728E-1,-7.0293564E-1,8.459354E-1,7.1499884E-2,-9.587953E-1,7.1499884E-2,9.7630197E-1,2.1449966E-2,-2.830905E-1,-1.010203E0,-3.9709502E-1,2.1449966E-2,2.1502712E-1,7.1499884E-2,1.0055109E0,-2.1109472E-1,-3.1621253E-1,-7.0364904E-1,2.1449966E-2,1.6155164E-1,7.1499884E-2,1.6155164E-1,1.0116193E0,-2.1109472E-1,-6.900658E-2,2.1449966E-2,1.6155164E-1,1.6155164E-1,3.0401665E-1],"categories":[],"categories_nodes":[],"categories_segments":[],"categories_sizes":[],"default_left":[0,0,0,0,0,0,0,0,0,0,0,0,0,0,0,0,0,0,0,0,0,0,0,0,0,0,0,0,0],"id":15,"left_children":[1,3,5,7,9,11,13,-1,-1,15,17,-1,-1,19,21,-1,-1,23,-1,-1,25,-1,27,-1,-1,-1,-1,-1,-1],"loss_changes":[2.8455573E2,4.3858192E1,6.814035E1,7.441444E0,3.468422E0,1.3677285E0,1.2098511E1,0E0,0E0,1.3722534E0,5.388015E0,0E0,0E0,2.316385E0,1.368042E0,0E0,0E0,5.7613373E-2,0E0,0E0,6.629926E-1,0E0,7.1258545E-2,0E0,0E0,0E0,0E0,0E0,0E0],"parents":[2147483647,0,0,1,1,2,2,3,3,4,4,5,5,6,6,9,9,10,10,13,13,14,14,17,17,20,20,22,22],"right_children":[2,4,6,8,10,12,14,-1,-1,16,18,-1,-1,20,22,-1,-1,24,-1,-1,26,-1,28,-1,-1,-1,-1,-1,-1],"split_conditions":[8.120117E-1,1.9E1,1E0,1E0,8.979492E-1,6.91E2,7.0214844E-1,2.1449966E-2,-2.830905E-1,1E0,1.3E1,2.1449966E-2,2.1502712E-1,1E0,1E0,-2.1109472E-1,-3.1621253E-1,4E0,2.1449966E-2,1.6155164E-1,7.0214844E-1,1.6155164E-1,7.0214844E-1,-2.1109472E-1,-6.900658E-2,2.1449966E-2,1.6155164E-1,1.6155164E-1,3.0401665E-1],"split_indices":[30,70,72,79,32,70,34,0,0,76,73,0,0,75,74,0,0,72,0,0,37,0,32,0,0,0,0,0,0],"split_type":[0,0,0,0,0,0,0,0,0,0,0,0,0,0,0,0,0,0,0,0,0,0,0,0,0,0,0,0,0],"sum_hessian":[5.912895E2,1.6304643E2,4.2824307E2,3.0038797E1,1.3300764E2,3.1542688E1,3.9670038E2,2.3812632E1,6.2261667E0,1.2112374E2,1.18839E1,2.9245419E1,2.29727E0,1.0610971E1,3.8608942E2,1.3437155E1,1.07686584E2,8.432126E0,3.451774E0,4.5892425E0,6.0217295E0,2.523423E0,3.83566E2,6.9681044E0,1.4640216E0,4.4605904E0,1.5611391E0,1.258556E0,3.8230743E2],"tree_param":{"num_deleted":"0","num_feature":"80","num_nodes":"29","size_leaf_vector":"0"}},{"base_weights":[3.8805032E-1,-6.99165E-1,8.102817E-1,-9.547372E-1,-1.9351302E-1,5.5558354E-2,9.597778E-1,-1.7223755E-1,-9.952965E-1,-5.741251E-1,1.6667508E-2,5.076681E-1,5.5558354E-2,5.076681E-1,9.9918914E-1,-3.016961E-1,-1.7223755E-1,-1.7223755E-1,1.6667508E-2,1.5230043E-1,1.6667508E-2,5.5558354E-2,2.3434268E-1,1.5230043E-1,2.3082487E-1,1.5230043E-1,3.008031E-1,1.6667508E-2,3.2659158E-2,5.5558354E-2,1.5230043E-1,5.941675E-2,1.6667508E-2],"categories":[],"categories_nodes":[],"categories_segments":[],"categories_sizes":[],"default_left":[0,0,0,0,0,0,0,0,0,0,0,0,0,0,0,0,0,0,0,0,0,0,0,0,0,0,0,0,0,0,0,0,0],"id":16,"left_children":[1,3,5,7,9,11,13,-1,15,17,-1,19,21,23,25,-1,-1,-1,-1,-1,-1,27,29,-1,-1,-1,-1,-1,-1,31,-1,-1,-1],"loss_changes":[2.125792E2,1.657991E1,4.4564346E1,1.7043839E0,2.2081884E1,1.0227658E1,7.651367E0,0E0,1.9208527E-1,1.2669811E0,0E0,8.406944E-1,1.517353E-1,1.0666323E-1,2.0819092E-1,0E0,0E0,0E0,0E0,0E0,0E0,2.8145313E-3,1.2199131E0,0E0,0E0,0E0,0E0,0E0,0E0,3.7577927E-2,0E0,0E0,0E0],"parents":[2147483647,0,0,1,1,2,2,3,3,4,4,5,5,6,6,8,8,9,9,11,11,12,12,13,13,14,14,21,21,22,22,29,29],"right_children":[2,4,6,8,10,12,14,-1,16,18,-1,20,22,24,26,-1,-1,-1,-1,-1,-1,28,30,-1,-1,-1,-1,-1,-1,32,-1,-1,-1],"split_conditions":[8.461914E-1,7.0996094E-1,7.402344E-1,1E0,1E0,1.1E1,1E0,-1.7223755E-1,7.319336E-1,1.2E1,1.6667508E-2,1E0,2.38E2,1.2E1,7.0214844E-1,-3.016961E-1,-1.7223755E-1,-1.7223755E-1,1.6667508E-2,1.5230043E-1,1.6667508E-2,4.921E3,8.9208984E-1,1.5230043E-1,2.3082487E-1,1.5230043E-1,3.008031E-1,1.6667508E-2,3.2659158E-2,3.03E2,1.5230043E-1,5.941675E-2,1.6667508E-2],"split_indices":[1,21,20,62,68,60,63,0,1,64,0,68,41,49,22,0,0,0,0,0,0,50,33,0,0,0,0,0,0,44,0,0,0],"split_type":[0,0,0,0,0,0,0,0,0,0,0,0,0,0,0,0,0,0,0,0,0,0,0,0,0,0,0,0,0,0,0,0,0],"sum_hessian":[4.6084454E2,1.287267E2,3.3211783E2,8.491824E1,4.3808453E1,4.653497E1,2.8558286E2,4.284738E0,8.063351E1,2.7164272E1,1.6644182E1,1.6438156E1,3.0096813E1,1.1378042E1,2.7420483E2,7.956364E1,1.0698702E0,2.5346388E1,1.8178833E0,1.4860963E1,1.5771929E0,2.6253157E1,3.8436568E0,7.0594106E0,4.3186316E0,1.9632323E0,2.7224158E2,2.517632E1,1.0768371E0,2.0536273E0,1.7900295E0,1.0026386E0,1.0509887E0],"tree_param":{"num_deleted":"0","num_feature":"80","num_nodes":"33","size_leaf_vector":"0"}},{"base_weights":[3.5149768E-1,-6.8097E-1,7.586971E-1,3.886354E-2,-8.6214393E-1,3.886354E-2,9.3318516E-1,-6.093827E-1,3.886354E-2,-3.016335E-1,-5.254185E-1,4.8602435E-1,3.886354E-2,1.4580731E-1,9.980396E-1,-8.5577875E-2,-2.6917785E-1,-8.5577875E-2,1.16590625E-2,-7.6543176E-1,1.16590625E-2,1.16590625E-2,4.8602435E-1,3.886354E-2,1.4580731E-1,1.4580731E-1,3.008088E-1,-2.2962953E-1,-3.3076443E-2,1.4580731E-1,1.16590625E-2,2.6335858E-2,1.16590625E-2],"categories":[],"categories_nodes":[],"categories_segments":[],"categories_sizes":[],"default_left":[0,0,0,0,0,0,0,0,0,0,0,0,0,0,0,0,0,0,0,0,0,0,0,0,0,0,0,0,0,0,0,0,0],"id":17,"left_children":[1,3,5,7,9,11,13,15,17,-1,19,21,23,-1,25,-1,-1,-1,-1,27,-1,-1,29,31,-1,-1,-1,-1,-1,-1,-1,-1,-1],"loss_changes":[1.5444464E2,1.5273521E1,3.90287E1,3.515566E0,3.5852966E0,9.882693E0,1.14071045E1,1.696526E0,7.407279E-1,0E0,1.5003201E1,1.2646732E0,8.778703E-1,0E0,3.3477783E-2,0E0,0E0,0E0,0E0,2.863121E-1,0E0,0E0,2.0841503E-1,3.5963058E-3,0E0,0E0,0E0,0E0,0E0,0E0,0E0,0E0,0E0],"parents":[2147483647,0,0,1,1,2,2,3,3,4,4,5,5,6,6,7,7,8,8,10,10,11,11,12,12,14,14,19,19,22,22,23,23],"right_children":[2,4,6,8,10,12,14,16,18,-1,20,22,24,-1,26,-1,-1,-1,-1,28,-1,-1,30,32,-1,-1,-1,-1,-1,-1,-1,-1,-1],"split_conditions":[7.0214844E-1,2.6E1,8.359375E-1,7.0214844E-1,8.979492E-1,2E0,2E0,2E0,1E0,-3.016335E-1,1E0,1.1E1,7.0214844E-1,1.4580731E-1,2E0,-8.5577875E-2,-2.6917785E-1,-8.5577875E-2,1.16590625E-2,4E1,1.16590625E-2,1.16590625E-2,4.6E1,4E0,1.4580731E-1,1.4580731E-1,3.008088E-1,-2.2962953E-1,-3.3076443E-2,1.4580731E-1,1.16590625E-2,2.6335858E-2,1.16590625E-2],"split_indices":[10,50,21,20,31,62,61,60,60,0,78,50,22,0,50,0,0,0,0,71,0,0,61,62,0,0,0,0,0,0,0,0,0],"split_type":[0,0,0,0,0,0,0,0,0,0,0,0,0,0,0,0,0,0,0,0,0,0,0,0,0,0,0,0,0,0,0,0,0],"sum_hessian":[3.651289E2,1.0308391E2,2.6204498E2,1.8833923E1,8.4249985E1,4.383115E1,2.1821384E2,7.369545E0,1.1464378E1,5.770597E1,2.6544008E1,1.7798588E1,2.6032562E1,7.6033115E0,2.1061052E2,1.2751317E0,6.0944133E0,2.089428E0,9.37495E0,2.0059164E1,6.484844E0,1.7086679E0,1.608992E1,2.4594194E1,1.4383687E0,2.7864912E0,2.0782404E2,1.902728E1,1.0318829E0,1.4902956E1,1.1869645E0,1.1336552E0,2.3460539E1],"tree_param":{"num_deleted":"0","num_feature":"80","num_nodes":"33","size_leaf_vector":"0"}},{"base_weights":[3.125821E-1,-5.9098226E-1,7.4117416E-1,7.509595E-2,-9.805646E-1,7.509595E-2,3.0226272E-1,7.509595E-2,-3.1267333E-1,-1.019739E0,-4.598574E-1,2.2528786E-2,6.7191815E-1,7.509595E-2,-9.93085E-3,-1.0291303E0,-8.2300544E-2,-2.4296302E-1,2.2528786E-2,7.509595E-2,8.6229986E-1,2.2528786E-2,4.603048E-3,-3.1113705E-1,-8.822969E-2,2.2528786E-2,9.499438E-2,2.8190267E-1,1.4060938E-1],"categories":[],"categories_nodes":[],"categories_segments":[],"categories_sizes":[],"default_left":[0,0,0,0,0,0,0,0,0,0,0,0,0,0,0,0,0,0,0,0,0,0,0,0,0,0,0,0,0],"id":18,"left_children":[1,3,5,7,9,11,-1,13,-1,15,17,-1,19,21,-1,23,-1,-1,-1,25,27,-1,-1,-1,-1,-1,-1,-1,-1],"loss_changes":[1.1341481E2,3.0442017E1,5.046698E1,1.3156838E1,8.550949E-1,5.159729E0,0E0,1.9535542E-2,0E0,1.3451385E-1,2.1937847E0,0E0,2.3268595E0,1.7030239E-3,0E0,3.8341522E-2,0E0,0E0,0E0,1.2276429E-1,3.6738396E-1,0E0,0E0,0E0,0E0,0E0,0E0,0E0,0E0],"parents":[2147483647,0,0,1,1,2,2,3,3,4,4,5,5,7,7,9,9,10,10,12,12,13,13,15,15,19,19,20,20],"right_children":[2,4,6,8,10,12,-1,14,-1,16,18,-1,20,22,-1,24,-1,-1,-1,26,28,-1,-1,-1,-1,-1,-1,-1,-1],"split_conditions":[7.0214844E-1,4.1E1,1E0,1E0,1.346E3,4.9E1,3.0226272E-1,1.4E1,-3.1267333E-1,3.35E2,7.0214844E-1,2.2528786E-2,7.060547E-1,8E1,-9.93085E-3,3.79E2,-8.2300544E-2,-2.4296302E-1,2.2528786E-2,1E0,1.107E3,2.2528786E-2,4.603048E-3,-3.1113705E-1,-8.822969E-2,2.2528786E-2,9.499438E-2,2.8190267E-1,1.4060938E-1],"split_indices":[20,60,69,69,51,60,0,65,0,47,11,0,9,79,0,45,0,0,0,77,41,0,0,0,0,0,0,0,0],"split_type":[0,0,0,0,0,0,0,0,0,0,0,0,0,0,0,0,0,0,0,0,0,0,0,0,0,0,0,0,0],"sum_hessian":[2.9073328E2,9.3415146E1,1.9731813E2,2.95061E1,6.3909046E1,3.907093E1,1.5824721E2,1.9963041E1,9.543059E0,5.854607E1,5.362977E0,2.5569485E1,1.3501445E1,1.8812607E1,1.150435E0,5.744173E1,1.1043398E0,4.1333885E0,1.2295887E0,2.402061E0,1.1099384E1,1.7756168E1,1.0564376E0,5.6417225E1,1.0245055E0,1.2013828E0,1.2006783E0,1.0096971E1,1.0024137E0],"tree_param":{"num_deleted":"0","num_feature":"80","num_nodes":"29","size_leaf_vector":"0"}},{"base_weights":[2.8007495E-1,-6.139224E-1,6.821279E-1,3.4102738E-2,-8.1569743E-1,3.4102738E-2,8.9667565E-1,-5.5242115E-1,3.4102738E-2,-2.9666927E-1,-4.5572305E-1,4.653892E-1,3.4102738E-2,1.3961676E-1,9.985122E-1,-7.774776E-2,-2.5504684E-1,-7.774776E-2,1.0230822E-2,-7.223103E-1,1.0230822E-2,4.653892E-1,1.0230822E-2,3.4102738E-2,1.1933786E-1,1.3961676E-1,3.0113652E-1,-2.166931E-1,-3.372988E-2,1.3961676E-1,3.506331E-2,2.0541918E-2,1.0230822E-2],"categories":[],"categories_nodes":[],"categories_segments":[],"categories_sizes":[],"default_left":[0,0,0,0,0,0,0,0,0,0,0,0,0,0,0,0,0,0,0,0,0,0,0,0,0,0,0,0,0,0,0,0,0],"id":19,"left_children":[1,3,5,7,9,11,13,15,17,-1,19,21,23,-1,25,-1,-1,-1,-1,27,-1,29,-1,31,-1,-1,-1,-1,-1,-1,-1,-1,-1],"loss_changes":[8.409278E1,1.0259636E1,2.7617981E1,2.367132E0,3.0724792E0,8.511386E0,1.1042984E1,1.34008E0,1.2452029E0,0E0,9.753611E0,6.80357E-1,2.7187538E-1,0E0,4.3136597E-2,0E0,0E0,0E0,0E0,2.2373772E-1,0E0,2.8084755E-2,0E0,1.4773607E-3,0E0,0E0,0E0,0E0,0E0,0E0,0E0,0E0,0E0],"parents":[2147483647,0,0,1,1,2,2,3,3,4,4,5,5,6,6,7,7,8,8,10,10,11,11,12,12,14,14,19,19,21,21,23,23],"right_children":[2,4,6,8,10,12,14,16,18,-1,20,22,24,-1,26,-1,-1,-1,-1,28,-1,30,-1,32,-1,-1,-1,-1,-1,-1,-1,-1,-1],"split_conditions":[7.0214844E-1,2.9E1,8.9208984E-1,7.0996094E-1,8.9208984E-1,1E0,1E0,1E0,1E0,-2.9666927E-1,1E0,5.23E2,8.9208984E-1,1.3961676E-1,7.0214844E-1,-7.774776E-2,-2.5504684E-1,-7.774776E-2,1.0230822E-2,4.2E1,1.0230822E-2,1.94E2,1.0230822E-2,1E0,1.1933786E-1,1.3961676E-1,3.0113652E-1,-2.166931E-1,-3.372988E-2,1.3961676E-1,3.506331E-2,2.0541918E-2,1.0230822E-2],"split_indices":[0,40,33,25,30,73,72,65,61,0,79,61,34,0,32,0,0,0,0,72,0,56,0,75,0,0,0,0,0,0,0,0,0],"split_type":[0,0,0,0,0,0,0,0,0,0,0,0,0,0,0,0,0,0,0,0,0,0,0,0,0,0,0,0,0,0,0,0,0],"sum_hessian":[2.3179364E2,7.174216E1,1.6005148E2,1.623407E1,5.5508087E1,3.303205E1,1.2701943E2,5.884374E0,1.0349696E1,3.629687E1,1.9211214E1,1.5257474E1,1.7774578E1,4.621443E0,1.2239799E2,1.1602226E0,4.724151E0,2.7437992E0,7.605897E0,1.4392218E1,4.818996E0,1.3777386E1,1.4800882E0,1.6710335E1,1.0642443E0,1.5106674E0,1.2088732E2,1.3387995E1,1.0042237E0,1.2762972E1,1.0144141E0,1.2350361E0,1.5475298E1],"tree_param":{"num_deleted":"0","num_feature":"80","num_nodes":"33","size_leaf_vector":"0"}},{"base_weights":[2.3321259E-1,-5.475831E-1,6.4815724E-1,5.0287068E-2,-9.8574567E-1,5.0287068E-2,3.046527E-1,5.0287068E-2,-1.976129E-1,-3.1926525E-1,5.0287068E-2,5.0287068E-2,2.3321536E-1,1.5086121E-2,-8.1186295E-2,-1.5208955E-1,1.5086121E-2,1.5086121E-2,2.903017E-1,-2.2058381E-1,1.5086121E-2,1.5086121E-2,2.1270229E-1],"categories":[],"categories_nodes":[],"categories_segments":[],"categories_sizes":[],"default_left":[0,0,0,0,0,0,0,0,0,0,0,0,0,0,0,0,0,0,0,0,0,0,0],"id":20,"left_children":[1,3,5,7,9,11,-1,13,-1,-1,15,17,-1,-1,19,-1,-1,-1,21,-1,-1,-1,-1],"loss_changes":[6.1594913E1,2.6296484E1,4.6680683E1,2.0446544E0,4.4077797E0,2.6674166E0,0E0,5.2292466E-2,0E0,0E0,8.1289005E-1,1.9118047E-1,0E0,0E0,1.1819113E0,0E0,0E0,0E0,8.2715034E-1,0E0,0E0,0E0,0E0],"parents":[2147483647,0,0,1,1,2,2,3,3,4,4,5,5,7,7,10,10,11,11,14,14,18,18],"right_children":[2,4,6,8,10,12,-1,14,-1,-1,16,18,-1,-1,20,-1,-1,-1,22,-1,-1,-1,-1],"split_conditions":[8.9208984E-1,1E0,1E0,6.1E1,7.0214844E-1,1.39E2,3.046527E-1,1.32E2,-1.976129E-1,-3.1926525E-1,7.519531E-1,1.8E1,2.3321536E-1,1.5086121E-2,7.0214844E-1,-1.5208955E-1,1.5086121E-2,1.5086121E-2,7.0214844E-1,-2.2058381E-1,1.5086121E-2,1.5086121E-2,2.1270229E-1],"split_indices":[31,74,78,71,34,71,0,62,0,0,37,72,0,0,23,0,0,0,2,0,0,0,0],"split_type":[0,0,0,0,0,0,0,0,0,0,0,0,0,0,0,0,0,0,0,0,0,0,0],"sum_hessian":[1.8801994E2,6.513557E1,1.2288438E2,1.9609793E1,4.5525776E1,2.6245556E1,9.663882E1,1.6537226E1,3.0725672E0,4.2755337E1,2.7704375E0,2.2195257E1,4.0502987E0,1.4365667E1,2.1715593E0,1.0003761E0,1.7700613E0,1.9832659E1,2.3625994E0,1.0081546E0,1.1634047E0,1.0040871E0,1.3585122E0],"tree_param":{"num_deleted":"0","num_feature":"80","num_nodes":"23","size_leaf_vector":"0"}},{"base_weights":[1.9462445E-1,-5.867465E-1,5.783078E-1,-4.219353E-3,-7.992449E-1,-4.219353E-3,8.0347073E-1,-4.3560296E-1,-4.219353E-3,-3.0256757E-1,-4.9988604E-1,-4.219353E-3,2.4699444E-1,1.9343048E-1,9.3738556E-1,-6.597335E-2,-2.3148397E-1,-2.1991116E-1,-1.265806E-3,-2.262667E-1,-1.265806E-3,2.2399815E-2,-1.265806E-3,3.6416262E-2,2.647475E-1,5.65408E-1,-1.265806E-3,1.696224E-1,3.014774E-1,-6.597335E-2,-1.265806E-3,1.696224E-1,1.4147897E-3],"categories":[],"categories_nodes":[],"categories_segments":[],"categories_sizes":[],"default_left":[0,0,0,0,0,0,0,0,0,0,0,0,0,0,0,0,0,0,0,0,0,0,0,0,0,0,0,0,0,0,0,0,0],"id":21,"left_children":[1,3,5,7,9,11,13,15,17,-1,19,21,23,25,27,-1,-1,29,-1,-1,-1,-1,-1,-1,-1,31,-1,-1,-1,-1,-1,-1,-1],"loss_changes":[4.610458E1,7.45669E0,1.8802425E1,9.159119E-1,1.9429455E0,6.9846654E-1,6.545231E0,9.0716857E-1,5.33952E-1,0E0,8.481125E0,1.28453E-2,4.596729E0,7.6994944E0,2.4630318E0,0E0,0E0,6.2159717E-2,0E0,0E0,0E0,0E0,0E0,0E0,0E0,3.1016445E-1,0E0,0E0,0E0,0E0,0E0,0E0,0E0],"parents":[2147483647,0,0,1,1,2,2,3,3,4,4,5,5,6,6,7,7,8,8,10,10,11,11,12,12,13,13,14,14,17,17,25,25],"right_children":[2,4,6,8,10,12,14,16,18,-1,20,22,24,26,28,-1,-1,30,-1,-1,-1,-1,-1,-1,-1,32,-1,-1,-1,-1,-1,-1,-1],"split_conditions":[8.979492E-1,2.6E1,3.8E1,7.0214844E-1,8.0810547E-1,8.359375E-1,7.060547E-1,7E0,1E0,-3.0256757E-1,1E0,2E0,7E0,1E0,1E0,-6.597335E-2,-2.3148397E-1,1.5E1,-1.265806E-3,-2.262667E-1,-1.265806E-3,2.2399815E-2,-1.265806E-3,3.6416262E-2,2.647475E-1,5.49E2,-1.265806E-3,1.696224E-1,3.014774E-1,-6.597335E-2,-1.265806E-3,1.696224E-1,1.4147897E-3],"split_indices":[11,50,50,20,33,20,25,60,63,0,77,60,60,65,64,0,0,47,0,0,0,0,0,0,0,60,0,0,0,0,0,0,0],"split_type":[0,0,0,0,0,0,0,0,0,0,0,0,0,0,0,0,0,0,0,0,0,0,0,0,0,0,0,0,0,0,0,0,0],"sum_hessian":[1.5165314E2,4.976911E1,1.0188402E2,1.1715266E1,3.805385E1,2.0545101E1,8.133892E1,3.9219236E0,7.793343E0,2.1000854E1,1.7052992E1,1.0477085E1,1.0068015E1,1.50813265E1,6.625759E1,1.0303037E0,2.89162E0,2.9408853E0,4.8524575E0,1.300388E1,4.049113E0,1.0670567E0,9.410028E0,2.8058789E0,7.2621365E0,1.0340427E1,4.7408996E0,4.677149E0,6.1580444E1,1.938495E0,1.0023903E0,9.336933E0,1.003494E0],"tree_param":{"num_deleted":"0","num_feature":"80","num_nodes":"33","size_leaf_vector":"0"}},{"base_weights":[1.4706601E-1,-5.387096E-1,4.8540914E-1,-2.665022E-2,-7.636016E-1,-2.665022E-2,7.82264E-1,-5.149222E-1,-2.665022E-2,-3.0199683E-1,-4.6663883E-1,1.1334208E-1,-2.665022E-2,1.1334208E-1,9.7583413E-1,-8.123587E-2,-2.2844067E-1,-8.123587E-2,-7.995066E-3,-7.366474E-1,-7.995066E-3,-7.995066E-3,4.137479E-2,1.1334208E-1,2.96427E-1,-5.3620193E-2,-2.2099423E-1],"categories":[],"categories_nodes":[],"categories_segments":[],"categories_sizes":[],"default_left":[0,0,0,0,0,0,0,0,0,0,0,0,0,0,0,0,0,0,0,0,0,0,0,0,0,0,0],"id":22,"left_children":[1,3,5,7,9,11,13,15,17,-1,19,-1,21,-1,23,-1,-1,-1,-1,25,-1,-1,-1,-1,-1,-1,-1],"loss_changes":[2.9573738E1,5.8226414E0,1.6409801E1,1.1249721E0,1.7751045E0,5.573545E0,9.08836E0,5.335673E-1,6.517979E-1,0E0,6.688308E0,0E0,6.5237224E-2,0E0,8.431244E-2,0E0,0E0,0E0,0E0,1.1094475E-1,0E0,0E0,0E0,0E0,0E0,0E0,0E0],"parents":[2147483647,0,0,1,1,2,2,3,3,4,4,5,5,6,6,7,7,8,8,10,10,12,12,14,14,19,19],"right_children":[2,4,6,8,10,12,14,16,18,-1,20,-1,22,-1,24,-1,-1,-1,-1,26,-1,-1,-1,-1,-1,-1,-1],"split_conditions":[7.2802734E-1,2.9E1,7.402344E-1,7.0996094E-1,8.0810547E-1,2E0,1E0,2E0,1E0,-3.0199683E-1,1E0,1.1334208E-1,1.346E3,1.1334208E-1,7.0214844E-1,-8.123587E-2,-2.2844067E-1,-8.123587E-2,-7.995066E-3,3E1,-7.995066E-3,-7.995066E-3,4.137479E-2,1.1334208E-1,2.96427E-1,-5.3620193E-2,-2.2099423E-1],"split_indices":[1,40,21,25,38,61,63,66,61,0,78,0,51,0,25,0,0,0,0,41,0,0,0,0,0,0,0],"split_type":[0,0,0,0,0,0,0,0,0,0,0,0,0,0,0,0,0,0,0,0,0,0,0,0,0,0,0],"sum_hessian":[1.2533094E2,4.121055E1,8.412039E1,1.1109015E1,3.0101534E1,2.5931963E1,5.8188427E1,3.7216346E0,7.3873806E0,1.5239036E1,1.4862498E1,8.601404E0,1.7330559E1,6.30385E0,5.1884575E1,1.03216E0,2.6894746E0,1.9647075E0,5.4226727E0,1.1186515E1,3.6759832E0,1.5895457E1,1.435101E0,1.4931226E0,5.0391453E1,1.0997787E0,1.0086737E1],"tree_param":{"num_deleted":"0","num_feature":"80","num_nodes":"27","size_leaf_vector":"0"}},{"base_weights":[1.0162735E-1,-4.5236024E-1,4.6458125E-1,6.1105043E-3,-3.1680283E-1,6.1105043E-3,3.0005673E-1,6.1105043E-3,-2.5221524E-1,6.1105043E-3,2.2204825E-1,1.8331513E-3,-3.6540765E-1,6.1105043E-3,1.0387621E-1,-3.13923E-1,1.8331513E-3,1.8331513E-3,1.7757388E-2],"categories":[],"categories_nodes":[],"categories_segments":[],"categories_sizes":[],"default_left":[0,0,0,0,0,0,0,0,0,0,0,0,0,0,0,0,0,0,0],"id":23,"left_children":[1,3,5,7,-1,9,-1,11,-1,13,-1,-1,15,17,-1,-1,-1,-1,-1],"loss_changes":[2.1697004E1,1.4394099E1,2.9945557E1,4.834269E0,0E0,1.9226145E0,0E0,7.7777565E-1,0E0,2.950771E-1,0E0,0E0,3.4366052E0,5.640611E-3,0E0,0E0,0E0,0E0,0E0],"parents":[2147483647,0,0,1,1,2,2,3,3,5,5,7,7,9,9,12,12,13,13],"right_children":[2,4,6,8,-1,10,-1,12,-1,14,-1,-1,16,18,-1,-1,-1,-1,-1],"split_conditions":[8.120117E-1,1E0,1E0,1.92E2,-3.1680283E-1,7.87E2,3.0005673E-1,1.3E1,-2.5221524E-1,4.5E1,2.2204825E-1,1.8331513E-3,7.0214844E-1,1.7E1,1.0387621E-1,-3.13923E-1,1.8331513E-3,1.8331513E-3,1.7757388E-2],"split_indices":[30,79,79,70,0,70,0,65,0,72,0,0,22,74,0,0,0,0,0],"split_type":[0,0,0,0,0,0,0,0,0,0,0,0,0,0,0,0,0,0,0],"sum_hessian":[1.0586149E2,4.180576E1,6.405573E1,2.2070238E1,1.9735521E1,2.0914516E1,4.3141216E1,1.6328934E1,5.7413034E0,1.8346317E1,2.5681987E0,1.1693659E1,4.635275E0,1.6795578E1,1.5507393E0,2.8043501E0,1.830925E0,1.5780394E1,1.0151852E0],"tree_param":{"num_deleted":"0","num_feature":"80","num_nodes":"19","size_leaf_vector":"0"}},{"base_weights":[7.254079E-2,-4.9448884E-1,3.923662E-1,-5.1061317E-2,-7.430239E-1,-5.1061317E-2,8.014907E-1,-4.301515E-1,-5.1061317E-2,-2.8437513E-1,-3.720922E-1,-5.1061317E-2,4.3422166E-1,2.9475975E-1,9.498859E-1,-2.0549644E-2,-1.7473549E-1,-1.5318396E-2,-3.7669413E-2,-2.628024E-1,-1.5318396E-2,-5.1061317E-2,1.3930431E-1,-4.0571005E-3,1.9583678E-1,6.223228E-1,-1.5318396E-2,3.0275095E-1,1.8669684E-1,3.3201344E-2,-5.1061317E-2,-1.5318396E-2,1.7465657E-1,1.8669684E-1,1.5685206E-2,-1.5318396E-2,3.2507233E-2],"categories":[],"categories_nodes":[],"categories_segments":[],"categories_sizes":[],"default_left":[0,0,0,0,0,0,0,0,0,0,0,0,0,0,0,0,0,0,0,0,0,0,0,0,0,0,0,0,0,0,0,0,0,0,0,0,0],"id":24,"left_children":[1,3,5,7,9,11,13,15,17,-1,19,21,23,25,27,-1,-1,-1,-1,-1,-1,29,31,-1,-1,33,-1,-1,-1,-1,35,-1,-1,-1,-1,-1,-1],"loss_changes":[1.6395704E1,4.8327885E0,1.4340611E1,4.3616298E-1,1.4341612E0,1.1447946E0,2.3772163E0,1.2827092E-1,1.1166245E-2,0E0,4.074431E0,1.7219472E-1,4.856344E-1,4.238941E0,6.288147E-2,0E0,0E0,0E0,0E0,0E0,0E0,5.140698E-2,9.6246475E-1,0E0,0E0,2.764697E-1,0E0,0E0,0E0,0E0,4.8612416E-2,0E0,0E0,0E0,0E0,0E0,0E0],"parents":[2147483647,0,0,1,1,2,2,3,3,4,4,5,5,6,6,7,7,8,8,10,10,11,11,12,12,13,13,14,14,21,21,22,22,25,25,30,30],"right_children":[2,4,6,8,10,12,14,16,18,-1,20,22,24,26,28,-1,-1,-1,-1,-1,-1,30,32,-1,-1,34,-1,-1,-1,-1,36,-1,-1,-1,-1,-1,-1],"split_conditions":[8.5009766E-1,3.6E1,1.21E2,4E0,1E0,2.9E1,7.0214844E-1,1E0,3E1,-2.8437513E-1,7.0214844E-1,3.2E1,7.0214844E-1,1E0,9E1,-2.0549644E-2,-1.7473549E-1,-1.5318396E-2,-3.7669413E-2,-2.628024E-1,-1.5318396E-2,1E0,7.0214844E-1,-4.0571005E-3,1.9583678E-1,3.58E2,-1.5318396E-2,3.0275095E-1,1.8669684E-1,3.3201344E-2,1.005E3,-1.5318396E-2,1.7465657E-1,1.8669684E-1,1.5685206E-2,-1.5318396E-2,3.2507233E-2],"split_indices":[10,50,50,40,79,57,25,76,44,0,30,47,32,65,48,0,0,0,0,0,0,47,30,0,0,60,0,0,0,0,40,0,0,0,0,0,0],"split_type":[0,0,0,0,0,0,0,0,0,0,0,0,0,0,0,0,0,0,0,0,0,0,0,0,0,0,0,0,0,0,0,0,0,0,0,0,0],"sum_hessian":[8.8339066E1,3.166066E1,5.667841E1,9.149573E0,2.2511086E1,2.2341566E1,3.433684E1,2.0531778E0,7.096395E0,1.3499052E1,9.012034E0,1.8469362E1,3.8722029E0,8.454217E0,2.5882627E1,1.0380293E0,1.0151485E0,5.61502E0,1.4813752E0,6.5071397E0,2.504895E0,1.4645784E1,3.8235781E0,1.57791E0,2.294293E0,6.215E0,2.2392168E0,2.1282604E1,4.600023E0,1.0649705E0,1.3580813E1,1.9810374E0,1.8425407E0,5.172326E0,1.0426737E0,1.2565431E1,1.0153829E0],"tree_param":{"num_deleted":"0","num_feature":"80","num_nodes":"37","size_leaf_vector":"0"}},{"base_weights":[5.0750833E-2,-3.9728758E-1,3.6512998E-1,-1.60788E-2,-3.2267955E-1,-1.60788E-2,2.998099E-1,-1.60788E-2,-9.0923905E-1,-1.60788E-2,1.7076932E-1,-1.60788E-2,-4.2019412E-1,-3.527429E-1,-3.9845478E-2,-4.82364E-3,8.450717E-2,-4.82364E-3,-4.0605925E-2,-1.9706339E-1,-4.82364E-3],"categories":[],"categories_nodes":[],"categories_segments":[],"categories_sizes":[],"default_left":[0,0,0,0,0,0,0,0,0,0,0,0,0,0,0,0,0,0,0,0,0],"id":25,"left_children":[1,3,5,7,-1,9,-1,11,13,15,-1,17,19,-1,-1,-1,-1,-1,-1,-1,-1],"loss_changes":[1.1113351E1,1.3851641E1,2.3416075E1,2.7377508E0,0E0,1.2235826E0,0E0,5.773203E-1,5.5420256E-1,1.8046787E-1,0E0,2.94573E-2,4.6248615E-1,0E0,0E0,0E0,0E0,0E0,0E0,0E0,0E0],"parents":[2147483647,0,0,1,1,2,2,3,3,5,5,7,7,8,8,9,9,11,11,12,12],"right_children":[2,4,6,8,-1,10,-1,12,14,16,-1,18,20,-1,-1,-1,-1,-1,-1,-1,-1],"split_conditions":[7.060547E-1,1E0,1E0,2.19E2,-3.2267955E-1,3.3E1,2.998099E-1,1.4E1,9E0,8E0,1.7076932E-1,6.6E1,8.9208984E-1,-3.527429E-1,-3.9845478E-2,-4.82364E-3,8.450717E-2,-4.82364E-3,-4.0605925E-2,-1.9706339E-1,-4.82364E-3],"split_indices":[21,68,68,61,0,61,0,63,48,63,0,61,37,0,0,0,0,0,0,0,0],"split_type":[0,0,0,0,0,0,0,0,0,0,0,0,0,0,0,0,0,0,0,0,0],"sum_hessian":[7.686996E1,3.1588203E1,4.528175E1,1.6030287E1,1.5557917E1,1.7049702E1,2.8232046E1,1.359806E1,2.4322278E0,1.4477357E1,2.5723453E0,1.106134E1,2.5367196E0,1.4276663E0,1.0045615E0,1.3439087E1,1.0382699E0,9.972552E0,1.0887872E0,1.5335214E0,1.0031981E0],"tree_param":{"num_deleted":"0","num_feature":"80","num_nodes":"21","size_leaf_vector":"0"}},{"base_weights":[2.1431329E-2,-4.7259024E-1,2.8611207E-1,-9.3239084E-2,-6.975448E-1,-9.3239084E-2,5.511456E-1,-3.7040368E-1,-9.3239084E-2,-9.326224E-1,-3.0536112E-1,-9.3239084E-2,9.588262E-2,-9.3239084E-2,6.751981E-1,-6.954642E-2,-1.635876E-1,-6.954642E-2,-2.7971726E-2,-3.4074593E-1,-3.5596535E-1,-2.6344177E-1,-2.7971726E-2,-9.3239084E-2,1.4388993E-1,-2.7971726E-2,3.462629E-2,2.909795E-1,8.847829E-1,-1.9755109E-1,-2.7971726E-2,-9.3239084E-2,3.8892522E-2,1.4595452E-1,-2.7971726E-2,1.7636436E-1,8.7293856E-2,1.7636436E-1,2.8439927E-1,2.409371E-2,-2.7971726E-2],"categories":[],"categories_nodes":[],"categories_segments":[],"categories_sizes":[],"default_left":[0,0,0,0,0,0,0,0,0,0,0,0,0,0,0,0,0,0,0,0,0,0,0,0,0,0,0,0,0,0,0,0,0,0,0,0,0,0,0,0,0],"id":26,"left_children":[1,3,5,7,9,11,13,15,17,19,21,23,-1,25,27,-1,-1,-1,-1,-1,29,-1,-1,31,33,-1,-1,35,37,-1,-1,39,-1,-1,-1,-1,-1,-1,-1,-1,-1],"loss_changes":[8.808512E0,2.6441655E0,6.6108866E0,2.3203442E-1,1.2393398E0,3.4928596E-1,3.5463E0,9.410006E-2,2.5900227E-1,7.497921E-1,3.0253773E0,1.6233772E-1,0E0,7.8540355E-2,2.2756052E0,0E0,0E0,0E0,0E0,0E0,6.1499184E-1,0E0,0E0,9.573209E-2,5.015857E-1,0E0,0E0,1.2484291E0,2.51359E-1,0E0,0E0,5.425453E-2,0E0,0E0,0E0,0E0,0E0,0E0,0E0,0E0,0E0],"parents":[2147483647,0,0,1,1,2,2,3,3,4,4,5,5,6,6,7,7,8,8,9,9,10,10,11,11,13,13,14,14,20,20,23,23,24,24,27,27,28,28,31,31],"right_children":[2,4,6,8,10,12,14,16,18,20,22,24,-1,26,28,-1,-1,-1,-1,-1,30,-1,-1,32,34,-1,-1,36,38,-1,-1,40,-1,-1,-1,-1,-1,-1,-1,-1,-1],"split_conditions":[7.2802734E-1,2.9E1,2.9E1,7.0996094E-1,1E0,1.3E1,7.0214844E-1,9E0,1E0,2E1,7.0214844E-1,3E1,9.588262E-2,4.6E1,7.0214844E-1,-6.954642E-2,-1.635876E-1,-6.954642E-2,-2.7971726E-2,-3.4074593E-1,8.120117E-1,-2.6344177E-1,-2.7971726E-2,5E1,2.3E1,-2.7971726E-2,3.462629E-2,1.4E1,1E0,-1.9755109E-1,-2.7971726E-2,2E0,3.8892522E-2,1.4595452E-1,-2.7971726E-2,1.7636436E-1,8.7293856E-2,1.7636436E-1,2.8439927E-1,2.409371E-2,-2.7971726E-2],"split_indices":[4,40,40,25,79,49,0,67,61,62,30,57,0,43,21,0,0,0,0,0,26,0,0,75,61,0,0,61,62,0,0,50,0,0,0,0,0,0,0,0,0],"split_type":[0,0,0,0,0,0,0,0,0,0,0,0,0,0,0,0,0,0,0,0,0,0,0,0,0,0,0,0,0,0,0,0,0,0,0,0,0,0,0,0,0],"sum_hessian":[6.533092E1,2.2517298E1,4.281362E1,6.9855E0,1.5531798E1,1.2687189E1,3.0126432E1,2.133654E0,4.8518457E0,8.849389E0,6.6824093E0,1.1586905E1,1.1002846E0,3.2182314E0,2.69082E1,1.0166678E0,1.1169864E0,1.5343661E0,3.3174796E0,5.826601E0,3.022788E0,4.4859943E0,2.1964152E0,9.545275E0,2.0416288E0,2.214652E0,1.0035795E0,9.530015E0,1.7378185E1,1.8209416E0,1.2018466E0,8.443134E0,1.1021407E0,1.0270171E0,1.0146118E0,5.135993E0,4.3940215E0,1.282666E0,1.609552E1,1.0898997E0,7.353235E0],"tree_param":{"num_deleted":"0","num_feature":"80","num_nodes":"41","size_leaf_vector":"0"}},{"base_weights":[-7.267985E-3,-3.308389E-1,2.7811906E-1,-5.255659E-1,1.8156578E-1,-3.0647922E-1,3.00202E-1,-9.3004376E-1,-2.2509499E-1,-2.0068729E-1,6.931142E-1,-3.7693068E-1,-1.7327082E-1,-5.7756937E-1,3.110276E-1,3.0723354E-1,3.6234946E-3,6.647455E-2,-5.7756937E-1,6.686332E-1,-1.467838E-1,-1.05051E-2,-1.7327082E-1,5.4636024E-2,2.2726819E-1],"categories":[],"categories_nodes":[],"categories_segments":[],"categories_sizes":[],"default_left":[0,0,0,0,0,0,0,0,0,0,0,0,0,0,0,0,0,0,0,0,0,0,0,0,0],"id":27,"left_children":[1,3,5,7,9,-1,-1,11,13,-1,15,-1,-1,17,19,-1,-1,-1,21,23,-1,-1,-1,-1,-1],"loss_changes":[5.5120745E0,2.885644E0,3.0821304E1,2.284543E0,4.137444E0,0E0,0E0,1.3454494E0,2.7682612E0,0E0,1.3539891E0,0E0,0E0,1.1185844E0,2.0410106E0,0E0,0E0,0E0,4.0216374E-1,5.9386015E-2,0E0,0E0,0E0,0E0,0E0],"parents":[2147483647,0,0,1,1,2,2,3,3,4,4,7,7,8,8,10,10,13,13,14,14,18,18,19,19],"right_children":[2,4,6,8,10,-1,-1,12,14,-1,16,-1,-1,18,20,-1,-1,-1,22,24,-1,-1,-1,-1,-1],"split_conditions":[1E0,2.16E2,7.0214844E-1,7.2998047E-1,7.0214844E-1,-3.0647922E-1,3.00202E-1,1E0,2E1,-2.0068729E-1,1.3E1,-3.7693068E-1,-1.7327082E-1,2E0,6.6E1,3.0723354E-1,3.6234946E-3,6.647455E-2,2E0,4.4E1,-1.467838E-1,-1.05051E-2,-1.7327082E-1,5.4636024E-2,2.2726819E-1],"split_indices":[78,51,37,1,11,0,0,69,42,0,63,0,0,51,48,0,0,0,47,41,0,0,0,0,0],"split_type":[0,0,0,0,0,0,0,0,0,0,0,0,0,0,0,0,0,0,0,0,0,0,0,0,0],"sum_hessian":[5.769492E1,2.6963982E1,3.0730938E1,1.9520138E1,7.443843E0,1.0832243E1,1.9898695E1,7.4270096E0,1.2093128E1,2.6800914E0,4.7637515E0,4.915017E0,2.5119922E0,7.1046696E0,4.9884586E0,2.9322135E0,1.8315377E0,1.2738391E0,5.8308306E0,3.561557E0,1.4269016E0,1.499465E0,4.3313656E0,1.0214217E0,2.5401354E0],"tree_param":{"num_deleted":"0","num_feature":"80","num_nodes":"25","size_leaf_vector":"0"}},{"base_weights":[-1.4729613E-2,-2.8788236E-1,2.6796594E-1,-4.5302916E-1,1.5858412E-1,-2.9423204E-1,2.9379684E-1,3.349193E-1,-5.71241E-1,-1.8066818E-1,5.993468E-1,-3.5085075E-3,1.5304048E-1,-7.6156914E-1,9.6778244E-2,2.576984E-1,-4.320592E-4,-1.0725237E0,-3.325801E-1,-1.4912401E-1,4.6032566E-1,-1.2427338E-1,-3.9114103E-1,-2.1474975E-1,4.5013856E-2,6.1044265E-3,1.943021E-1],"categories":[],"categories_nodes":[],"categories_segments":[],"categories_sizes":[],"default_left":[0,0,0,0,0,0,0,0,0,0,0,0,0,0,0,0,0,0,0,0,0,0,0,0,0,0,0],"id":28,"left_children":[1,3,5,7,9,-1,-1,11,13,-1,15,-1,-1,17,19,-1,-1,21,23,-1,25,-1,-1,-1,-1,-1,-1],"loss_changes":[3.829233E0,1.929481E0,2.2631372E1,1.9285328E0,2.8906033E0,0E0,0E0,1.9201568E-1,2.1826487E0,0E0,1.1749749E0,0E0,0E0,1.3803778E0,1.2144393E0,0E0,0E0,5.4087543E-1,1.3877213E0,0E0,2.630344E-1,0E0,0E0,0E0,0E0,0E0,0E0],"parents":[2147483647,0,0,1,1,2,2,3,3,4,4,7,7,8,8,10,10,13,13,14,14,17,17,18,18,20,20],"right_children":[2,4,6,8,10,-1,-1,12,14,-1,16,-1,-1,18,20,-1,-1,22,24,-1,26,-1,-1,-1,-1,-1,-1],"split_conditions":[1E0,2.16E2,7.0214844E-1,2E0,7.0214844E-1,-2.9423204E-1,2.9379684E-1,1E0,2.9E1,-1.8066818E-1,2.71E2,-3.5085075E-3,1.5304048E-1,4.4E1,7.0214844E-1,2.576984E-1,-4.320592E-4,6E0,7.0214844E-1,-1.4912401E-1,7.0214844E-1,-1.2427338E-1,-3.9114103E-1,-2.1474975E-1,4.5013856E-2,6.1044265E-3,1.943021E-1],"split_indices":[78,51,36,50,11,0,0,54,57,0,55,0,0,40,18,0,0,55,0,0,29,0,0,0,0,0,0],"split_type":[0,0,0,0,0,0,0,0,0,0,0,0,0,0,0,0,0,0,0,0,0,0,0,0,0,0,0],"sum_hessian":[4.7590202E1,2.4194286E1,2.3395918E1,1.7650654E1,6.5436316E0,8.353381E0,1.5042538E1,2.0634422E0,1.5587213E1,2.2659645E0,4.277667E0,1.0062048E0,1.0572373E0,1.2021949E1,3.5652635E0,3.1601045E0,1.1175625E0,6.1001263E0,5.9218225E0,1.2143334E0,2.35093E0,2.311662E0,3.7884643E0,3.031396E0,2.8904266E0,1.0331763E0,1.3177537E0],"tree_param":{"num_deleted":"0","num_feature":"80","num_nodes":"27","size_leaf_vector":"0"}},{"base_weights":[-1.9303838E-2,-2.4040876E-1,2.5624773E-1,-5.6066155E-1,-4.7528543E-2,-2.819321E-1,2.8598702E-1,-9.4539E-1,-3.0409506E-1,-3.0409506E-1,2.0816205E-1,-3.651597E-1,-9.122852E-2,-1.9037275E-1,-9.122852E-2,-3.0409506E-1,2.6635392E-2,4.305185E-1,-3.0409506E-1,1.0930855E-2,-9.122852E-2,-9.122852E-2,5.9988177E-1,7.112595E-2,-9.122852E-2,2.298335E-1,4.4368006E-2],"categories":[],"categories_nodes":[],"categories_segments":[],"categories_sizes":[],"default_left":[0,0,0,0,0,0,0,0,0,0,0,0,0,0,0,0,0,0,0,0,0,0,0,0,0,0,0],"id":29,"left_children":[1,3,5,7,9,-1,-1,11,13,15,17,-1,-1,-1,-1,19,-1,21,23,-1,-1,-1,25,-1,-1,-1,-1],"loss_changes":[2.5814204E0,1.4226307E0,1.66494E1,1.6231873E0,1.6798525E0,0E0,0E0,1.3086667E0,1.9667125E-1,2.9870522E-1,1.3689482E0,0E0,0E0,0E0,0E0,1.6545403E-1,0E0,1.2071755E0,5.646146E-1,0E0,0E0,0E0,7.986171E-1,0E0,0E0,0E0,0E0],"parents":[2147483647,0,0,1,1,2,2,3,3,4,4,7,7,8,8,9,9,10,10,15,15,17,17,18,18,22,22],"right_children":[2,4,6,8,10,-1,-1,12,14,16,18,-1,-1,-1,-1,20,-1,22,24,-1,-1,-1,26,-1,-1,-1,-1],"split_conditions":[1E0,7.260742E-1,7.0214844E-1,1E0,1.7E1,-2.819321E-1,2.8598702E-1,3.7E2,7.0214844E-1,4E0,5.3E1,-3.651597E-1,-9.122852E-2,-1.9037275E-1,-9.122852E-2,2E0,2.6635392E-2,7.0214844E-1,1.4E1,1.0930855E-2,-9.122852E-2,-9.122852E-2,2.39E2,7.112595E-2,-9.122852E-2,2.298335E-1,4.4368006E-2],"split_indices":[78,1,38,68,40,0,0,51,23,49,48,0,0,0,0,40,0,0,63,0,0,0,70,0,0,0,0],"split_type":[0,0,0,0,0,0,0,0,0,0,0,0,0,0,0,0,0,0,0,0,0,0,0,0,0,0,0],"sum_hessian":[4.035876E1,2.2462332E1,1.789643E1,7.72657E0,1.4735762E1,6.461397E0,1.1435032E1,4.568506E0,3.1580641E0,5.0342526E0,9.701509E0,3.4272275E0,1.1412781E0,1.6474224E0,1.5106418E0,3.4999619E0,1.5342907E0,6.911648E0,2.7898614E0,1.2242535E0,2.2757084E0,1.0964218E0,5.815226E0,1.2435607E0,1.5463008E0,4.7897215E0,1.0255044E0],"tree_param":{"num_deleted":"0","num_feature":"80","num_nodes":"27","size_leaf_vector":"0"}},{"base_weights":[-3.3531003E-2,-3.2855114E-1,1.7024606E-1,-7.915254E-2,-3.371044E-1,-2.3745762E-2,2.8329208E-1,-2.3745762E-2,-5.578518E-2],"categories":[],"categories_nodes":[],"categories_segments":[],"categories_sizes":[],"default_left":[0,0,0,0,0,0,0,0,0],"id":30,"left_children":[1,3,5,7,-1,-1,-1,-1,-1],"loss_changes":[2.1791484E0,8.690518E0,1.2066899E1,1.665312E-2,0E0,0E0,0E0,0E0,0E0],"parents":[2147483647,0,0,1,1,2,2,3,3],"right_children":[2,4,6,8,-1,-1,-1,-1,-1],"split_conditions":[7.0214844E-1,1E0,1E0,3.2E1,-3.371044E-1,-2.3745762E-2,2.8329208E-1,-2.3745762E-2,-5.578518E-2],"split_indices":[25,65,64,61,0,0,0,0,0],"split_type":[0,0,0,0,0,0,0,0,0],"sum_hessian":[3.4317245E1,1.3769711E1,2.0547533E1,5.9566054E0,7.813105E0,8.74199E0,1.1805543E1,4.9472675E0,1.0093379E0],"tree_param":{"num_deleted":"0","num_feature":"80","num_nodes":"9","size_leaf_vector":"0"}},{"base_weights":[-4.6261586E-2,-3.5983065E-1,1.2554446E-1,-7.8138614E-1,7.575353E-3,-1.7781396E-1,3.729514E-1,-1.191736E0,3.3495024E-2,-1.7455122E-1,4.5537812E-1,9.756871E-2,-3.160083E-1,2.9270615E-2,2.7636757E-1,-1.1390249E-1,-4.3999228E-1,1.9862376E-1,-1.8968888E-2,2.9270615E-2,-4.984981E-2],"categories":[],"categories_nodes":[],"categories_segments":[],"categories_sizes":[],"default_left":[0,0,0,0,0,0,0,0,0,0,0,0,0,0,0,0,0,0,0,0,0],"id":31,"left_children":[1,3,5,7,9,11,13,15,-1,-1,17,19,-1,-1,-1,-1,-1,-1,-1,-1,-1],"loss_changes":[1.7209276E0,1.751279E0,1.6301671E0,2.059656E0,2.1156006E0,5.8966126E0,4.0339036E0,2.664237E-1,0E0,0E0,5.7339156E-1,1.2987071E-1,0E0,0E0,0E0,0E0,0E0,0E0,0E0,0E0,0E0],"parents":[2147483647,0,0,1,1,2,2,3,3,4,4,5,5,6,6,7,7,10,10,11,11],"right_children":[2,4,6,8,10,12,14,16,-1,-1,18,20,-1,-1,-1,-1,-1,-1,-1,-1,-1],"split_conditions":[4E0,3.6E1,8.0615234E-1,1E0,7.0214844E-1,1E0,1E0,6E0,3.3495024E-2,-1.7455122E-1,7E1,2.2E1,-3.160083E-1,2.9270615E-2,2.7636757E-1,-1.1390249E-1,-4.3999228E-1,1.9862376E-1,-1.8968888E-2,2.9270615E-2,-4.984981E-2],"split_indices":[49,50,25,66,10,65,65,55,0,0,56,61,0,0,0,0,0,0,0,0,0],"split_type":[0,0,0,0,0,0,0,0,0,0,0,0,0,0,0,0,0,0,0,0,0],"sum_hessian":[3.0105587E1,1.026896E1,1.9836628E1,4.2573647E0,6.011595E0,9.037084E0,1.0799544E1,2.687831E0,1.5695342E0,2.4661934E0,3.545401E0,5.003787E0,4.033296E0,4.5203953E0,6.279149E0,1.281988E0,1.4058428E0,2.421377E0,1.1240242E0,3.9997861E0,1.004001E0],"tree_param":{"num_deleted":"0","num_feature":"80","num_nodes":"21","size_leaf_vector":"0"}},{"base_weights":[-4.7729246E-2,-2.2031048E-1,2.683458E-1,-4.8412636E-1,1.08105764E-1,-2.6460597E-1,5.047771E-1,-7.276168E-1,-7.3349546E-3,-6.7682505E-1,2.3822257E-1,-1.4054601E-1,3.1756528E-2,6.7466474E-1,3.6025666E-2,-1.0334544E0,-2.681924E-3,-2.3210543E-1,2.2739011E-1,-2.345348E-1,-4.152377E-2,3.6025666E-2,2.3309383E-1,-7.727589E-2,-3.7954587E-1,7.3513046E-2,-7.759382E-2],"categories":[],"categories_nodes":[],"categories_segments":[],"categories_sizes":[],"default_left":[0,0,0,0,0,0,0,0,0,0,0,0,0,0,0,0,0,0,0,0,0,0,0,0,0,0,0],"id":32,"left_children":[1,3,5,7,9,11,13,15,17,19,-1,-1,-1,21,-1,23,25,-1,-1,-1,-1,-1,-1,-1,-1,-1,-1],"loss_changes":[1.6005849E0,1.6835778E0,1.4479492E0,1.2279463E0,5.4934316E0,3.4125388E-1,8.4688807E-1,1.5540507E0,3.2850513E0,1.6487288E-1,0E0,0E0,0E0,3.2152915E-1,0E0,5.614085E-1,2.5906062E-1,0E0,0E0,0E0,0E0,0E0,0E0,0E0,0E0,0E0,0E0],"parents":[2147483647,0,0,1,1,2,2,3,3,4,4,5,5,6,6,7,7,8,8,9,9,13,13,15,15,16,16],"right_children":[2,4,6,8,10,12,14,16,18,20,-1,-1,-1,22,-1,24,26,-1,-1,-1,-1,-1,-1,-1,-1,-1,-1],"split_conditions":[1.7E1,1.1E1,7.0214844E-1,1E0,7.0214844E-1,1E0,1.6E2,3.4E1,7.0214844E-1,7.0214844E-1,2.3822257E-1,-1.4054601E-1,3.1756528E-2,5.3E1,3.6025666E-2,5E0,7.2E1,-2.3210543E-1,2.2739011E-1,-2.345348E-1,-4.152377E-2,3.6025666E-2,2.3309383E-1,-7.727589E-2,-3.7954587E-1,7.3513046E-2,-7.759382E-2],"split_indices":[59,72,11,67,32,78,58,42,27,37,0,0,0,50,0,54,44,0,0,0,0,0,0,0,0,0,0],"split_type":[0,0,0,0,0,0,0,0,0,0,0,0,0,0,0,0,0,0,0,0,0,0,0,0,0,0,0],"sum_hessian":[2.725856E1,1.7827492E1,9.431069E0,9.623131E0,8.20436E0,2.8615463E0,6.5695233E0,6.0218105E0,3.6013205E0,3.8324041E0,4.3719554E0,1.6750754E0,1.186471E0,5.4426985E0,1.1268249E0,3.935787E0,2.0860236E0,1.7939553E0,1.8073652E0,2.8289227E0,1.0034815E0,1.0721244E0,4.370574E0,1.3906773E0,2.5451095E0,1.0817534E0,1.0042703E0],"tree_param":{"num_deleted":"0","num_feature":"80","num_nodes":"27","size_leaf_vector":"0"}},{"base_weights":[-5.517224E-2,-1.8694374E-1,2.8807217E-1,-9.567157E-2,-2.3223338E-1,-1.30393E-1,6.012895E-1,-3.9162216E-1,1.23658836E-1,2.2906594E-1,2.4996929E-2,-1.8717168E-2,-6.7683417E-1,-3.70618E-1,4.1868404E-1,-7.978117E-2,6.33454E-2,-2.9619652E-1,-6.46021E-4,-6.2654257E-1,7.2099078E-3,5.445287E-1,1.5198138E-2,-2.570003E-1,-1.8541856E-2,1.8930508E-1,3.4807004E-2],"categories":[],"categories_nodes":[],"categories_segments":[],"categories_sizes":[],"default_left":[0,0,0,0,0,0,0,0,0,0,0,0,0,0,0,0,0,0,0,0,0,0,0,0,0,0,0],"id":33,"left_children":[1,3,5,7,-1,-1,9,11,13,-1,-1,15,17,19,21,-1,-1,-1,-1,23,-1,25,-1,-1,-1,-1,-1],"loss_changes":[1.2102429E0,9.4853073E-1,1.9559166E0,1.1944321E0,0E0,0E0,5.1854706E-1,8.121172E-1,1.7446756E0,0E0,0E0,3.0558392E-1,9.123924E-1,6.4462507E-1,3.1029344E-1,0E0,0E0,0E0,0E0,3.653772E-1,0E0,1.2446451E-1,0E0,0E0,0E0,0E0,0E0],"parents":[2147483647,0,0,1,1,2,2,3,3,6,6,7,7,8,8,11,11,12,12,13,13,14,14,19,19,21,21],"right_children":[2,4,6,8,-1,-1,10,12,14,-1,-1,16,18,20,22,-1,-1,-1,-1,24,-1,26,-1,-1,-1,-1,-1],"split_conditions":[2.13E2,1.75E2,7.0214844E-1,4E0,-2.3223338E-1,-1.30393E-1,2.71E2,2E0,7.0214844E-1,2.2906594E-1,2.4996929E-2,8.979492E-1,2E1,1E0,1E1,-7.978117E-2,6.33454E-2,-2.9619652E-1,-6.46021E-4,2E0,7.2099078E-3,2.01E2,1.5198138E-2,-2.570003E-1,-1.8541856E-2,1.8930508E-1,3.4807004E-2],"split_indices":[51,51,11,49,0,0,55,48,1,0,0,16,60,67,76,0,0,0,0,75,0,60,0,0,0,0,0],"split_type":[0,0,0,0,0,0,0,0,0,0,0,0,0,0,0,0,0,0,0,0,0,0,0,0,0,0,0],"sum_hessian":[2.4566965E1,1.8081024E1,6.485941E0,1.6655024E1,1.4260005E0,1.8438293E0,4.642112E0,6.7548804E0,9.900143E0,3.407069E0,1.2350428E0,3.3892183E0,3.3656619E0,3.6047025E0,6.29544E0,1.5573752E0,1.8318431E0,1.9875857E0,1.3780762E0,2.2188706E0,1.3858317E0,4.333879E0,1.9615614E0,1.2091992E0,1.0096716E0,3.212815E0,1.121064E0],"tree_param":{"num_deleted":"0","num_feature":"80","num_nodes":"27","size_leaf_vector":"0"}},{"base_weights":[-5.6225628E-2,-2.0827907E-1,2.0818245E-1,-9.966412E-2,-2.1004526E-1,-2.3972075E-1,2.604641E-1,-2.7069387E-1,3.074861E-1,-3.7769833E-1,9.472719E-2,-5.723884E-2,5.117307E-1,-1.270682E-1,-8.1543946E-1,1.8101835E-1,4.8140183E-2,-1.5584873E-1,5.6239136E-2,-3.0961162E-1,-7.4896745E-2],"categories":[],"categories_nodes":[],"categories_segments":[],"categories_sizes":[],"default_left":[0,0,0,0,0,0,0,0,0,0,0,0,0,0,0,0,0,0,0,0,0],"id":34,"left_children":[1,3,5,7,-1,-1,-1,9,11,13,-1,-1,15,17,19,-1,-1,-1,-1,-1,-1],"loss_changes":[1.0180118E0,7.7920634E-1,6.9106507E0,1.0708562E0,0E0,0E0,0E0,7.7937734E-1,5.7225543E-1,9.2234087E-1,0E0,0E0,3.7397444E-2,9.776047E-1,1.3697433E-1,0E0,0E0,0E0,0E0,0E0,0E0],"parents":[2147483647,0,0,1,1,2,2,3,3,7,7,8,8,9,9,12,12,13,13,14,14],"right_children":[2,4,6,8,-1,-1,-1,10,12,14,-1,-1,16,18,20,-1,-1,-1,-1,-1,-1],"split_conditions":[1E0,7E0,7.0214844E-1,1E0,-2.1004526E-1,-2.3972075E-1,2.604641E-1,3.66E2,8.7402344E-1,5.4E1,9.472719E-2,-5.723884E-2,2E0,1E0,2.2E1,1.8101835E-1,4.8140183E-2,-1.5584873E-1,5.6239136E-2,-3.0961162E-1,-7.4896745E-2],"split_indices":[78,76,35,72,0,0,0,52,1,53,0,0,63,61,59,0,0,0,0,0,0],"split_type":[0,0,0,0,0,0,0,0,0,0,0,0,0,0,0,0,0,0,0,0,0],"sum_hessian":[2.3242561E1,1.4891293E1,8.35127E0,1.3182877E1,1.7084157E0,3.2226453E0,5.1286244E0,9.519298E0,3.6635785E0,8.351444E0,1.1678535E0,1.0842499E0,2.5793288E0,6.1312556E0,2.2201889E0,1.5730163E0,1.0063125E0,2.437922E0,3.6933334E0,1.0095971E0,1.2105917E0],"tree_param":{"num_deleted":"0","num_feature":"80","num_nodes":"21","size_leaf_vector":"0"}},{"base_weights":[-5.881794E-2,-1.9613406E-1,1.8899766E-1,-3.783449E-1,8.572915E-2,-1.8002807E-1,3.692292E-1,-1.7978396E-1,-2.6825255E-1,-5.498295E-1,2.029285E-1,-1.1320618E-1,2.838017E-2,2.0662501E-1,9.4600566E-2,-3.166543E-1,7.033746E-2,-1.9313289E-1,-4.410007E-2,2.838017E-2,1.6056432E-1,-4.80302E-1,3.1873856E-2,-2.0134164E-1,-1.9225013E-2],"categories":[],"categories_nodes":[],"categories_segments":[],"categories_sizes":[],"default_left":[0,0,0,0,0,0,0,0,0,0,0,0,0,0,0,0,0,0,0,0,0,0,0,0,0],"id":35,"left_children":[1,3,5,7,9,11,13,15,-1,17,-1,-1,-1,-1,19,21,-1,-1,-1,-1,-1,23,-1,-1,-1],"loss_changes":[7.8933084E-1,7.8819025E-1,6.2456906E-1,7.735822E-1,2.8470807E0,2.6323622E-1,8.036185E-1,5.1866364E-1,0E0,4.643035E-2,0E0,0E0,0E0,0E0,4.077E-1,4.8822254E-1,0E0,0E0,0E0,0E0,0E0,3.331566E-1,0E0,0E0,0E0],"parents":[2147483647,0,0,1,1,2,2,3,3,4,4,5,5,6,6,7,7,9,9,14,14,15,15,21,21],"right_children":[2,4,6,8,10,12,14,16,-1,18,-1,-1,-1,-1,20,22,-1,-1,-1,-1,-1,24,-1,-1,-1],"split_conditions":[1.7E1,1.1E1,7.0214844E-1,8E0,7.0214844E-1,1.7E1,1E1,1E0,-2.6825255E-1,8.9208984E-1,2.029285E-1,-1.1320618E-1,2.838017E-2,2.0662501E-1,7.0214844E-1,1.24E2,7.033746E-2,-1.9313289E-1,-4.410007E-2,2.838017E-2,1.6056432E-1,1E0,3.1873856E-2,-2.0134164E-1,-1.9225013E-2],"split_indices":[59,72,10,71,32,49,63,71,0,38,0,0,0,0,23,40,0,0,0,0,0,67,0,0,0],"split_type":[0,0,0,0,0,0,0,0,0,0,0,0,0,0,0,0,0,0,0,0,0,0,0,0,0],"sum_hessian":[2.1106447E1,1.3715278E1,7.39117E0,8.122304E0,5.5929737E0,2.425686E0,4.965484E0,6.8384724E0,1.2838318E0,2.7275133E0,2.8654604E0,1.3819312E0,1.0437547E0,2.5763211E0,2.389163E0,5.317193E0,1.5212797E0,1.726684E0,1.0008293E0,1.243041E0,1.146122E0,3.7358258E0,1.5813673E0,2.1414852E0,1.5943403E0],"tree_param":{"num_deleted":"0","num_feature":"80","num_nodes":"25","size_leaf_vector":"0"}},{"base_weights":[-6.89837E-2,-1.8035473E-1,1.824995E-1,9.144955E-2,-2.5353098E-1,-2.1710233E-1,2.4182345E-1,-5.9888494E-1,-5.176573E-2,-2.1466513E-1,-9.759761E-2,-2.857755E-1,2.7785233E-1,-3.2532534E-1,4.6326622E-2,1.880996E-1,-9.759761E-2,-7.163065E-3,-9.759761E-2],"categories":[],"categories_nodes":[],"categories_segments":[],"categories_sizes":[],"default_left":[0,0,0,0,0,0,0,0,0,0,0,0,0,0,0,0,0,0,0],"id":36,"left_children":[1,3,5,-1,7,-1,-1,9,11,-1,-1,13,15,17,-1,-1,-1,-1,-1],"loss_changes":[6.1285794E-1,6.046598E-1,4.4554663E0,0E0,9.064214E-1,0E0,0E0,1.0667765E-1,8.1885195E-1,0E0,0E0,4.6748072E-1,1.1994431E0,1.801809E-1,0E0,0E0,0E0,0E0,0E0],"parents":[2147483647,0,0,1,1,2,2,4,4,7,7,8,8,11,11,12,12,13,13],"right_children":[2,4,6,-1,8,-1,-1,10,12,-1,-1,14,16,18,-1,-1,-1,-1,-1],"split_conditions":[1E0,2E0,7.0214844E-1,9.144955E-2,7.0214844E-1,-2.1710233E-1,2.4182345E-1,1E0,2E1,-2.1466513E-1,-9.759761E-2,3.2E1,1.4E1,2.1E1,4.6326622E-2,1.880996E-1,-9.759761E-2,-7.163065E-3,-9.759761E-2],"split_indices":[78,50,34,0,10,0,0,69,57,0,0,42,63,40,0,0,0,0,0],"split_type":[0,0,0,0,0,0,0,0,0,0,0,0,0,0,0,0,0,0,0],"sum_hessian":[1.9706385E1,1.3853919E1,5.852466E0,1.4007416E0,1.2453177E1,2.3202295E0,3.5322366E0,3.8666139E0,8.586564E0,2.7872555E0,1.0793581E0,5.0993385E0,3.4872255E0,3.5669088E0,1.5324295E0,2.239353E0,1.2478725E0,2.1475053E0,1.4194036E0],"tree_param":{"num_deleted":"0","num_feature":"80","num_nodes":"19","size_leaf_vector":"0"}},{"base_weights":[-7.433446E-2,-1.9502953E-1,1.2313949E-1,-2.110744E-2,-3.1412736E-1,-2.3926353E-1,2.9849583E-1,-2.124625E-1,3.6583826E-1,7.1893367E-3,-1.1344469E-1,1.8711475E-1,2.9616147E-2,-4.10787E-1,1.2103839E-1,1.5021342E-1,-1.9926177E-3,8.884844E-3,1.6298902E-1,-1.9626637E-1,-1.3341025E-1,-1.7902257E-1,2.0578687E-1,-1.1386199E-1,4.3300085E-2],"categories":[],"categories_nodes":[],"categories_segments":[],"categories_sizes":[],"default_left":[0,0,0,0,0,0,0,0,0,0,0,0,0,0,0,0,0,0,0,0,0,0,0,0,0],"id":37,"left_children":[1,3,5,7,-1,9,11,13,15,-1,-1,-1,17,19,21,-1,-1,-1,-1,-1,23,-1,-1,-1,-1],"loss_changes":[4.7293118E-1,1.7676312E0,5.644301E-1,8.95942E-1,0E0,1.21838585E-1,7.217561E-1,5.8060575E-1,2.0547539E-1,0E0,0E0,0E0,5.7171136E-1,2.679528E-1,1.9362394E0,0E0,0E0,0E0,0E0,0E0,3.0875403E-1,0E0,0E0,0E0,0E0],"parents":[2147483647,0,0,1,1,2,2,3,3,5,5,6,6,7,7,8,8,12,12,13,13,14,14,20,20],"right_children":[2,4,6,8,-1,10,12,14,16,-1,-1,-1,18,20,22,-1,-1,-1,-1,-1,24,-1,-1,-1,-1],"split_conditions":[3.2E1,2.6E1,8.359375E-1,1.5E1,-3.1412736E-1,6.4E1,1.3E1,1E0,7E0,7.1893367E-3,-1.1344469E-1,1.8711475E-1,7.0214844E-1,3E0,7.0214844E-1,1.5021342E-1,-1.9926177E-3,8.884844E-3,1.6298902E-1,-1.9626637E-1,7.0214844E-1,-1.7902257E-1,2.0578687E-1,-1.1386199E-1,4.3300085E-2],"split_indices":[54,54,17,53,0,55,63,66,74,0,0,0,23,49,22,0,0,0,0,0,0,0,0,0,0],"split_type":[0,0,0,0,0,0,0,0,0,0,0,0,0,0,0,0,0,0,0,0,0,0,0,0,0],"sum_hessian":[1.7834976E1,1.1077092E1,6.7578835E0,1.0050387E1,1.0267043E0,2.0848184E0,4.673065E0,7.0265126E0,3.0238755E0,1.0058651E0,1.0789531E0,2.2094078E0,2.4636574E0,4.260914E0,2.7655985E0,1.9672736E0,1.0566018E0,1.2936745E0,1.169983E0,1.5457318E0,2.715182E0,1.1931973E0,1.5724014E0,1.2452033E0,1.4699789E0],"tree_param":{"num_deleted":"0","num_feature":"80","num_nodes":"25","size_leaf_vector":"0"}},{"base_weights":[-8.835395E-2,-1.8224557E-1,1.5730841E-1,7.440865E-2,-2.610764E-1,-1.9803514E-1,2.2335342E-1,-3.9554343E-1,8.5312966E-4,-5.343632E-1,-3.6276143E-2,1.1392355E-1,-2.620184E-1,-1.5710896E-2,-6.7317826E-1,-6.415082E-2,5.16895E-2,1.9536384E-3,-1.2741147E-1,-2.7782682E-1,-6.814852E-2],"categories":[],"categories_nodes":[],"categories_segments":[],"categories_sizes":[],"default_left":[0,0,0,0,0,0,0,0,0,0,0,0,0,0,0,0,0,0,0,0,0],"id":38,"left_children":[1,3,5,-1,7,-1,-1,9,11,13,15,-1,17,-1,19,-1,-1,-1,-1,-1,-1],"loss_changes":[4.343354E-1,5.12062E-1,3.0833964E0,0E0,4.1005373E-1,0E0,0E0,3.6408293E-1,5.9191793E-1,3.3093727E-1,1.5593712E-1,0E0,1.5613048E-1,0E0,2.5943983E-1,0E0,0E0,0E0,0E0,0E0,0E0],"parents":[2147483647,0,0,1,1,2,2,4,4,7,7,8,8,9,9,10,10,12,12,14,14],"right_children":[2,4,6,-1,8,-1,-1,10,12,14,16,-1,18,-1,20,-1,-1,-1,-1,-1,-1],"split_conditions":[1E0,2E0,7.0214844E-1,7.440865E-2,1.7E1,-1.9803514E-1,2.2335342E-1,3.2E1,2.6E1,6E0,1.4E1,1.1392355E-1,1.2E1,-1.5710896E-2,1E0,-6.415082E-2,5.16895E-2,1.9536384E-3,-1.2741147E-1,-2.7782682E-1,-6.814852E-2],"split_indices":[78,51,36,0,59,0,0,42,58,55,54,0,63,0,62,0,0,0,0,0,0],"split_type":[0,0,0,0,0,0,0,0,0,0,0,0,0,0,0,0,0,0,0,0,0],"sum_hessian":[1.6587488E1,1.2187571E1,4.3999166E0,1.5548029E0,1.0632768E1,1.7874691E0,2.6124477E0,6.688812E0,3.9439561E0,4.4730635E0,2.215748E0,1.4333631E0,2.5105932E0,1.3081539E0,3.1649096E0,1.1832329E0,1.0325152E0,1.3093497E0,1.2012434E0,1.3327979E0,1.8321117E0],"tree_param":{"num_deleted":"0","num_feature":"80","num_nodes":"21","size_leaf_vector":"0"}},{"base_weights":[-8.0250345E-2,-2.1582021E-1,6.430868E-2,2.8604623E-2,-5.40017E-1,-5.17094E-1,6.135365E-1,-1.4431193E-1,2.447029E-1,-2.379261E-1,-3.850724E-2,1.44663695E-2,-2.3445113E-1,5.4619353E-2,2.2163017E-1,-4.1412164E-2,3.8221636E-1,2.6179805E-2,1.4298287E-1],"categories":[],"categories_nodes":[],"categories_segments":[],"categories_sizes":[],"default_left":[0,0,0,0,0,0,0,0,0,0,0,0,0,0,0,0,0,0,0],"id":39,"left_children":[1,3,5,7,9,11,13,-1,15,-1,-1,-1,-1,-1,-1,-1,17,-1,-1],"loss_changes":[3.4112063E-1,7.164507E-1,3.1437185E0,7.7778715E-1,2.995987E-1,9.6670175E-1,1.3615155E-1,0E0,3.0916718E-1,0E0,0E0,0E0,0E0,0E0,0E0,0E0,6.5577745E-2,0E0,0E0],"parents":[2147483647,0,0,1,1,2,2,3,3,4,4,5,5,6,6,8,8,16,16],"right_children":[2,4,6,8,10,12,14,-1,16,-1,-1,-1,-1,-1,-1,-1,18,-1,-1],"split_conditions":[1E0,2.6E1,7.0214844E-1,1E0,2.9E1,1E0,1E0,-1.4431193E-1,4E0,-2.379261E-1,-3.850724E-2,1.44663695E-2,-2.3445113E-1,5.4619353E-2,2.2163017E-1,-4.1412164E-2,7.6220703E-1,2.6179805E-2,1.4298287E-1],"split_indices":[72,55,33,58,57,76,77,0,49,0,0,0,0,0,0,0,29,0,0],"split_type":[0,0,0,0,0,0,0,0,0,0,0,0,0,0,0,0,0,0,0],"sum_hessian":[1.569783E1,7.8463945E0,7.8514357E0,4.9934225E0,2.8529718E0,3.842423E0,4.0090127E0,1.1217868E0,3.871636E0,1.193005E0,1.6599668E0,1.1869673E0,2.6554556E0,1.4538223E0,2.5551903E0,1.0223314E0,2.8493044E0,1.1573687E0,1.6919358E0],"tree_param":{"num_deleted":"0","num_feature":"80","num_nodes":"19","size_leaf_vector":"0"}},{"base_weights":[-6.987631E-2,-1.0923772E-1,-9.759258E-3,1.2286071E-1,-2.2650822E-1,2.5316566E-1,-7.443561E-2,-5.238223E-1,2.035678E-1,-8.1948295E-2,4.5751938E-1,-4.8038177E-2,-2.2775193E-1,-4.787901E-2,1.3832526E-1,5.633566E-2,-1.4572248E-1,1.6437966E-1,5.633566E-2],"categories":[],"categories_nodes":[],"categories_segments":[],"categories_sizes":[],"default_left":[0,0,0,0,0,0,0,0,0,0,0,0,0,0,0,0,0,0,0],"id":40,"left_children":[1,-1,3,5,7,9,-1,11,13,15,17,-1,-1,-1,-1,-1,-1,-1,-1],"loss_changes":[2.7306843E-1,0E0,4.3061808E-1,5.143939E-1,8.3173823E-1,5.4482734E-1,0E0,3.8735002E-1,3.5770416E-1,6.252327E-1,9.815574E-2,0E0,0E0,0E0,0E0,0E0,0E0,0E0,0E0],"parents":[2147483647,0,0,2,2,3,3,4,4,5,5,7,7,8,8,9,9,10,10],"right_children":[2,-1,4,6,8,10,-1,12,14,16,18,-1,-1,-1,-1,-1,-1,-1,-1],"split_conditions":[1E0,-1.0923772E-1,5.6E1,7E0,7.7197266E-1,8.461914E-1,-7.443561E-2,1E0,8E0,1.03E2,6E0,-4.8038177E-2,-2.2775193E-1,-4.787901E-2,1.3832526E-1,5.633566E-2,-1.4572248E-1,1.6437966E-1,5.633566E-2],"split_indices":[57,0,53,76,25,0,0,65,64,40,63,0,0,0,0,0,0,0,0],"split_type":[0,0,0,0,0,0,0,0,0,0,0,0,0,0,0,0,0,0,0],"sum_hessian":[1.4637722E1,1.6253456E0,1.3012376E1,8.341633E0,4.6707435E0,6.4083138E0,1.9333189E0,2.632739E0,2.0380044E0,2.6544094E0,3.7539043E0,1.1428585E0,1.4898806E0,1.0033163E0,1.0346881E0,1.6123053E0,1.0421041E0,2.6952608E0,1.0586437E0],"tree_param":{"num_deleted":"0","num_feature":"80","num_nodes":"19","size_leaf_vector":"0"}},{"base_weights":[-6.1257754E-2,-1.6816263E-1,1.2367797E-1,-4.2649724E-2,-1.7997822E-1,1.0317102E-1,-1.448949E-1,-1.442484E-1,6.861709E-2,-1.8527704E-1,1.4344475E-1,5.6661475E-2,-2.8542268E-1,-1.6752906E-1,-7.75617E-2,-8.759317E-2,2.4932861E-2],"categories":[],"categories_nodes":[],"categories_segments":[],"categories_sizes":[],"default_left":[0,0,0,0,0,0,0,0,0,0,0,0,0,0,0,0,0],"id":41,"left_children":[1,3,5,7,-1,-1,9,11,-1,-1,-1,-1,13,-1,15,-1,-1],"loss_changes":[3.1681237E-1,5.115472E-1,4.0830722E-1,2.7440202E-1,0E0,0E0,1.306719E0,3.8235044E-1,0E0,0E0,0E0,0E0,2.5764248E-1,0E0,1.6800147E-1,0E0,0E0],"parents":[2147483647,0,0,1,1,2,2,3,3,6,6,7,7,12,12,14,14],"right_children":[2,4,6,8,-1,-1,10,12,-1,-1,-1,-1,14,-1,16,-1,-1],"split_conditions":[3E1,2.5E1,1.3E1,2.2E1,-1.7997822E-1,1.0317102E-1,7.0214844E-1,2E0,6.861709E-2,-1.8527704E-1,1.4344475E-1,5.6661475E-2,4E0,-1.6752906E-1,7.0214844E-1,-8.759317E-2,2.4932861E-2],"split_indices":[54,55,63,52,0,0,23,51,0,0,0,0,41,0,0,0,0],"split_type":[0,0,0,0,0,0,0,0,0,0,0,0,0,0,0,0,0],"sum_hessian":[1.3972503E1,8.911673E0,5.06083E0,7.7558475E0,1.1558251E0,2.6265867E0,2.4342432E0,5.983975E0,1.7718726E0,1.3891029E0,1.0451404E0,1.680573E0,4.303402E0,1.131162E0,3.17224E0,1.0087847E0,2.1634555E0],"tree_param":{"num_deleted":"0","num_feature":"80","num_nodes":"17","size_leaf_vector":"0"}},{"base_weights":[-6.0211144E-2,-1.3369341E-1,1.605555E-1,-3.320042E-2,-1.7634732E-1,-6.298274E-2,3.5135671E-1,-2.8780073E-1,1.2506366E-1,1.5410118E-1,2.1212138E-2,-1.5085645E-1,-2.4410563E-2,-8.1368536E-2,3.5233858E-1,-2.4410563E-2,3.9922245E-2,1.3254645E-1,1.41891185E-2],"categories":[],"categories_nodes":[],"categories_segments":[],"categories_sizes":[],"default_left":[0,0,0,0,0,0,0,0,0,0,0,0,0,0,0,0,0,0,0],"id":42,"left_children":[1,3,5,7,-1,-1,9,11,13,-1,-1,-1,-1,15,17,-1,-1,-1,-1],"loss_changes":[2.5609088E-1,5.006019E-1,3.6120915E-1,4.547177E-1,0E0,0E0,1.56834E-1,3.5556585E-1,4.96613E-1,0E0,0E0,0E0,0E0,9.248098E-2,9.606719E-2,0E0,0E0,0E0,0E0],"parents":[2147483647,0,0,1,1,2,2,3,3,6,6,7,7,8,8,13,13,14,14],"right_children":[2,4,6,8,-1,-1,10,12,14,-1,-1,-1,-1,16,18,-1,-1,-1,-1],"split_conditions":[2.13E2,1.66E2,7.841797E-1,8.7402344E-1,-1.7634732E-1,-6.298274E-2,1.4E1,1E0,1.7E1,1.5410118E-1,2.1212138E-2,-1.5085645E-1,-2.4410563E-2,4E0,1E0,-2.4410563E-2,3.9922245E-2,1.3254645E-1,1.41891185E-2],"split_indices":[51,51,12,1,0,0,63,69,40,0,0,0,0,49,77,0,0,0,0],"split_type":[0,0,0,0,0,0,0,0,0,0,0,0,0,0,0,0,0,0,0],"sum_hessian":[1.34630375E1,1.0396853E1,3.0661838E0,9.3917055E0,1.0051486E0,1.0081797E0,2.0580041E0,3.2863889E0,6.105316E0,1.0522971E0,1.005707E0,2.066962E0,1.2194268E0,2.8202894E0,3.285027E0,1.6652305E0,1.1550589E0,2.1932473E0,1.0917797E0],"tree_param":{"num_deleted":"0","num_feature":"80","num_nodes":"19","size_leaf_vector":"0"}},{"base_weights":[-5.510939E-2,-1.7848983E-1,8.768264E-2,1.3064288E-2,-1.648572E-1,-4.2765498E-1,5.5899775E-1,-8.161585E-2,1.7071307E-1,1.9701416E-2,-2.0205356E-1,3.8469955E-2,1.981636E-1,-1.5200964E-2,4.2481378E-1,1.8757237E-1,-9.4774977E-4],"categories":[],"categories_nodes":[],"categories_segments":[],"categories_sizes":[],"default_left":[0,0,0,0,0,0,0,0,0,0,0,0,0,0,0,0,0],"id":43,"left_children":[1,3,5,7,-1,9,11,-1,13,-1,-1,-1,-1,-1,15,-1,-1],"loss_changes":[2.6279268E-1,5.654553E-1,1.9812994E0,3.232E-1,0E0,6.499956E-1,9.8142385E-2,0E0,5.467162E-1,0E0,0E0,0E0,0E0,0E0,2.9552782E-1,0E0,0E0],"parents":[2147483647,0,0,1,1,2,2,3,3,5,5,6,6,8,8,14,14],"right_children":[2,4,6,8,-1,10,12,-1,14,-1,-1,-1,-1,-1,16,-1,-1],"split_conditions":[1E0,6.1E1,7.0214844E-1,7.241211E-1,-1.648572E-1,1E0,1E0,-8.161585E-2,3E1,1.9701416E-2,-2.0205356E-1,3.8469955E-2,1.981636E-1,-1.5200964E-2,1E0,1.8757237E-1,-9.4774977E-4],"split_indices":[72,61,33,10,0,76,76,0,50,0,0,0,0,0,64,0,0],"split_type":[0,0,0,0,0,0,0,0,0,0,0,0,0,0,0,0,0],"sum_hessian":[1.3028026E1,6.854955E0,6.1730704E0,5.1572213E0,1.697734E0,2.9930708E0,3.1799996E0,1.5778669E0,3.5793545E0,1.0169914E0,1.9760796E0,1.0383039E0,2.1416957E0,1.1570989E0,2.4222555E0,1.3357592E0,1.0864965E0],"tree_param":{"num_deleted":"0","num_feature":"80","num_nodes":"17","size_leaf_vector":"0"}},{"base_weights":[-5.0655976E-2,-1.349861E-1,1.2537096E-1,1.0793187E-2,-3.9399326E-1,2.5132486E-1,-4.7801398E-2,-1.6331796E-1,2.1151268E-1,-1.945271E-1,-4.571389E-3,-3.3618635E-3,1.1034129E-1,3.0428184E-2,-1.0594137E-1,1.1138429E-1,-2.3538107E-2],"categories":[],"categories_nodes":[],"categories_segments":[],"categories_sizes":[],"default_left":[0,0,0,0,0,0,0,0,0,0,0,0,0,0,0,0,0],"id":44,"left_children":[1,3,5,7,9,11,-1,13,15,-1,-1,-1,-1,-1,-1,-1,-1],"loss_changes":[2.110687E-1,3.5630798E-1,2.1054958E-1,2.770593E-1,3.1628352E-1,1.1678815E-1,0E0,2.5091997E-1,1.9865206E-1,0E0,0E0,0E0,0E0,0E0,0E0,0E0,0E0],"parents":[2147483647,0,0,1,1,2,2,3,3,4,4,5,5,7,7,8,8],"right_children":[2,4,6,8,10,12,-1,14,16,-1,-1,-1,-1,-1,-1,-1,-1],"split_conditions":[1.7E1,1.9E1,1.29E2,4E0,4.7E1,1.4E1,-4.7801398E-2,2E0,1.3E1,-1.945271E-1,-4.571389E-3,-3.3618635E-3,1.1034129E-1,3.0428184E-2,-1.0594137E-1,1.1138429E-1,-2.3538107E-2],"split_indices":[59,47,55,49,44,61,0,48,60,0,0,0,0,0,0,0,0],"split_type":[0,0,0,0,0,0,0,0,0,0,0,0,0,0,0,0,0],"sum_hessian":[1.2078714E1,8.32403E0,3.7546844E0,5.939421E0,2.3846087E0,2.684383E0,1.0703015E0,3.2803059E0,2.6591156E0,1.0005196E0,1.384089E0,1.1027362E0,1.5816468E0,1.5642642E0,1.7160417E0,1.5336903E0,1.1254252E0],"tree_param":{"num_deleted":"0","num_feature":"80","num_nodes":"17","size_leaf_vector":"0"}},{"base_weights":[-4.5226283E-2,-1.5614495E-1,8.814252E-2,3.992235E-3,-1.3376874E-1,-3.673368E-1,5.0148535E-1,-7.309231E-2,1.4564537E-1,2.0122282E-2,-1.8186194E-1,3.5239182E-2,1.8931806E-1,9.618731E-2,-4.5237478E-2],"categories":[],"categories_nodes":[],"categories_segments":[],"categories_sizes":[],"default_left":[0,0,0,0,0,0,0,0,0,0,0,0,0,0,0],"id":45,"left_children":[1,3,5,7,-1,9,11,-1,13,-1,-1,-1,-1,-1,-1],"loss_changes":[2.0510273E-1,3.461765E-1,1.4102312E0,2.3793809E-1,0E0,4.844408E-1,1.1678702E-1,0E0,2.7124625E-1,0E0,0E0,0E0,0E0,0E0,0E0],"parents":[2147483647,0,0,1,1,2,2,3,3,5,5,6,6,8,8],"right_children":[2,4,6,8,-1,10,12,-1,14,-1,-1,-1,-1,-1,-1],"split_conditions":[1E0,6.1E1,7.0214844E-1,3E0,-1.3376874E-1,2E0,1E0,-7.309231E-2,1.6E1,2.0122282E-2,-1.8186194E-1,3.5239182E-2,1.8931806E-1,9.618731E-2,-4.5237478E-2],"split_indices":[72,61,33,49,0,76,77,0,49,0,0,0,0,0,0],"split_type":[0,0,0,0,0,0,0,0,0,0,0,0,0,0,0],"sum_hessian":[1.19344E1,6.4223537E0,5.512046E0,4.771501E0,1.6508528E0,2.6753123E0,2.8367333E0,1.474262E0,3.2972388E0,1.0666622E0,1.6086501E0,1.1966753E0,1.640058E0,2.0220702E0,1.2751688E0],"tree_param":{"num_deleted":"0","num_feature":"80","num_nodes":"15","size_leaf_vector":"0"}},{"base_weights":[-3.765666E-2,-1.2776022E-1,1.287893E-1,5.7885993E-2,-3.7158862E-1,-6.2493082E-2,2.9787487E-1,-1.3699223E-1,9.661775E-2,-1.0538972E-2,-1.878465E-1,1.592637E-1,1.3434691E-2,3.4744106E-2,-1.1233356E-1],"categories":[],"categories_nodes":[],"categories_segments":[],"categories_sizes":[],"default_left":[0,0,0,0,0,0,0,0,0,0,0,0,0,0,0],"id":46,"left_children":[1,3,5,7,9,-1,11,13,-1,-1,-1,-1,-1,-1,-1],"loss_changes":[2.0219478E-1,4.0795103E-1,3.383643E-1,3.381861E-1,3.0562568E-1,0E0,3.227985E-1,2.8280768E-1,0E0,0E0,0E0,0E0,0E0,0E0,0E0],"parents":[2147483647,0,0,1,1,2,2,3,3,4,4,6,6,7,7],"right_children":[2,4,6,8,10,-1,12,14,-1,-1,-1,-1,-1,-1,-1],"split_conditions":[3E1,8E0,7.0214844E-1,4E0,4.7E1,-6.2493082E-2,1.3E1,6E0,9.661775E-2,-1.0538972E-2,-1.878465E-1,1.592637E-1,1.3434691E-2,3.4744106E-2,-1.1233356E-1],"split_indices":[54,49,14,49,51,0,63,55,0,0,0,0,0,0,0],"split_type":[0,0,0,0,0,0,0,0,0,0,0,0,0,0,0],"sum_hessian":[1.1384879E1,7.5371532E0,3.847726E0,4.71207E0,2.8250833E0,1.2077997E0,2.6399264E0,2.988736E0,1.7233342E0,1.7069789E0,1.1181043E0,1.3613466E0,1.2785798E0,1.6956825E0,1.2930534E0],"tree_param":{"num_deleted":"0","num_feature":"80","num_nodes":"15","size_leaf_vector":"0"}},{"base_weights":[-3.8228873E-2,-1.3562739E-1,1.05781496E-1,-3.021092E-1,6.650398E-2,-5.3157233E-2,2.4307378E-1,1.2786192E-2,-4.4718638E-1,-1.2419801E-1,1.7511171E-1,1.1802722E-1,9.882452E-3,-1.6408722E-1,-3.6336545E-2],"categories":[],"categories_nodes":[],"categories_segments":[],"categories_sizes":[],"default_left":[0,0,0,0,0,0,0,0,0,0,0,0,0,0,0],"id":47,"left_children":[1,3,5,7,9,-1,11,-1,13,-1,-1,-1,-1,-1,-1],"loss_changes":[1.8435998E-1,2.7815655E-1,2.548846E-1,2.3839736E-1,1.3060756E0,0E0,1.6013363E-1,0E0,3.69969E-2,0E0,0E0,0E0,0E0,0E0,0E0],"parents":[2147483647,0,0,1,1,2,2,3,3,4,4,6,6,8,8],"right_children":[2,4,6,8,10,-1,12,-1,14,-1,-1,-1,-1,-1,-1],"split_conditions":[1.4E1,1E0,7.2802734E-1,8E0,7.0214844E-1,-5.3157233E-2,6E0,1.2786192E-2,1E0,-1.2419801E-1,1.7511171E-1,1.1802722E-1,9.882452E-3,-1.6408722E-1,-3.6336545E-2],"split_indices":[58,63,9,52,22,0,63,0,72,0,0,0,0,0,0],"split_type":[0,0,0,0,0,0,0,0,0,0,0,0,0,0,0],"sum_hessian":[1.112094E1,6.6688256E0,4.452115E0,3.3856657E0,3.2831597E0,1.3594832E0,3.0926318E0,1.2119862E0,2.1736794E0,1.8054184E0,1.4777415E0,1.6313001E0,1.4613317E0,1.1456702E0,1.0280092E0],"tree_param":{"num_deleted":"0","num_feature":"80","num_nodes":"15","size_leaf_vector":"0"}},{"base_weights":[-3.441021E-2,-1.4071909E-1,8.9648545E-2,6.270258E-2,-3.819131E-1,-5.8477882E-2,2.3713663E-1,9.474676E-2,-1.1933989E-1,-1.7088035E-1,-1.1699353E-2,1.174101E-1,6.331556E-3,-1.1688176E-1,4.9424924E-2],"categories":[],"categories_nodes":[],"categories_segments":[],"categories_sizes":[],"default_left":[0,0,0,0,0,0,0,0,0,0,0,0,0,0,0],"id":48,"left_children":[1,3,5,7,9,-1,11,-1,13,-1,-1,-1,-1,-1,-1],"loss_changes":[1.6732119E-1,3.5298193E-1,2.9906386E-1,2.4490334E-1,1.8433926E-1,0E0,2.2098887E-1,0E0,3.2074618E-1,0E0,0E0,0E0,0E0,0E0,0E0],"parents":[2147483647,0,0,1,1,2,2,3,3,4,4,6,6,8,8],"right_children":[2,4,6,8,10,-1,12,-1,14,-1,-1,-1,-1,-1,-1],"split_conditions":[2.2E1,2.2E1,7.260742E-1,4E0,7.0214844E-1,-5.8477882E-2,5.3E1,9.474676E-2,5E0,-1.7088035E-1,-1.1699353E-2,1.174101E-1,6.331556E-3,-1.1688176E-1,4.9424924E-2],"split_indices":[42,70,9,54,35,0,48,0,59,0,0,0,0,0,0],"split_type":[0,0,0,0,0,0,0,0,0,0,0,0,0,0,0],"sum_hessian":[1.0730324E1,5.7062283E0,5.024096E0,3.4969513E0,2.209277E0,1.6052203E0,3.4188757E0,1.155462E0,2.3414893E0,1.0005759E0,1.2087009E0,2.1194808E0,1.2993948E0,1.0095986E0,1.3318907E0],"tree_param":{"num_deleted":"0","num_feature":"80","num_nodes":"15","size_leaf_vector":"0"}},{"base_weights":[-3.7818257E-2,-1.3925411E-1,9.526402E-2,3.793989E-2,-3.6618924E-1,-3.0285493E-1,4.3570176E-1,-7.150491E-2,2.6627377E-1,-1.500407E-1,-1.4964939E-2,-1.354924E-1,9.435813E-4,1.9927025E-2,1.714956E-1,5.2176225E-3,1.1437697E-1],"categories":[],"categories_nodes":[],"categories_segments":[],"categories_sizes":[],"default_left":[0,0,0,0,0,0,0,0,0,0,0,0,0,0,0,0,0],"id":49,"left_children":[1,3,5,7,9,11,13,-1,15,-1,-1,-1,-1,-1,-1,-1,-1],"loss_changes":[1.6834939E-1,2.9237658E-1,8.85905E-1,3.659681E-1,1.07681096E-1,1.4502272E-1,1.455782E-1,0E0,8.201639E-2,0E0,0E0,0E0,0E0,0E0,0E0,0E0,0E0],"parents":[2147483647,0,0,1,1,2,2,3,3,4,4,5,5,6,6,8,8],"right_children":[2,4,6,8,10,12,14,-1,16,-1,-1,-1,-1,-1,-1,-1,-1],"split_conditions":[1E0,2.6E1,7.0214844E-1,4E0,3.2E1,8.979492E-1,8.6376953E-1,-7.150491E-2,2.5E1,-1.500407E-1,-1.4964939E-2,-1.354924E-1,9.435813E-4,1.9927025E-2,1.714956E-1,5.2176225E-3,1.1437697E-1],"split_indices":[72,55,32,57,45,37,37,0,51,0,0,0,0,0,0,0,0],"split_type":[0,0,0,0,0,0,0,0,0,0,0,0,0,0,0,0,0],"sum_hessian":[1.0488247E1,5.9254603E0,4.5627866E0,3.7950504E0,2.13041E0,2.1541035E0,2.408683E0,1.69735E0,2.0977004E0,1.0883496E0,1.0420605E0,1.1291339E0,1.0249696E0,1.0000398E0,1.4086431E0,1.0266852E0,1.0710151E0],"tree_param":{"num_deleted":"0","num_feature":"80","num_nodes":"17","size_leaf_vector":"0"}},{"base_weights":[-3.226708E-2,2.7449202E-2,-7.5566396E-2,-6.306146E-2,8.818695E-2,-1.1859751E-1,2.0813838E-1,1.3431131E-2,-1.02468036E-1,4.4770434E-2,1.2971379E-1,5.063945E-2,1.3431131E-2],"categories":[],"categories_nodes":[],"categories_segments":[],"categories_sizes":[],"default_left":[0,0,0,0,0,0,0,0,0,0,0,0,0],"id":50,"left_children":[1,3,-1,-1,5,7,9,-1,-1,11,-1,-1,-1],"loss_changes":[1.5236995E-1,1.5742095E-1,0E0,0E0,2.3223484E-1,2.51844E-1,2.8775418E-1,0E0,0E0,3.1890597E-2,0E0,0E0,0E0],"parents":[2147483647,0,0,1,1,4,4,5,5,6,6,9,9],"right_children":[2,4,-1,-1,6,8,10,-1,-1,12,-1,-1,-1],"split_conditions":[4.25E2,1E0,-7.5566396E-2,-6.306146E-2,7.0214844E-1,5.8E1,1.21E2,1.3431131E-2,-1.02468036E-1,1.1E1,1.2971379E-1,5.063945E-2,1.3431131E-2],"split_indices":[41,57,0,0,10,50,50,0,0,46,0,0,0],"split_type":[0,0,0,0,0,0,0,0,0,0,0,0,0],"sum_hessian":[1.0090845E1,8.621595E0,1.4692498E0,1.2540197E0,7.367576E0,2.7089317E0,4.658644E0,1.3448894E0,1.3640422E0,2.7247996E0,1.9338448E0,1.203423E0,1.5213765E0],"tree_param":{"num_deleted":"0","num_feature":"80","num_nodes":"13","size_leaf_vector":"0"}},{"base_weights":[-3.414401E-2,2.2007983E-2,-6.9656126E-2,-6.107232E-2,8.0373E-2,-1.2776937E-1,2.0134966E-1,-8.7927766E-2,1.1037044E-2,3.5178787E-1,1.1037044E-2,1.2555964E-1,2.5994292E-2],"categories":[],"categories_nodes":[],"categories_segments":[],"categories_sizes":[],"default_left":[0,0,0,0,0,0,0,0,0,0,0,0,0],"id":51,"left_children":[1,3,-1,-1,5,7,9,-1,-1,11,-1,-1,-1],"loss_changes":[1.259954E-1,1.3989438E-1,0E0,0E0,2.3147431E-1,1.8148239E-1,2.3107126E-1,0E0,0E0,3.2020867E-2,0E0,0E0,0E0],"parents":[2147483647,0,0,1,1,4,4,5,5,6,6,9,9],"right_children":[2,4,-1,-1,6,8,10,-1,-1,12,-1,-1,-1],"split_conditions":[1.005E3,1E0,-6.9656126E-2,-6.107232E-2,8.9990234E-1,1E0,1.3E1,-8.7927766E-2,1.1037044E-2,1E0,1.1037044E-2,1.2555964E-1,2.5994292E-2],"split_indices":[50,57,0,0,1,67,63,0,0,73,0,0,0],"split_type":[0,0,0,0,0,0,0,0,0,0,0,0,0],"sum_hessian":[9.870489E0,8.3826065E0,1.4878833E0,1.2116383E0,7.1709676E0,2.6152458E0,4.555722E0,1.5797596E0,1.0354861E0,2.8586884E0,1.6970338E0,1.8216017E0,1.0370866E0],"tree_param":{"num_deleted":"0","num_feature":"80","num_nodes":"13","size_leaf_vector":"0"}},{"base_weights":[-3.1226898E-2,-1.254567E-1,9.504464E-2,