{"learner":{"attributes":{"best_iteration":"36","best_ntree_limit":"37","best_score":"0.0043462139508405"},"feature_names":[],"feature_types":[],"gradient_booster":{"model":{"gbtree_model_param":{"num_parallel_tree":"1","num_trees":"57","size_leaf_vector":"0"},"tree_info":[0,0,0,0,0,0,0,0,0,0,0,0,0,0,0,0,0,0,0,0,0,0,0,0,0,0,0,0,0,0,0,0,0,0,0,0,0,0,0,0,0,0,0,0,0,0,0,0,0,0,0,0,0,0,0,0,0],"trees":[{"base_weights":[-1.7605604E0,-1.9800771E0,1.6948553E0,-1.9975928E0,-1.4261091E-1,-6.382979E-2,5.9783113E-1,-5.997523E-1,-1.6971279E0,-1.0701019E0,-4.2783275E-2,-1.4261091E-1,2.8934112E-1,-5.544453E-1,-3.2103056E-1,-3.2103056E-1,-1.8190692E-1,-4.2783275E-2,4.109297E-1,1.341594E-1,4.109297E-1,4.024782E-2,8.176337E-2,8.176337E-2,1.23278916E-1],"categories":[],"categories_nodes":[],"categories_segments":[],"categories_sizes":[],"default_left":[0,0,0,0,0,0,0,0,0,0,0,0,0,0,0,0,0,0,0,0,0,0,0,0,0],"id":0,"left_children":[1,3,5,7,9,11,-1,-1,13,15,-1,17,-1,-1,-1,-1,-1,-1,19,21,23,-1,-1,-1,-1],"loss_changes":[2.8752086E4,1.1813906E3,1.1865859E3,1.3375E1,3.249554E2,4.1502768E2,0E0,0E0,4.393988E1,3.1937561E1,0E0,2.2815903E1,0E0,0E0,0E0,0E0,0E0,0E0,5.2273226E0,2.705226E-1,3.249836E-1,0E0,0E0,0E0,0E0],"parents":[2147483647,0,0,1,1,2,2,3,3,4,4,5,5,8,8,9,9,11,11,18,18,19,19,20,20],"right_children":[2,4,6,8,10,12,-1,-1,14,16,-1,18,-1,-1,-1,-1,-1,-1,20,22,24,-1,-1,-1,-1],"split_conditions":[1E0,1E0,4.9987793E-2,1E0,1E0,4.9987793E-2,5.9783113E-1,-5.997523E-1,1E0,6.402588E-2,-4.2783275E-2,7.0007324E-2,2.8934112E-1,-5.544453E-1,-3.2103056E-1,-3.2103056E-1,-1.8190692E-1,-4.2783275E-2,4.9987793E-2,4.9987793E-2,6.402588E-2,4.024782E-2,8.176337E-2,8.176337E-2,1.23278916E-1],"split_indices":[30,10,10,20,0,0,0,0,0,20,0,20,0,0,0,0,0,0,21,18,34,0,0,0,0],"split_type":[0,0,0,0,0,0,0,0,0,0,0,0,0,0,0,0,0,0,0,0,0,0,0,0,0],"sum_hessian":[3.79E4,3.56365E4,2.2635E3,3.531E4,3.265E2,3.28E2,1.9355E3,3.51195E4,1.905E2,1.735E2,1.53E2,1.985E2,1.295E2,1.79E2,1.15E1,1.57E2,1.65E1,1.52E2,4.65E1,7.25E0,3.925E1,6E0,1.25E0,1.3E1,2.625E1],"tree_param":{"num_deleted":"0","num_feature":"40","num_nodes":"25","size_leaf_vector":"0"}},{"base_weights":[-1.3607793E0,-1.532946E0,1.3205066E0,-1.5491709E0,-1.0621971E-1,-3.2903466E-2,4.7655335E-1,-4.6499246E-1,-1.3888372E0,-8.2769525E-1,-3.1865913E-2,-1.0621971E-1,2.3334116E-1,-4.4082183E-1,-2.4830858E-1,-2.4830858E-1,-1.4008725E-1,-3.1865913E-2,3.3579206E-1,1.1478618E-1,3.3579206E-1,3.4435853E-2,6.758674E-2,6.758674E-2,1.00737624E-1],"categories":[],"categories_nodes":[],"categories_segments":[],"categories_sizes":[],"default_left":[0,0,0,0,0,0,0,0,0,0,0,0,0,0,0,0,0,0,0,0,0,0,0,0,0],"id":1,"left_children":[1,3,5,7,9,11,-1,-1,13,15,-1,17,-1,-1,-1,-1,-1,-1,19,21,23,-1,-1,-1,-1],"loss_changes":[1.603873E4,7.885156E2,7.605249E2,2.0078125E0,2.1798013E2,2.8694574E2,0E0,0E0,4.1968384E1,1.7366241E1,0E0,1.4950081E1,0E0,0E0,0E0,0E0,0E0,0E0,4.1752987E0,2.1128273E-1,3.2567787E-1,0E0,0E0,0E0,0E0],"parents":[2147483647,0,0,1,1,2,2,3,3,4,4,5,5,8,8,9,9,11,11,18,18,19,19,20,20],"right_children":[2,4,6,8,10,12,-1,-1,14,16,-1,18,-1,-1,-1,-1,-1,-1,20,22,24,-1,-1,-1,-1],"split_conditions":[1E0,1E0,4.9987793E-2,1E0,5.3985596E-2,5.3985596E-2,4.7655335E-1,-4.6499246E-1,4.9987793E-2,5.5999756E-2,-3.1865913E-2,6.7993164E-2,2.3334116E-1,-4.4082183E-1,-2.4830858E-1,-2.4830858E-1,-1.4008725E-1,-3.1865913E-2,4.9987793E-2,4.9987793E-2,6.402588E-2,3.4435853E-2,6.758674E-2,6.758674E-2,1.00737624E-1],"split_indices":[20,0,0,10,10,10,0,0,30,30,0,30,0,0,0,0,0,0,21,18,34,0,0,0,0],"split_type":[0,0,0,0,0,0,0,0,0,0,0,0,0,0,0,0,0,0,0,0,0,0,0,0,0],"sum_hessian":[3.4738414E4,3.2642828E4,2.0955845E3,3.2291568E4,3.512605E2,3.465253E2,1.7490592E3,3.2121832E4,1.6973515E2,1.8632303E2,1.6493748E2,2.1090263E2,1.3562265E2,1.5302336E2,1.6711788E1,1.7114296E2,1.5180065E1,1.6452834E2,4.63743E1,7.2454844E0,3.9128815E1,5.997571E0,1.2479131E0,1.2978297E1,2.6150517E1],"tree_param":{"num_deleted":"0","num_feature":"40","num_nodes":"25","size_leaf_vector":"0"}},{"base_weights":[-1.1757085E0,-1.3297837E0,1.1579787E0,-1.3438374E0,-1.00782335E-1,2.3802219E-2,4.0943086E-1,-4.034775E-1,-1.1648438E0,-7.223098E-1,-2.5770755E-2,-8.590251E-2,2.0828575E-1,-1.2548844E0,-2.1669295E-1,-2.1669295E-1,-1.21231854E-1,-2.5770755E-2,3.0419165E-1,-3.7646532E-1,-2.9657915E-1,1.5272681E-1,9.12575E-2,3.2743372E-2,6.853777E-2],"categories":[],"categories_nodes":[],"categories_segments":[],"categories_sizes":[],"default_left":[0,0,0,0,0,0,0,0,0,0,0,0,0,0,0,0,0,0,0,0,0,0,0,0,0],"id":2,"left_children":[1,3,5,7,9,11,-1,-1,13,15,-1,17,-1,19,-1,-1,-1,-1,21,-1,-1,23,-1,-1,-1],"loss_changes":[1.0459289E4,4.7110156E2,4.2256543E2,3.6875E0,1.6739987E2,2.1234268E2,0E0,0E0,2.4209702E1,1.7288223E1,0E0,1.1858358E1,0E0,6.2371826E-1,0E0,0E0,0E0,0E0,3.611946E-2,0E0,0E0,2.3194914E-1,0E0,0E0,0E0],"parents":[2147483647,0,0,1,1,2,2,3,3,4,4,5,5,8,8,9,9,11,11,13,13,18,18,21,21],"right_children":[2,4,6,8,10,12,-1,-1,14,16,-1,18,-1,20,-1,-1,-1,-1,22,-1,-1,24,-1,-1,-1],"split_conditions":[1E0,1E0,4.9987793E-2,1E0,7.0007324E-2,6.402588E-2,4.0943086E-1,-4.034775E-1,1E0,4.9987793E-2,-2.5770755E-2,4.9987793E-2,2.0828575E-1,1E0,-2.1669295E-1,-2.1669295E-1,-1.21231854E-1,-2.5770755E-2,4.9987793E-2,-3.7646532E-1,-2.9657915E-1,4.9987793E-2,9.12575E-2,3.2743372E-2,6.853777E-2],"split_indices":[10,30,0,0,20,20,0,0,20,0,0,30,0,31,0,0,0,0,15,0,0,26,0,0,0],"split_type":[0,0,0,0,0,0,0,0,0,0,0,0,0,0,0,0,0,0,0,0,0,0,0,0,0],"sum_hessian":[2.9083598E4,2.7282762E4,1.8008364E3,2.6974215E4,3.0854776E2,2.7787936E2,1.522957E3,2.6804844E4,1.6936932E2,1.5894586E2,1.496019E2,1.5231117E2,1.25568184E2,1.5793858E2,1.1430741E1,1.4260838E2,1.6337475E1,1.3581999E2,1.6491186E1,1.5477284E2,3.1657374E0,4.6078315E0,1.1883354E1,3.1527267E0,1.4551046E0],"tree_param":{"num_deleted":"0","num_feature":"40","num_nodes":"25","size_leaf_vector":"0"}},{"base_weights":[-1.068992E0,-1.2121488E0,1.0280797E0,-1.2296195E0,-9.203452E-2,1.4231111E-2,3.7668306E-1,-3.691709E-1,-1.0890585E0,-6.6082704E-1,-2.7610356E-2,-9.203452E-2,1.904762E-1,-1.1598141E0,-1.9824812E-1,-1.9824812E-1,-1.1292924E-1,-2.7610356E-2,2.7144304E-1,-3.4794426E-1,-2.7309617E-1,8.970426E-2,2.7144304E-1,2.691128E-2,5.4172095E-2,5.4172095E-2,8.1432916E-2],"categories":[],"categories_nodes":[],"categories_segments":[],"categories_sizes":[],"default_left":[0,0,0,0,0,0,0,0,0,0,0,0,0,0,0,0,0,0,0,0,0,0,0,0,0,0,0],"id":3,"left_children":[1,3,5,7,9,11,-1,-1,13,15,-1,17,-1,19,-1,-1,-1,-1,21,-1,-1,23,25,-1,-1,-1,-1],"loss_changes":[7.011043E3,4.6209375E2,3.4430835E2,1.5429688E0,1.1390109E2,1.5976932E2,0E0,0E0,3.205539E1,1.4994644E1,0E0,1.3597591E1,0E0,2.667694E-1,0E0,0E0,0E0,0E0,3.4466324E0,0E0,0E0,6.235912E-1,2.3365688E-1,0E0,0E0,0E0,0E0],"parents":[2147483647,0,0,1,1,2,2,3,3,4,4,5,5,8,8,9,9,11,11,13,13,18,18,21,21,22,22],"right_children":[2,4,6,8,10,12,-1,-1,14,16,-1,18,-1,20,-1,-1,-1,-1,22,-1,-1,24,26,-1,-1,-1,-1],"split_conditions":[1E0,1E0,4.9987793E-2,1E0,6.7993164E-2,1E0,3.7668306E-1,-3.691709E-1,4.9987793E-2,5.3985596E-2,-2.7610356E-2,5.3985596E-2,1.904762E-1,5.2001953E-2,-1.9824812E-1,-1.9824812E-1,-1.1292924E-1,-2.7610356E-2,4.9987793E-2,-3.4794426E-1,-2.7309617E-1,4.9987793E-2,4.9987793E-2,2.691128E-2,5.4172095E-2,5.4172095E-2,8.1432916E-2],"split_indices":[0,20,30,10,30,20,0,0,30,10,0,10,0,21,0,0,0,0,16,0,0,39,12,0,0,0,0],"split_type":[0,0,0,0,0,0,0,0,0,0,0,0,0,0,0,0,0,0,0,0,0,0,0,0,0,0,0],"sum_hessian":[2.3348645E4,2.1856996E4,1.4916482E3,2.1547855E4,3.0914124E2,2.735966E2,1.2180515E3,2.1395477E4,1.5237782E2,1.5783626E2,1.51305E2,1.7506448E2,9.853211E1,1.3501903E2,1.735879E1,1.411961E2,1.6640142E1,1.3124089E2,4.3823593E1,1.3072081E2,4.2982187E0,1.7261795E1,2.6561796E1,1.4344309E1,2.9174864E0,1.7018671E0,2.485993E1],"tree_param":{"num_deleted":"0","num_feature":"40","num_nodes":"27","size_leaf_vector":"0"}},{"base_weights":[-9.98352E-1,-1.1389531E0,9.393407E-1,-1.1570169E0,-9.980619E-2,1.4086827E-2,3.5552815E-1,-3.4756345E-1,-9.678178E-1,-6.2841153E-1,-2.9941859E-2,-9.980619E-2,5.995903E-1,-1.0631813E0,-1.8852347E-1,-6.2841153E-1,-1.09232664E-1,-2.9941859E-2,2.4989206E-1,2.4989206E-1,1.798771E-1,-3.189544E-1,-2.5373894E-1,-1.8852347E-1,-1.4887807E-1,2.2512881E-2,7.496762E-2,2.4989206E-1,1.2742236E-1,7.496762E-2,1.0119499E-1],"categories":[],"categories_nodes":[],"categories_segments":[],"categories_sizes":[],"default_left":[0,0,0,0,0,0,0,0,0,0,0,0,0,0,0,0,0,0,0,0,0,0,0,0,0,0,0,0,0,0,0],"id":4,"left_children":[1,3,5,7,9,11,-1,-1,13,15,-1,17,19,21,-1,23,-1,-1,25,27,-1,-1,-1,-1,-1,-1,-1,29,-1,-1,-1],"loss_changes":[4.9937344E3,3.5786133E2,2.8201147E2,3.7441406E0,7.8416214E1,1.3123546E2,0E0,0E0,1.8454605E1,1.4033104E1,0E0,8.286657E0,3.9818268E0,4.7244263E-1,0E0,3.211975E-2,0E0,0E0,1.3010645E-1,1.9784293E0,0E0,0E0,0E0,0E0,0E0,0E0,0E0,6.350851E-2,0E0,0E0,0E0],"parents":[2147483647,0,0,1,1,2,2,3,3,4,4,5,5,8,8,9,9,11,11,12,12,13,13,15,15,18,18,19,19,27,27],"right_children":[2,4,6,8,10,12,-1,-1,14,16,-1,18,20,22,-1,24,-1,-1,26,28,-1,-1,-1,-1,-1,-1,-1,30,-1,-1,-1],"split_conditions":[1E0,1E0,4.9987793E-2,1E0,1E0,1E0,3.5552815E-1,-3.4756345E-1,1E0,4.9987793E-2,-2.9941859E-2,4.9987793E-2,4.9987793E-2,5.8013916E-2,-1.8852347E-1,1E0,-1.09232664E-1,-2.9941859E-2,4.9987793E-2,4.9987793E-2,1.798771E-1,-3.189544E-1,-2.5373894E-1,-1.8852347E-1,-1.4887807E-1,2.2512881E-2,7.496762E-2,4.9987793E-2,1.2742236E-1,7.496762E-2,1.0119499E-1],"split_indices":[30,10,10,20,0,20,0,0,0,20,0,0,21,11,0,21,0,0,32,1,0,0,0,0,0,0,0,18,0,0,0],"split_type":[0,0,0,0,0,0,0,0,0,0,0,0,0,0,0,0,0,0,0,0,0,0,0,0,0,0,0,0,0,0,0],"sum_hessian":[1.8324625E4,1.7085309E4,1.2393163E3,1.6826605E4,2.587042E2,2.6031067E2,9.790056E2,1.6686729E4,1.3987741E2,1.321726E2,1.265316E2,1.2961539E2,1.3069527E2,1.2843042E2,1.1446985E1,1.1482528E2,1.734732E1,1.14283264E2,1.5332127E1,1.5049647E1,1.15645615E2,1.24965164E2,3.4652596E0,1.1234183E2,2.4834497E0,2.4003646E0,1.2931762E1,7.8038173E0,7.24583E0,6.556691E0,1.2471263E0],"tree_param":{"num_deleted":"0","num_feature":"40","num_nodes":"31","size_leaf_vector":"0"}},{"base_weights":[-9.485263E-1,-1.0903718E0,8.9059204E-1,-1.1098446E0,-9.9889904E-2,3.9696224E-2,3.4631896E-1,-3.336287E-1,-8.647749E-1,-6.048672E-1,-2.9966973E-2,-9.9889904E-2,1.7911392E-1,-9.8843527E-1,-1.8146017E-1,-6.048672E-1,-1.0571357E-1,-2.9966973E-2,2.4857824E-1,-2.965306E-1,-2.3899539E-1,-1.8146017E-1,-1.4358687E-1,7.4344166E-2,2.4857824E-1,2.230325E-2,4.8438363E-2,4.8438363E-2,7.457347E-2],"categories":[],"categories_nodes":[],"categories_segments":[],"categories_sizes":[],"default_left":[0,0,0,0,0,0,0,0,0,0,0,0,0,0,0,0,0,0,0,0,0,0,0,0,0,0,0,0,0],"id":5,"left_children":[1,3,5,7,9,11,-1,-1,13,15,-1,17,-1,19,-1,21,-1,-1,23,-1,-1,-1,-1,25,27,-1,-1,-1,-1],"loss_changes":[3.7003018E3,2.7692676E2,2.2800458E2,6.173828E0,6.026764E1,1.1700983E2,0E0,0E0,1.9346458E1,9.382057E0,0E0,7.3802547E0,0E0,3.4431458E-1,0E0,1.7595673E-1,0E0,0E0,3.5911865E0,0E0,0E0,0E0,0E0,8.3892334E-1,1.3085079E-1,0E0,0E0,0E0,0E0],"parents":[2147483647,0,0,1,1,2,2,3,3,4,4,5,5,8,8,9,9,11,11,13,13,15,15,18,18,23,23,24,24],"right_children":[2,4,6,8,10,12,-1,-1,14,16,-1,18,-1,20,-1,22,-1,-1,24,-1,-1,-1,-1,26,28,-1,-1,-1,-1],"split_conditions":[1E0,1E0,5.3985596E-2,1E0,5.3985596E-2,1E0,3.4631896E-1,-3.336287E-1,4.9987793E-2,5.5999756E-2,-2.9966973E-2,6.7993164E-2,1.7911392E-1,5.2001953E-2,-1.8146017E-1,1E0,-1.0571357E-1,-2.9966973E-2,4.9987793E-2,-2.965306E-1,-2.3899539E-1,-1.8146017E-1,-1.4358687E-1,1E0,4.9987793E-2,2.230325E-2,4.8438363E-2,4.8438363E-2,7.457347E-2],"split_indices":[20,0,10,10,10,0,0,0,30,30,0,30,0,21,0,31,0,0,29,0,0,0,0,39,21,0,0,0,0],"split_type":[0,0,0,0,0,0,0,0,0,0,0,0,0,0,0,0,0,0,0,0,0,0,0,0,0,0,0,0,0],"sum_hessian":[1.4179696E4,1.3164747E4,1.0149495E3,1.2933456E4,2.3129099E2,2.4046979E2,7.7447974E2,1.2812231E4,1.2122491E2,1.1937098E2,1.11920006E2,1.5216856E2,8.830122E1,1.0454783E2,1.6677078E1,1.0470742E2,1.4663561E1,1.0631643E2,4.585214E1,1.0099698E2,3.550852E0,1.0264561E2,2.0618172E0,2.2247732E1,2.3604406E1,9.347792E0,1.28999405E1,1.2452726E0,2.2359133E1],"tree_param":{"num_deleted":"0","num_feature":"40","num_nodes":"29","size_leaf_vector":"0"}},{"base_weights":[-9.096656E-1,-1.0505596E0,8.433258E-1,-1.0755616E0,-1.0361692E-1,1.0599759E-1,3.3053878E-1,-3.236262E-1,-7.7071863E-1,-5.895893E-1,-1.0361692E-1,-1.0361692E-1,1.8116903E-1,-9.2473626E-1,-1.768768E-1,-1.768768E-1,-1.03980936E-1,-1.3951945E-1,-3.1085078E-2,-1.0361692E-1,2.501399E-1,-2.7742088E-1,-2.2714885E-1,-3.466031E-1,-3.6470458E-2,-3.1085078E-2,2.1978445E-2,7.3261485E-2,2.501399E-1,-1.03980936E-1,-7.02257E-2,2.1978445E-2,4.8510212E-2,4.8510212E-2,7.504197E-2],"categories":[],"categories_nodes":[],"categories_segments":[],"categories_sizes":[],"default_left":[0,0,0,0,0,0,0,0,0,0,0,0,0,0,0,0,0,0,0,0,0,0,0,0,0,0,0,0,0,0,0,0,0,0,0],"id":6,"left_children":[1,3,5,7,9,11,-1,-1,13,15,17,19,-1,21,-1,-1,-1,23,-1,25,27,-1,-1,29,-1,-1,-1,31,33,-1,-1,-1,-1,-1,-1],"loss_changes":[2.690004E3,2.7001367E2,1.5435358E2,8.756836E0,4.719055E1,9.324531E1,0E0,0E0,1.206086E1,1.0577404E1,8.6631775E-3,1.2997633E1,0E0,5.216141E-1,0E0,0E0,0E0,3.0071507E0,0E0,1.9187355E-1,2.8549566E0,0E0,0E0,3.4757853E-1,0E0,0E0,0E0,6.245186E-1,2.2527981E-1,0E0,0E0,0E0,0E0,0E0,0E0],"parents":[2147483647,0,0,1,1,2,2,3,3,4,4,5,5,8,8,9,9,10,10,11,11,13,13,17,17,19,19,20,20,23,23,27,27,28,28],"right_children":[2,4,6,8,10,12,-1,-1,14,16,18,20,-1,22,-1,-1,-1,24,-1,26,28,-1,-1,30,-1,-1,-1,32,34,-1,-1,-1,-1,-1,-1],"split_conditions":[1E0,1E0,4.9987793E-2,1E0,6.5979004E-2,4.9987793E-2,3.3053878E-1,-3.236262E-1,1E0,4.9987793E-2,4.9987793E-2,1E0,1.8116903E-1,1E0,-1.768768E-1,-1.768768E-1,-1.03980936E-1,4.9987793E-2,-3.1085078E-2,1E0,4.9987793E-2,-2.7742088E-1,-2.2714885E-1,4.9987793E-2,-3.6470458E-2,-3.1085078E-2,2.1978445E-2,4.9987793E-2,4.9987793E-2,-1.03980936E-1,-7.02257E-2,2.1978445E-2,4.8510212E-2,4.8510212E-2,7.504197E-2],"split_indices":[10,30,20,0,20,30,0,0,20,0,21,0,0,31,0,0,0,1,0,21,16,0,0,18,0,0,0,39,12,0,0,0,0,0,0],"split_type":[0,0,0,0,0,0,0,0,0,0,0,0,0,0,0,0,0,0,0,0,0,0,0,0,0,0,0,0,0,0,0,0,0,0,0],"sum_hessian":[1.08867295E4,1.007719E4,8.095386E2,9.851201E3,2.2598961E2,2.1049039E2,5.9904816E2,9.746596E3,1.0460502E2,1.0822686E2,1.1776276E2,1.2849644E2,8.199394E1,9.315112E1,1.14539E1,9.2540825E1,1.56860285E1,1.4051148E1,1.0371161E2,8.6201584E1,4.2294857E1,9.110056E1,2.0505567E0,7.84143E0,6.209718E0,8.419912E1,2.002458E0,1.7095045E1,2.5199814E1,6.458268E0,1.3831623E0,1.4174805E1,2.9202402E0,1.7034734E0,2.349634E1],"tree_param":{"num_deleted":"0","num_feature":"40","num_nodes":"35","size_leaf_vector":"0"}},{"base_weights":[-8.7642086E-1,-1.0234476E0,8.213214E-1,-1.0517225E0,-1.010631E-1,1.5556416E-1,1.090251E0,-3.1690297E-1,-6.9895256E-1,-5.763928E-1,-1.010631E-1,-1.010631E-1,6.229076E-1,1.8687227E-1,3.2794833E-1,-8.776479E-1,-1.7291786E-1,-5.763928E-1,-1.0161839E-1,-1.5106753E-1,-3.0318933E-2,-1.010631E-1,7.827668E-2,2.6092225E-1,1.8687227E-1,-2.6329437E-1,-2.1810612E-1,-1.7291786E-1,-1.3726813E-1,-3.3872795E-1,-3.7819594E-2,-3.0318933E-2,2.3978874E-2,7.827668E-2,1.3257448E-1,-1.0161839E-1,-6.9718994E-2],"categories":[],"categories_nodes":[],"categories_segments":[],"categories_sizes":[],"default_left":[0,0,0,0,0,0,0,0,0,0,0,0,0,0,0,0,0,0,0,0,0,0,0,0,0,0,0,0,0,0,0,0,0,0,0,0,0],"id":7,"left_children":[1,3,5,7,9,11,13,-1,15,17,19,21,23,-1,-1,25,-1,27,-1,29,-1,31,-1,33,-1,-1,-1,-1,-1,35,-1,-1,-1,-1,-1,-1,-1],"loss_changes":[2.0779385E3,2.240874E2,1.1866989E2,1.1418945E1,3.5949165E1,7.965808E1,5.7617188E-2,0E0,9.703499E0,9.363525E0,2.3319244E-2,1.0876779E1,1.6852341E0,0E0,0E0,2.2815704E-1,0E0,1.03507996E-1,0E0,2.7873003E0,0E0,7.642145E-1,0E0,5.6205934E-1,0E0,0E0,0E0,0E0,0E0,2.1367216E-1,0E0,0E0,0E0,0E0,0E0,0E0,0E0],"parents":[2147483647,0,0,1,1,2,2,3,3,4,4,5,5,6,6,8,8,9,9,10,10,11,11,12,12,15,15,17,17,19,19,21,21,23,23,29,29],"right_children":[2,4,6,8,10,12,14,-1,16,18,20,22,24,-1,-1,26,-1,28,-1,30,-1,32,-1,34,-1,-1,-1,-1,-1,36,-1,-1,-1,-1,-1,-1,-1],"split_conditions":[1E0,1E0,4.9987793E-2,1E0,4.9987793E-2,5.2001953E-2,1E0,-3.1690297E-1,5.3985596E-2,4.9987793E-2,4.9987793E-2,5.5999756E-2,5.3985596E-2,1.8687227E-1,3.2794833E-1,1E0,-1.7291786E-1,5.3985596E-2,-1.0161839E-1,4.9987793E-2,-3.0318933E-2,1E0,7.827668E-2,4.9987793E-2,1.8687227E-1,-2.6329437E-1,-2.1810612E-1,-1.7291786E-1,-1.3726813E-1,4.9987793E-2,-3.7819594E-2,-3.0318933E-2,2.3978874E-2,7.827668E-2,1.3257448E-1,-1.0161839E-1,-6.9718994E-2],"split_indices":[0,30,20,20,20,11,20,0,10,10,21,30,10,0,0,6,0,5,0,11,0,31,0,30,0,0,0,0,0,15,0,0,0,0,0,0,0],"split_type":[0,0,0,0,0,0,0,0,0,0,0,0,0,0,0,0,0,0,0,0,0,0,0,0,0,0,0,0,0,0,0,0,0,0,0,0,0],"sum_hessian":[8.320252E3,7.657499E3,6.627527E2,7.456673E3,2.0082622E2,1.9114241E2,4.716103E2,7.3582993E3,9.837309E1,9.739533E1,1.0343088E2,9.645029E1,9.469213E1,3.816015E0,4.6779428E2,8.3469696E1,1.49033985E1,8.202562E1,1.5369709E1,1.24106655E1,9.102022E1,7.803403E1,1.841626E1,4.9009643E0,8.979117E1,7.9264145E1,4.205552E0,7.664031E1,5.3853126E0,7.0460606E0,5.364605E0,7.606978E1,1.9642473E0,3.426402E0,1.4745622E0,5.95169E0,1.0943705E0],"tree_param":{"num_deleted":"0","num_feature":"40","num_nodes":"37","size_leaf_vector":"0"}},{"base_weights":[-8.4648806E-1,-1.0001472E0,7.3253995E-1,-1.0326532E0,-1.3380364E-1,9.9934E-2,3.1742993E-1,-1.0387048E0,-6.053821E-1,-5.832284E-1,-1.3380364E-1,-1.3380364E-1,1.7370507E-1,-3.120299E-1,-2.4661304E-1,-8.220434E-1,-1.7496853E-1,-5.832284E-1,-1.07554816E-1,-2.2364727E-1,-4.014109E-2,-1.3380364E-1,2.2260661E-1,-2.4661304E-1,-2.1079077E-1,-1.7496853E-1,-1.4126167E-1,-3.5851604E-1,-5.3617638E-2,-1.3380364E-1,-5.335783E-2,4.440149E-2,2.2260661E-1,-1.07554816E-1,-8.0586225E-2,-4.014109E-2,-2.807422E-2,-2.807422E-2,1.3320447E-2,1.3320447E-2,4.0051214E-2,4.0051214E-2,6.678199E-2],"categories":[],"categories_nodes":[],"categories_segments":[],"categories_sizes":[],"default_left":[0,0,0,0,0,0,0,0,0,0,0,0,0,0,0,0,0,0,0,0,0,0,0,0,0,0,0,0,0,0,0,0,0,0,0,0,0,0,0,0,0,0,0],"id":8,"left_children":[1,3,5,7,9,11,-1,13,15,17,19,21,-1,-1,-1,23,-1,25,-1,27,-1,29,31,-1,-1,-1,-1,33,-1,35,37,39,41,-1,-1,-1,-1,-1,-1,-1,-1,-1,-1],"loss_changes":[1.5409111E3,1.9205127E2,1.1595093E2,1.3881836E1,2.1285652E1,7.556036E1,0E0,1.5126953E0,5.318508E0,9.365086E0,7.254791E-2,1.2531068E1,0E0,0E0,0E0,1.5205765E-1,0E0,2.1261215E-1,0E0,1.3120863E0,0E0,1.6489029E-2,1.527977E0,0E0,0E0,0E0,0E0,3.3460903E-1,0E0,3.8482666E-2,1.2185138E-1,3.8082367E-1,4.1935444E-1,0E0,0E0,0E0,0E0,0E0,0E0,0E0,0E0,0E0,0E0],"parents":[2147483647,0,0,1,1,2,2,3,3,4,4,5,5,7,7,8,8,9,9,10,10,11,11,15,15,17,17,19,19,21,21,22,22,27,27,29,29,30,30,31,31,32,32],"right_children":[2,4,6,8,10,12,-1,14,16,18,20,22,-1,-1,-1,24,-1,26,-1,28,-1,30,32,-1,-1,-1,-1,34,-1,36,38,40,42,-1,-1,-1,-1,-1,-1,-1,-1,-1,-1],"split_conditions":[1E0,6.402588E-2,4.9987793E-2,1E0,4.9987793E-2,4.9987793E-2,3.1742993E-1,1E0,1E0,4.9987793E-2,4.9987793E-2,6.5979004E-2,1.7370507E-1,-3.120299E-1,-2.4661304E-1,1E0,-1.7496853E-1,1E0,-1.07554816E-1,4.9987793E-2,-4.014109E-2,1E0,6.402588E-2,-2.4661304E-1,-2.1079077E-1,-1.7496853E-1,-1.4126167E-1,4.9987793E-2,-5.3617638E-2,1E0,4.9987793E-2,6.7993164E-2,4.9987793E-2,-1.07554816E-1,-8.0586225E-2,-4.014109E-2,-2.807422E-2,-2.807422E-2,1.3320447E-2,1.3320447E-2,4.0051214E-2,4.0051214E-2,6.678199E-2],"split_indices":[30,10,10,20,0,0,0,31,0,20,11,21,0,0,0,6,0,21,0,21,0,9,34,0,0,0,0,38,0,6,16,24,31,0,0,0,0,0,0,0,0,0,0],"split_type":[0,0,0,0,0,0,0,0,0,0,0,0,0,0,0,0,0,0,0,0,0,0,0,0,0,0,0,0,0,0,0,0,0,0,0,0,0,0,0,0,0,0,0],"sum_hessian":[6.3467954E3,5.7842793E3,5.625159E2,5.611138E3,1.7314104E2,1.9157234E2,3.709436E2,5.5313647E3,7.9773285E1,8.611464E1,8.702639E1,1.1938892E2,7.218342E1,5.506823E3,2.454167E1,6.848991E1,1.1283376E1,6.9856445E1,1.6258198E1,1.0205501E1,7.682089E1,7.7421036E1,4.1967888E1,6.492208E1,3.5678267E0,6.8209274E1,1.6471703E0,6.619502E0,3.5859993E0,7.310662E1,4.3144207E0,1.4370569E1,2.7597319E1,5.440769E0,1.1787325E0,7.199075E1,1.1158649E0,3.1990385E0,1.1153823E0,4.935672E0,9.434897E0,1.4582461E0,2.6139074E1],"tree_param":{"num_deleted":"0","num_feature":"40","num_nodes":"43","size_leaf_vector":"0"}},{"base_weights":[-8.1691796E-1,-9.7746557E-1,7.456946E-1,-1.0185152E0,-1.15885496E-1,1.8431179E-1,3.149439E-1,-1.0263858E0,-5.744411E-1,-5.2857757E-1,-3.476565E-2,-1.15885496E-1,1.8511872E-1,-3.085364E-1,-8.8288057E-1,-8.004134E-1,-1.7016011E-1,-5.6720036E-1,-9.6669465E-2,-1.15885496E-1,2.5058845E-1,-2.867003E-1,-2.4012403E-1,-2.4012403E-1,-2.0514208E-1,-1.7016011E-1,-1.3341479E-1,-1.15885496E-1,6.7351475E-2,2.0205444E-2,2.5058845E-1,-3.476565E-2,-7.2801034E-3,-7.2801034E-3,2.0205444E-2,4.769099E-2,7.517654E-2],"categories":[],"categories_nodes":[],"categories_segments":[],"categories_sizes":[],"default_left":[0,0,0,0,0,0,0,0,0,0,0,0,0,0,0,0,0,0,0,0,0,0,0,0,0,0,0,0,0,0,0,0,0,0,0,0,0],"id":9,"left_children":[1,3,5,7,9,11,-1,13,15,17,-1,19,-1,-1,21,23,-1,25,-1,27,29,-1,-1,-1,-1,-1,-1,31,33,-1,35,-1,-1,-1,-1,-1,-1],"loss_changes":[1.2153333E3,1.9093896E2,7.69156E1,1.4212402E1,1.3462844E1,5.4100445E1,0E0,3.2666016E-1,5.88966E0,9.488478E0,0E0,1.0455002E1,0E0,0E0,8.8850784E-1,2.2065353E-1,0E0,7.2332E-1,0E0,9.7706795E-1,1.4478893E0,0E0,0E0,0E0,0E0,0E0,0E0,2.9550743E-1,1.285668E-1,0E0,4.990368E-1,0E0,0E0,0E0,0E0,0E0,0E0],"parents":[2147483647,0,0,1,1,2,2,3,3,4,4,5,5,7,7,8,8,9,9,11,11,14,14,15,15,17,17,19,19,20,20,27,27,28,28,30,30],"right_children":[2,4,6,8,10,12,-1,14,16,18,-1,20,-1,-1,22,24,-1,26,-1,28,30,-1,-1,-1,-1,-1,-1,32,34,-1,36,-1,-1,-1,-1,-1,-1],"split_conditions":[1E0,1E0,4.9987793E-2,1E0,5.2001953E-2,5.3985596E-2,3.149439E-1,6.201172E-2,4.9987793E-2,1E0,-3.476565E-2,1E0,1.8511872E-1,-3.085364E-1,7.0007324E-2,5.2001953E-2,-1.7016011E-1,6.201172E-2,-9.6669465E-2,6.7993164E-2,4.9987793E-2,-2.867003E-1,-2.4012403E-1,-2.4012403E-1,-2.0514208E-1,-1.7016011E-1,-1.3341479E-1,6.5979004E-2,4.9987793E-2,2.0205444E-2,4.9987793E-2,-3.476565E-2,-7.2801034E-3,-7.2801034E-3,2.0205444E-2,4.769099E-2,7.517654E-2],"split_indices":[20,0,0,10,11,10,0,23,30,32,0,34,0,0,32,21,0,28,0,4,33,0,0,0,0,0,0,12,30,0,21,0,0,0,0,0,0],"split_type":[0,0,0,0,0,0,0,0,0,0,0,0,0,0,0,0,0,0,0,0,0,0,0,0,0,0,0,0,0,0,0,0,0,0,0,0,0],"sum_hessian":[4.8404976E3,4.3898457E3,4.5065186E2,4.2339272E3,1.5591869E2,1.5891367E2,2.917382E2,4.1589053E3,7.5021835E1,7.81257E1,7.779299E1,1.00832756E2,5.8080914E1,4.0937217E3,6.518368E1,5.964169E1,1.5380148E1,6.205841E1,1.606729E1,6.846951E1,3.2363243E1,5.796724E1,7.216436E0,5.7201145E1,2.440542E0,5.5868004E1,6.190405E0,6.3117294E1,5.352217E0,2.473315E0,2.9889929E1,6.1409832E1,1.7074628E0,2.41002E0,2.9421973E0,2.8851845E0,2.7004744E1],"tree_param":{"num_deleted":"0","num_feature":"40","num_nodes":"37","size_leaf_vector":"0"}},{"base_weights":[-7.849201E-1,-9.5320016E-1,6.9442445E-1,-1.0045481E0,-1.2938786E-1,1.6030774E-1,3.0759913E-1,-1.0158721E0,-5.6696796E-1,-5.2845603E-1,-1.2938786E-1,-1.2938786E-1,5.928191E-1,-3.058742E-1,-2.4267408E-1,-7.9142004E-1,-1.7009039E-1,-5.6696796E-1,-9.8676585E-2,-3.2892194E-1,-3.881636E-2,-1.2938786E-1,6.951469E-2,2.3171562E-1,5.928191E-1,-2.3742603E-1,-2.037582E-1,-1.7009039E-1,-1.3438348E-1,-3.2892194E-1,-6.874647E-2,-1.2938786E-1,1.5349166E-2,2.3171562E-1,1.2368021E-1,1.2368021E-1,1.7784573E-1,-9.8676585E-2,-8.3711535E-2,-3.881636E-2,-1.1733596E-2,6.951469E-2,9.6597455E-2],"categories":[],"categories_nodes":[],"categories_segments":[],"categories_sizes":[],"default_left":[0,0,0,0,0,0,0,0,0,0,0,0,0,0,0,0,0,0,0,0,0,0,0,0,0,0,0,0,0,0,0,0,0,0,0,0,0,0,0,0,0,0,0],"id":10,"left_children":[1,3,5,7,9,11,-1,13,15,17,19,21,23,-1,-1,25,-1,27,-1,29,-1,31,-1,33,35,-1,-1,-1,-1,37,-1,39,-1,41,-1,-1,-1,-1,-1,-1,-1,-1,-1],"loss_changes":[9.216963E2,1.7157642E2,6.672449E1,1.8415283E1,1.0983023E1,4.3252937E1,0E0,1.5566406E0,3.0007343E0,6.7722416E0,8.527508E-1,1.0107695E1,2.5830727E0,0E0,0E0,3.7640762E-1,0E0,2.3833847E-1,0E0,7.531787E-1,0E0,5.740042E-1,0E0,1.5046945E0,4.408722E-1,0E0,0E0,0E0,0E0,8.796024E-2,0E0,1.6993141E-1,0E0,2.145052E-1,0E0,0E0,0E0,0E0,0E0,0E0,0E0,0E0,0E0],"parents":[2147483647,0,0,1,1,2,2,3,3,4,4,5,5,7,7,8,8,9,9,10,10,11,11,12,12,15,15,17,17,19,19,21,21,23,23,24,24,29,29,31,31,33,33],"right_children":[2,4,6,8,10,12,-1,14,16,18,20,22,24,-1,-1,26,-1,28,-1,30,-1,32,-1,34,36,-1,-1,-1,-1,38,-1,40,-1,42,-1,-1,-1,-1,-1,-1,-1,-1,-1],"split_conditions":[5.8013916E-2,6.201172E-2,4.9987793E-2,1E0,4.9987793E-2,4.9987793E-2,3.0759913E-1,1E0,5.5999756E-2,1E0,6.402588E-2,4.9987793E-2,4.9987793E-2,-3.058742E-1,-2.4267408E-1,1E0,-1.7009039E-1,1E0,-9.8676585E-2,4.9987793E-2,-3.881636E-2,1E0,6.951469E-2,4.9987793E-2,1E0,-2.3742603E-1,-2.037582E-1,-1.7009039E-1,-1.3438348E-1,4.9987793E-2,-6.874647E-2,5.999756E-2,1.5349166E-2,4.9987793E-2,1.2368021E-1,1.2368021E-1,1.7784573E-1,-9.8676585E-2,-8.3711535E-2,-3.881636E-2,-1.1733596E-2,6.951469E-2,9.6597455E-2],"split_indices":[10,20,30,0,30,1,0,31,30,0,21,20,13,0,0,28,0,8,0,1,0,21,0,24,0,0,0,0,0,18,0,34,0,20,0,0,0,0,0,0,0,0,0],"split_type":[0,0,0,0,0,0,0,0,0,0,0,0,0,0,0,0,0,0,0,0,0,0,0,0,0,0,0,0,0,0,0,0,0,0,0,0,0,0,0,0,0,0,0],"sum_hessian":[3.6987634E3,3.3213098E3,3.7745374E2,3.1669292E3,1.5438048E2,1.449591E2,2.3249461E2,3.1020925E3,6.483674E1,6.806994E1,8.631053E1,7.2554634E1,7.240447E1,3.0436277E3,5.8464893E1,5.0245647E1,1.4591092E1,5.711852E1,1.0951424E1,1.158794E1,7.472259E1,5.4026157E1,1.8528479E1,1.6870724E1,5.553375E1,4.657998E1,3.6656697E0,5.346942E1,3.6490963E0,7.9598174E0,3.6281233E0,5.2730362E1,1.2957962E0,1.1020026E1,5.850696E0,1.6817147E0,5.385203E1,6.6043987E0,1.3554186E0,4.944331E1,3.2870538E0,9.007955E0,2.0120714E0],"tree_param":{"num_deleted":"0","num_feature":"40","num_nodes":"43","size_leaf_vector":"0"}},{"base_weights":[-7.508649E-1,-9.3093854E-1,6.94045E-1,-9.9471813E-1,-1.1844677E-1,2.0010766E-1,3.0405354E-1,-1.0087472E0,-5.5658245E-1,-4.135231E-1,-1.1844677E-1,-1.1844677E-1,1.8204293E-1,-3.0376697E-1,-2.4390359E-1,-7.44659E-1,-1.6697474E-1,-5.5658245E-1,-7.979549E-2,-2.6598495E-1,-3.553403E-2,-1.1844677E-1,2.4418148E-1,-2.3479946E-1,-1.9518621E-1,-1.6697474E-1,-1.2338512E-1,-2.6598495E-1,-5.766476E-2,-1.1844677E-1,1.8860208E-2,6.286736E-2,2.4418148E-1,-7.979549E-2,-6.873012E-2,-3.553403E-2,-8.336912E-3,1.8860208E-2,4.605733E-2,4.605733E-2,7.325445E-2],"categories":[],"categories_nodes":[],"categories_segments":[],"categories_sizes":[],"default_left":[0,0,0,0,0,0,0,0,0,0,0,0,0,0,0,0,0,0,0,0,0,0,0,0,0,0,0,0,0,0,0,0,0,0,0,0,0,0,0,0,0],"id":11,"left_children":[1,3,5,7,9,11,-1,13,15,17,19,21,-1,-1,-1,23,-1,25,-1,27,-1,29,31,-1,-1,-1,-1,33,-1,35,-1,37,39,-1,-1,-1,-1,-1,-1,-1,-1],"loss_changes":[7.387529E2,1.6076245E2,4.9492813E1,1.6461182E1,5.9847536E0,3.582383E1,0E0,9.030762E-1,1.5343132E0,8.984859E0,4.1198158E-1,1.0923099E1,0E0,0E0,0E0,7.085171E-1,0E0,4.1231918E-1,0E0,6.1296403E-1,0E0,1.2713509E0,1.8830318E0,0E0,0E0,0E0,0E0,4.509282E-2,0E0,4.2194748E-1,0E0,2.9141307E-2,1.0755825E-1,0E0,0E0,0E0,0E0,0E0,0E0,0E0,0E0],"parents":[2147483647,0,0,1,1,2,2,3,3,4,4,5,5,7,7,8,8,9,9,10,10,11,11,15,15,17,17,19,19,21,21,22,22,27,27,29,29,31,31,32,32],"right_children":[2,4,6,8,10,12,-1,14,16,18,20,22,-1,-1,-1,24,-1,26,-1,28,-1,30,32,-1,-1,-1,-1,34,-1,36,-1,38,40,-1,-1,-1,-1,-1,-1,-1,-1],"split_conditions":[1E0,4.9987793E-2,5.5999756E-2,6.201172E-2,4.9987793E-2,1E0,3.0405354E-1,1E0,6.402588E-2,5.3985596E-2,4.9987793E-2,5.8013916E-2,1.8204293E-1,-3.0376697E-1,-2.4390359E-1,5.3985596E-2,-1.6697474E-1,1E0,-7.979549E-2,4.9987793E-2,-3.553403E-2,1E0,4.9987793E-2,-2.3479946E-1,-1.9518621E-1,-1.6697474E-1,-1.2338512E-1,4.9987793E-2,-5.766476E-2,1E0,1.8860208E-2,7.0007324E-2,4.9987793E-2,-7.979549E-2,-6.873012E-2,-3.553403E-2,-8.336912E-3,1.8860208E-2,4.605733E-2,4.605733E-2,7.325445E-2],"split_indices":[0,20,30,31,30,23,0,11,10,10,21,16,0,0,0,5,0,8,0,11,0,20,12,0,0,0,0,18,0,31,0,35,10,0,0,0,0,0,0,0,0],"split_type":[0,0,0,0,0,0,0,0,0,0,0,0,0,0,0,0,0,0,0,0,0,0,0,0,0,0,0,0,0,0,0,0,0,0,0,0,0,0,0,0,0],"sum_hessian":[2.8357979E3,2.5218633E3,3.1393454E2,2.3773596E3,1.4450375E2,1.2393745E2,1.8999709E2,2.3140933E3,6.326632E1,6.789607E1,7.660769E1,8.530337E1,3.863408E1,2.265824E3,4.826927E1,5.113319E1,1.2133131E1,5.223108E1,1.5664996E1,1.0103604E1,6.650408E1,5.474422E1,3.0559149E1,4.7244347E1,3.8888423E0,4.8902836E1,3.3282425E0,7.0541134E0,3.0494905E0,5.0038086E1,4.706134E0,4.9160233E0,2.5643126E1,5.9983277E0,1.0557859E0,4.843998E1,1.5981072E0,3.6532378E0,1.2627857E0,1.8955654E0,2.374756E1],"tree_param":{"num_deleted":"0","num_feature":"40","num_nodes":"41","size_leaf_vector":"0"}},{"base_weights":[-7.115281E-1,-9.093991E-1,6.1190236E-1,-9.800466E-1,-1.4874837E-1,1.9645825E-1,1.0133036E0,-1.0002332E0,-5.6439745E-1,-4.0274915E-1,-4.462451E-2,-1.4874837E-1,1.8146428E-1,1.8146428E-1,3.0672747E-1,-3.0183053E-1,-2.346946E-1,-6.807341E-1,-1.6931924E-1,-5.6439745E-1,-8.272463E-2,-1.4874837E-1,2.2806628E-1,-7.823153E-1,-1.8676972E-1,-1.6931924E-1,-1.2602194E-1,-1.4874837E-1,1.1897688E-2,1.1897688E-2,2.2806628E-1,-2.346946E-1,-2.1073216E-1,-4.462451E-2,-1.6363412E-2,4.0158786E-2,6.841989E-2],"categories":[],"categories_nodes":[],"categories_segments":[],"categories_sizes":[],"default_left":[0,0,0,0,0,0,0,0,0,0,0,0,0,0,0,0,0,0,0,0,0,0,0,0,0,0,0,0,0,0,0,0,0,0,0,0,0],"id":12,"left_children":[1,3,5,7,9,11,13,15,17,19,-1,21,-1,-1,-1,-1,-1,23,-1,25,-1,27,29,31,-1,-1,-1,33,-1,-1,35,-1,-1,-1,-1,-1,-1],"loss_changes":[5.7315674E2,1.2931226E2,4.7327705E1,1.9928833E1,4.0962267E0,3.4970985E1,2.1957397E-1,1.8781738E0,2.5849533E-1,8.719982E0,0E0,1.0475381E1,0E0,0E0,0E0,0E0,0E0,7.03846E-1,0E0,1.02742E0,0E0,1.094099E0,1.6881809E0,2.8083801E-2,0E0,0E0,0E0,5.1758766E-1,0E0,0E0,5.641656E-1,0E0,0E0,0E0,0E0,0E0,0E0],"parents":[2147483647,0,0,1,1,2,2,3,3,4,4,5,5,6,6,7,7,8,8,9,9,11,11,17,17,19,19,21,21,22,22,23,23,27,27,30,30],"right_children":[2,4,6,8,10,12,14,16,18,20,-1,22,-1,-1,-1,-1,-1,24,-1,26,-1,28,30,32,-1,-1,-1,34,-1,-1,36,-1,-1,-1,-1,-1,-1],"split_conditions":[5.3985596E-2,5.2001953E-2,5.3985596E-2,6.201172E-2,5.2001953E-2,1E0,1E0,1E0,6.402588E-2,1E0,-4.462451E-2,1E0,1.8146428E-1,1.8146428E-1,3.0672747E-1,-3.0183053E-1,-2.346946E-1,6.5979004E-2,-1.6931924E-1,6.201172E-2,-8.272463E-2,6.7993164E-2,6.5979004E-2,1E0,-1.8676972E-1,-1.6931924E-1,-1.2602194E-1,5.3985596E-2,1.1897688E-2,1.1897688E-2,4.9987793E-2,-2.346946E-1,-2.1073216E-1,-4.462451E-2,-1.6363412E-2,4.0158786E-2,6.841989E-2],"split_indices":[20,0,11,31,11,1,20,10,10,32,0,34,0,0,0,0,0,23,0,28,0,4,21,5,0,0,0,10,0,0,31,0,0,0,0,0,0],"split_type":[0,0,0,0,0,0,0,0,0,0,0,0,0,0,0,0,0,0,0,0,0,0,0,0,0,0,0,0,0,0,0,0,0,0,0,0,0],"sum_hessian":[2.1855957E3,1.9015941E3,2.840015E2,1.779108E3,1.2248612E2,1.4029146E2,1.4371004E2,1.7246182E3,5.4489895E1,6.2834175E1,5.9651943E1,9.469887E1,4.5592583E1,2.8953521E0,1.4081468E2,1.6850247E3,3.9593494E1,4.1635647E1,1.2854248E1,4.8392155E1,1.444202E1,6.155256E1,3.3146313E1,3.8319904E1,3.315743E0,4.3321877E1,5.0702777E0,5.6994297E1,4.558263E0,3.5766163E0,2.9569695E1,3.6023186E1,2.2967198E0,5.4423447E1,2.5708497E0,3.520974E0,2.6048721E1],"tree_param":{"num_deleted":"0","num_feature":"40","num_nodes":"37","size_leaf_vector":"0"}},{"base_weights":[-6.656141E-1,-8.8154286E-1,6.263872E-1,-9.681656E-1,-1.2757784E-1,2.5895432E-1,3.0407423E-1,-9.9106616E-1,-5.478717E-1,-2.981298E-1,-1.2757784E-1,-1.0254308E-1,1.9088025E-1,-2.9959503E-1,-2.3084068E-1,-6.746134E-1,-1.6436152E-1,-5.478717E-1,-6.385615E-2,-2.1285382E-1,-3.8273353E-2,-1.2757784E-1,2.668622E-1,-2.232456E-1,-1.8337277E-1,-1.6436152E-1,-1.1410883E-1,-6.385615E-2,-5.1064752E-2,-1.2757784E-1,2.0892657E-2,6.9642186E-2,2.668622E-1,-3.8273353E-2,-8.690349E-3,2.0892657E-2,5.047566E-2,5.047566E-2,8.0058664E-2],"categories":[],"categories_nodes":[],"categories_segments":[],"categories_sizes":[],"default_left":[0,0,0,0,0,0,0,0,0,0,0,0,0,0,0,0,0,0,0,0,0,0,0,0,0,0,0,0,0,0,0,0,0,0,0,0,0,0,0],"id":13,"left_children":[1,3,5,7,9,11,-1,13,15,17,19,21,-1,-1,-1,23,-1,25,-1,27,-1,29,31,-1,-1,-1,-1,-1,-1,33,-1,35,37,-1,-1,-1,-1,-1,-1],"loss_changes":[4.7440387E2,1.2388403E2,3.442295E1,1.6127808E1,1.3981123E0,2.5723557E1,0E0,1.9621582E0,3.918953E-1,6.7729416E0,1.1908722E-1,1.282727E1,0E0,0E0,0E0,1.5911293E-1,0E0,6.5470314E-1,0E0,2.3707294E-1,0E0,1.0302167E0,1.1215725E0,0E0,0E0,0E0,0E0,0E0,0E0,1.6458702E-1,0E0,2.8834757E-1,1.8172169E-1,0E0,0E0,0E0,0E0,0E0,0E0],"parents":[2147483647,0,0,1,1,2,2,3,3,4,4,5,5,7,7,8,8,9,9,10,10,11,11,15,15,17,17,19,19,21,21,22,22,29,29,31,31,32,32],"right_children":[2,4,6,8,10,12,-1,14,16,18,20,22,-1,-1,-1,24,-1,26,-1,28,-1,30,32,-1,-1,-1,-1,-1,-1,34,-1,36,38,-1,-1,-1,-1,-1,-1],"split_conditions":[5.2001953E-2,5.8013916E-2,4.9987793E-2,1E0,1E0,4.9987793E-2,3.0407423E-1,1E0,7.0007324E-2,4.9987793E-2,4.9987793E-2,6.5979004E-2,1.9088025E-1,-2.9959503E-1,-2.3084068E-1,6.7993164E-2,-1.6436152E-1,6.201172E-2,-6.385615E-2,4.9987793E-2,-3.8273353E-2,1E0,5.5999756E-2,-2.232456E-1,-1.8337277E-1,-1.6436152E-1,-1.1410883E-1,-6.385615E-2,-5.1064752E-2,4.9987793E-2,2.0892657E-2,4.9987793E-2,4.9987793E-2,-3.8273353E-2,-8.690349E-3,2.0892657E-2,5.047566E-2,5.047566E-2,8.0058664E-2],"split_indices":[30,10,11,23,0,1,0,0,0,20,1,24,0,0,0,32,0,21,0,16,0,15,32,0,0,0,0,0,0,0,0,4,25,0,0,0,0,0,0],"split_type":[0,0,0,0,0,0,0,0,0,0,0,0,0,0,0,0,0,0,0,0,0,0,0,0,0,0,0,0,0,0,0,0,0,0,0,0,0,0,0],"sum_hessian":[1.6975138E3,1.4547097E3,2.4280408E2,1.3454965E3,1.0921331E2,1.2543733E2,1.1736675E2,1.2935748E3,5.192155E1,4.7624474E1,6.1588837E1,7.9845276E1,4.5592052E1,1.2579465E3,3.5628326E1,4.208271E1,9.838844E0,3.278664E1,1.4837834E1,7.367052E0,5.4221783E1,4.6345146E1,3.3500134E1,3.895192E1,3.1307886E0,3.1783154E1,1.0034871E0,4.028088E0,3.3389637E0,4.423394E1,2.111205E0,6.780889E0,2.6719246E1,4.243715E1,1.7967911E0,5.6599092E0,1.1209798E0,2.0095925E0,2.4709652E1],"tree_param":{"num_deleted":"0","num_feature":"40","num_nodes":"39","size_leaf_vector":"0"}},{"base_weights":[-6.164612E-1,-8.346038E-1,5.9943783E-1,-9.490129E-1,-1.1758298E-1,2.75597E-1,2.9781017E-1,-9.8374164E-1,-1.5998937E-1,-3.3910063E-1,-1.1758298E-1,-9.5003314E-2,1.9024464E-1,-2.9859477E-1,-2.2755595E-1,-5.332979E-1,-6.8502545E-2,-1.8464978E-1,-3.5274893E-2,-1.1758298E-1,2.6957273E-1,-1.5998937E-1,-1.1424596E-1,-2.283418E-1,-4.5334913E-2,-1.1758298E-1,7.599488E-2,2.2798464E-2,2.6957273E-1,-6.8502545E-2,-5.691873E-2,-3.5274893E-2,-6.238215E-3,-6.238215E-3,2.2798464E-2,5.1835146E-2,8.087182E-2],"categories":[],"categories_nodes":[],"categories_segments":[],"categories_sizes":[],"default_left":[0,0,0,0,0,0,0,0,0,0,0,0,0,0,0,0,0,0,0,0,0,0,0,0,0,0,0,0,0,0,0,0,0,0,0,0,0],"id":14,"left_children":[1,3,5,7,9,11,-1,13,-1,15,17,19,-1,-1,-1,21,-1,23,-1,25,27,-1,-1,29,-1,31,33,-1,35,-1,-1,-1,-1,-1,-1,-1,-1],"loss_changes":[3.526676E2,1.200105E2,2.5522476E1,2.125061E1,9.803982E-1,2.2825634E1,0E0,2.9921875E0,0E0,3.2044086E0,1.7451191E-1,1.0997211E1,0E0,0E0,0E0,4.053278E-1,0E0,1.4645505E0,0E0,1.3122044E0,1.6861668E0,0E0,0E0,7.2594166E-2,0E0,3.395419E-1,3.0929E-2,0E0,1.1708355E-1,0E0,0E0,0E0,0E0,0E0,0E0,0E0,0E0],"parents":[2147483647,0,0,1,1,2,2,3,3,4,4,5,5,7,7,9,9,10,10,11,11,15,15,17,17,19,19,20,20,23,23,25,25,26,26,28,28],"right_children":[2,4,6,8,10,12,-1,14,-1,16,18,20,-1,-1,-1,22,-1,24,-1,26,28,-1,-1,30,-1,32,34,-1,36,-1,-1,-1,-1,-1,-1,-1,-1],"split_conditions":[1E0,4.9987793E-2,1E0,6.201172E-2,6.201172E-2,5.5999756E-2,2.9781017E-1,1E0,-1.5998937E-1,5.3985596E-2,4.9987793E-2,6.402588E-2,1.9024464E-1,-2.9859477E-1,-2.2755595E-1,6.201172E-2,-6.8502545E-2,5.3985596E-2,-3.5274893E-2,1E0,4.9987793E-2,-1.5998937E-1,-1.1424596E-1,1E0,-4.5334913E-2,5.5999756E-2,4.9987793E-2,2.2798464E-2,4.9987793E-2,-6.8502545E-2,-5.691873E-2,-3.5274893E-2,-6.238215E-3,-6.238215E-3,2.2798464E-2,5.1835146E-2,8.087182E-2],"split_indices":[0,20,22,31,21,31,0,10,0,10,30,16,0,0,0,18,0,10,0,28,12,0,0,8,0,30,6,0,17,0,0,0,0,0,0,0,0],"split_type":[0,0,0,0,0,0,0,0,0,0,0,0,0,0,0,0,0,0,0,0,0,0,0,0,0,0,0,0,0,0,0,0,0,0,0,0,0],"sum_hessian":[1.326734E3,1.1251808E3,2.0155333E2,1.010196E3,1.1498473E2,1.1146545E2,9.0087875E1,9.6641876E2,4.3777252E1,1.9261326E1,9.572341E1,6.988378E1,4.158167E1,9.3778253E2,2.8636242E1,1.466516E1,4.5961666E0,4.08718E1,5.485161E1,4.308095E1,2.6802828E1,1.3185412E1,1.479747E0,2.8014332E1,1.285747E1,3.814678E1,4.9341736E0,3.7573602E0,2.3045467E1,2.614902E1,1.8653119E0,3.618259E1,1.9641881E0,1.7080754E0,3.2260983E0,1.5621209E0,2.1483347E1],"tree_param":{"num_deleted":"0","num_feature":"40","num_nodes":"37","size_leaf_vector":"0"}},{"base_weights":[-5.590679E-1,-7.9766905E-1,6.035761E-1,-9.3283767E-1,-9.7046465E-2,2.6854685E-1,9.84958E-1,-9.7226405E-1,-1.5448262E-1,-2.6517397E-1,-2.911394E-2,-5.424001E-2,6.2675244E-1,8.014878E-1,3.1316772E-1,-9.8649347E-1,-2.2308092E-1,-5.1494205E-1,-5.433307E-2,-9.7046465E-2,2.8625622E-1,3.6786288E-1,1.8802574E-1,1.8802574E-1,2.7674234E-1,-2.9844704E-1,-2.595145E-1,-5.1494205E-1,-1.0440784E-1,-9.7046465E-2,2.8381465E-2,9.460488E-2,2.8625622E-1,8.587687E-2,4.9730766E-1,-1.5448262E-1,-1.2944524E-1,-2.911394E-2,-3.6623777E-4,2.8381465E-2,5.7129167E-2,5.7129167E-2,8.587687E-2,1.17534585E-1,1.491923E-1],"categories":[],"categories_nodes":[],"categories_segments":[],"categories_sizes":[],"default_left":[0,0,0,0,0,0,0,0,0,0,0,0,0,0,0,0,0,0,0,0,0,0,0,0,0,0,0,0,0,0,0,0,0,0,0,0,0,0,0,0,0,0,0,0,0],"id":15,"left_children":[1,3,5,7,9,11,13,15,-1,17,-1,19,21,23,-1,25,-1,27,-1,29,31,33,-1,-1,-1,-1,-1,35,-1,37,-1,39,41,-1,43,-1,-1,-1,-1,-1,-1,-1,-1,-1,-1],"loss_changes":[2.924337E2,1.0881995E2,2.2706032E1,1.7632507E1,1.3218267E0,1.637489E1,6.83136E-2,2.6505127E0,0E0,4.934655E0,0E0,6.134725E0,2.8891563E-1,2.5496674E-1,0E0,4.4702148E-1,0E0,1.0233307E0,0E0,7.810893E-1,1.8769605E0,2.9362845E-1,0E0,0E0,0E0,0E0,0E0,7.774925E-2,0E0,2.1697235E-1,0E0,1.5844777E-1,1.5520573E-2,0E0,1.1394858E-2,0E0,0E0,0E0,0E0,0E0,0E0,0E0,0E0,0E0,0E0],"parents":[2147483647,0,0,1,1,2,2,3,3,4,4,5,5,6,6,7,7,9,9,11,11,12,12,13,13,15,15,17,17,19,19,20,20,21,21,27,27,29,29,31,31,32,32,34,34],"right_children":[2,4,6,8,10,12,14,16,-1,18,-1,20,22,24,-1,26,-1,28,-1,30,32,34,-1,-1,-1,-1,-1,36,-1,38,-1,40,42,-1,44,-1,-1,-1,-1,-1,-1,-1,-1,-1,-1],"split_conditions":[5.8013916E-2,5.2001953E-2,4.9987793E-2,6.201172E-2,5.5999756E-2,4.9987793E-2,4.9987793E-2,1E0,-1.5448262E-1,4.9987793E-2,-2.911394E-2,4.9987793E-2,4.9987793E-2,4.9987793E-2,3.1316772E-1,7.0007324E-2,-2.2308092E-1,1E0,-5.433307E-2,4.9987793E-2,6.402588E-2,4.9987793E-2,1.8802574E-1,1.8802574E-1,2.7674234E-1,-2.9844704E-1,-2.595145E-1,1E0,-1.0440784E-1,6.7993164E-2,2.8381465E-2,4.9987793E-2,1E0,8.587687E-2,1E0,-1.5448262E-1,-1.2944524E-1,-2.911394E-2,-3.6623777E-4,2.8381465E-2,5.7129167E-2,5.7129167E-2,8.587687E-2,1.17534585E-1,1.491923E-1],"split_indices":[10,30,31,20,21,21,15,0,0,0,0,1,14,20,0,37,0,9,0,20,13,1,0,0,0,0,0,16,0,34,0,28,0,0,22,0,0,0,0,0,0,0,0,0,0],"split_type":[0,0,0,0,0,0,0,0,0,0,0,0,0,0,0,0,0,0,0,0,0,0,0,0,0,0,0,0,0,0,0,0,0,0,0,0,0,0,0,0,0,0,0,0,0],"sum_hessian":[1.0514283E3,8.726537E2,1.787746E2,7.687144E2,1.03939316E2,9.607796E1,8.269664E1,7.272941E2,4.142024E1,4.6095596E1,5.7843723E1,6.2016407E1,3.4061554E1,2.3655085E1,5.904156E1,6.98763E2,2.8531187E1,3.2669937E1,1.3425659E1,2.7509327E1,3.450708E1,9.171535E0,2.489002E1,8.639719E0,1.5015365E1,6.8279456E2,1.5968395E1,3.0760729E1,1.909208E0,2.6393126E1,1.1162027E0,1.0509118E1,2.3997961E1,4.7541156E0,4.4174185E0,2.9153088E1,1.6076424E0,2.481048E1,1.5826441E0,8.4085045E0,2.100614E0,1.0760703E0,2.292189E1,1.2931848E0,3.1242337E0],"tree_param":{"num_deleted":"0","num_feature":"40","num_nodes":"45","size_leaf_vector":"0"}},{"base_weights":[-4.9763837E-1,-7.5452405E-1,5.5286855E-1,-8.947844E-1,-1.0082775E-1,2.7743286E-1,9.5098084E-1,-9.533663E-1,-1.4934182E-1,-6.931233E-2,-3.0248327E-2,-4.0498156E-2,6.1420685E-1,1.8426207E-1,2.9072097E-1,-9.735328E-1,-2.1767586E-1,-1.0082775E-1,8.605631E-2,8.605631E-2,1.8426207E-1,-2.947807E-1,-2.5486785E-1,-1.0082775E-1,9.30133E-2,-3.0248327E-2,-1.1721678E-3,-1.1721678E-3,2.790399E-2],"categories":[],"categories_nodes":[],"categories_segments":[],"categories_sizes":[],"default_left":[0,0,0,0,0,0,0,0,0,0,0,0,0,0,0,0,0,0,0,0,0,0,0,0,0,0,0,0,0],"id":16,"left_children":[1,3,5,7,9,11,13,15,-1,-1,-1,17,19,-1,-1,21,-1,23,-1,-1,-1,-1,-1,25,27,-1,-1,-1,-1],"loss_changes":[2.270796E2,8.586014E1,1.7896187E1,2.1420074E1,4.4985294E-2,1.2859664E1,1.8141556E-1,3.2312012E0,0E0,0E0,0E0,7.6540465E0,2.1597176E0,0E0,0E0,3.567505E-1,0E0,7.14664E-1,0E0,0E0,0E0,0E0,0E0,2.7842307E-1,1.0690877E-1,0E0,0E0,0E0,0E0],"parents":[2147483647,0,0,1,1,2,2,3,3,4,4,5,5,6,6,7,7,11,11,12,12,15,15,17,17,23,23,24,24],"right_children":[2,4,6,8,10,12,14,16,-1,-1,-1,18,20,-1,-1,22,-1,24,-1,-1,-1,-1,-1,26,28,-1,-1,-1,-1],"split_conditions":[4.9987793E-2,5.2001953E-2,1E0,1E0,6.402588E-2,5.2001953E-2,1E0,1E0,-1.4934182E-1,-6.931233E-2,-3.0248327E-2,6.201172E-2,4.9987793E-2,1.8426207E-1,2.9072097E-1,1E0,-2.1767586E-1,6.7993164E-2,8.605631E-2,8.605631E-2,1.8426207E-1,-2.947807E-1,-2.5486785E-1,5.3985596E-2,1E0,-3.0248327E-2,-1.1721678E-3,-1.1721678E-3,2.790399E-2],"split_indices":[21,11,1,32,11,34,21,4,0,0,0,11,33,0,0,30,0,4,0,0,0,0,0,10,24,0,0,0,0],"split_type":[0,0,0,0,0,0,0,0,0,0,0,0,0,0,0,0,0,0,0,0,0,0,0,0,0,0,0,0,0],"sum_hessian":[8.389256E2,6.7431396E2,1.6461159E2,5.930105E2,8.13035E1,9.8299515E1,6.631207E1,5.5446747E2,3.854304E1,2.2527373E0,7.905076E1,5.6155697E1,4.2143818E1,2.2511387E0,6.4060936E1,5.2890894E2,2.555853E1,4.0797073E1,1.53586235E1,2.5906103E0,3.9553207E1,5.200542E2,8.854687E0,3.714267E1,3.6544063E0,3.4668434E1,2.4742327E0,1.2370449E0,2.4173613E0],"tree_param":{"num_deleted":"0","num_feature":"40","num_nodes":"29","size_leaf_vector":"0"}},{"base_weights":[-4.2918098E-1,-6.959598E-1,5.54033E-1,-8.6966485E-1,-7.096341E-2,3.2860598E-1,2.9096615E-1,-9.476653E-1,-1.4109425E-1,-1.20534614E-1,-7.096341E-2,5.8379147E-2,1.9477399E-1,-2.9247022E-1,-2.1269692E-1,-3.9955723E-1,-2.8724706E-2,-9.574901E-2,-7.096341E-2,-7.096341E-2,3.5381287E-1,-1.4109425E-1,-7.429594E-2,-2.8724706E-2,-2.5006866E-2,-2.5006866E-2,-2.1289025E-2,-7.096341E-2,4.242742E-2,1.4142473E-1,3.5381287E-1,-2.1289025E-2,1.0569198E-2,4.242742E-2,7.428564E-2,7.428564E-2,1.0614387E-1],"categories":[],"categories_nodes":[],"categories_segments":[],"categories_sizes":[],"default_left":[0,0,0,0,0,0,0,0,0,0,0,0,0,0,0,0,0,0,0,0,0,0,0,0,0,0,0,0,0,0,0,0,0,0,0,0,0],"id":17,"left_children":[1,3,5,7,9,11,-1,13,-1,15,17,19,-1,-1,-1,21,-1,23,25,27,29,-1,-1,-1,-1,-1,-1,31,-1,33,35,-1,-1,-1,-1,-1,-1],"loss_changes":[1.8019565E2,7.863904E1,1.34487915E1,2.1294037E1,7.076812E-2,1.1355547E1,0E0,3.7184753E0,0E0,1.5271275E0,8.448815E-2,9.320575E0,0E0,0E0,0E0,1.0458727E0,0E0,4.6328485E-2,2.3477077E-3,4.7254395E-1,7.9234123E-1,0E0,0E0,0E0,0E0,0E0,0E0,3.2663596E-1,0E0,1.9044071E-2,2.3483658E-1,0E0,0E0,0E0,0E0,0E0,0E0],"parents":[2147483647,0,0,1,1,2,2,3,3,4,4,5,5,7,7,9,9,10,10,11,11,15,15,17,17,18,18,19,19,20,20,27,27,29,29,30,30],"right_children":[2,4,6,8,10,12,-1,14,-1,16,18,20,-1,-1,-1,22,-1,24,26,28,30,-1,-1,-1,-1,-1,-1,32,-1,34,36,-1,-1,-1,-1,-1,-1],"split_conditions":[5.2001953E-2,6.402588E-2,5.2001953E-2,6.201172E-2,6.402588E-2,4.9987793E-2,2.9096615E-1,1E0,-1.4109425E-1,4.9987793E-2,4.9987793E-2,4.9987793E-2,1.9477399E-1,-2.9247022E-1,-2.1269692E-1,4.9987793E-2,-2.8724706E-2,6.402588E-2,4.9987793E-2,1E0,7.0007324E-2,-1.4109425E-1,-7.429594E-2,-2.8724706E-2,-2.5006866E-2,-2.5006866E-2,-2.1289025E-2,4.9987793E-2,4.242742E-2,5.5999756E-2,5.3985596E-2,-2.1289025E-2,1.0569198E-2,4.242742E-2,7.428564E-2,7.428564E-2,1.0614387E-1],"split_indices":[31,10,15,20,14,1,0,0,0,2,16,24,0,0,0,20,0,29,12,5,32,0,0,0,0,0,0,0,0,39,25,0,0,0,0,0,0],"split_type":[0,0,0,0,0,0,0,0,0,0,0,0,0,0,0,0,0,0,0,0,0,0,0,0,0,0,0,0,0,0,0,0,0,0,0,0,0],"sum_hessian":[6.845112E2,5.386497E2,1.4586154E2,4.5272546E2,8.5924255E1,9.574831E1,5.011323E1,4.1098154E2,4.1743923E1,2.9848354E1,5.60759E1,6.1223675E1,3.452463E1,3.9060703E2,2.037451E1,1.5850013E1,1.39983425E1,7.001486E0,4.9074413E1,3.311438E1,2.8109295E1,1.0401305E1,5.4487076E0,5.149923E0,1.8515629E0,1.7587047E0,4.731571E1,3.1248648E1,1.8657323E0,3.8121245E0,2.429717E1,2.9447712E1,1.8009343E0,2.6809092E0,1.1312152E0,1.6680679E0,2.2629103E1],"tree_param":{"num_deleted":"0","num_feature":"40","num_nodes":"37","size_leaf_vector":"0"}},{"base_weights":[-3.5931164E-1,-6.2400556E-1,5.1927537E-1,-8.451495E-1,-5.2365094E-2,2.9985708E-1,9.181156E-1,-9.278436E-1,-1.346272E-1,-6.418618E-2,-5.2365094E-2,6.886277E-2,6.089864E-1,2.2034551E-1,3.1583312E-1,-9.5868E-1,-2.0649014E-1,-3.7573668E-1,-5.8275636E-2,-5.8275636E-2,-1.5709529E-2,-5.2365094E-2,3.389246E-1,1.0167738E-1,6.089864E-1,-2.925433E-1,-2.4704707E-1,-1.346272E-1,-6.5101855E-2,-6.5101855E-2,-1.7482692E-2,-5.8275636E-2,-1.659611E-2,-5.2365094E-2,4.2983927E-2,4.2983927E-2,3.389246E-1,1.4218666E-1,1.8269593E-1,-1.7482692E-2,-1.7039401E-2,-1.5709529E-2,1.3637198E-2,7.233065E-2,1.0167738E-1],"categories":[],"categories_nodes":[],"categories_segments":[],"categories_sizes":[],"default_left":[0,0,0,0,0,0,0,0,0,0,0,0,0,0,0,0,0,0,0,0,0,0,0,0,0,0,0,0,0,0,0,0,0,0,0,0,0,0,0,0,0,0,0,0,0],"id":18,"left_children":[1,3,5,7,9,11,13,15,-1,17,19,21,23,-1,-1,25,-1,27,29,31,-1,33,35,-1,37,-1,-1,-1,-1,-1,-1,39,-1,41,-1,-1,43,-1,-1,-1,-1,-1,-1,-1,-1],"loss_changes":[1.3212125E2,7.446631E1,1.1255054E1,1.7689087E1,2.2280216E-3,8.025034E0,3.7103653E-1,3.1683044E0,0E0,2.0201325E0,2.3036003E-3,6.6037526E0,6.747627E-2,0E0,0E0,6.3357544E-1,0E0,2.2273395E0,5.2285784E-1,7.437311E-3,0E0,1.2614467E0,1.2458787E0,0E0,5.715847E-2,0E0,0E0,0E0,0E0,0E0,0E0,4.567206E-4,0E0,4.5353115E-1,0E0,0E0,1.044817E-1,0E0,0E0,0E0,0E0,0E0,0E0,0E0,0E0],"parents":[2147483647,0,0,1,1,2,2,3,3,4,4,5,5,6,6,7,7,9,9,10,10,11,11,12,12,15,15,17,17,18,18,19,19,21,21,22,22,24,24,31,31,33,33,36,36],"right_children":[2,4,6,8,10,12,14,16,-1,18,20,22,24,-1,-1,26,-1,28,30,32,-1,34,36,-1,38,-1,-1,-1,-1,-1,-1,40,-1,42,-1,-1,44,-1,-1,-1,-1,-1,-1,-1,-1],"split_conditions":[4.9987793E-2,4.9987793E-2,1E0,1E0,6.201172E-2,5.5999756E-2,4.9987793E-2,1E0,-1.346272E-1,4.9987793E-2,1E0,6.402588E-2,4.9987793E-2,2.2034551E-1,3.1583312E-1,1E0,-2.0649014E-1,5.3985596E-2,4.9987793E-2,4.9987793E-2,-1.5709529E-2,1E0,4.9987793E-2,1.0167738E-1,4.9987793E-2,-2.925433E-1,-2.4704707E-1,-1.346272E-1,-6.5101855E-2,-6.5101855E-2,-1.7482692E-2,4.9987793E-2,-1.659611E-2,5.5999756E-2,4.2983927E-2,4.2983927E-2,4.9987793E-2,1.4218666E-1,1.8269593E-1,-1.7482692E-2,-1.7039401E-2,-1.5709529E-2,1.3637198E-2,7.233065E-2,1.0167738E-1],"split_indices":[0,20,23,30,27,31,13,12,0,39,24,16,1,0,0,32,0,10,30,10,0,28,12,0,2,0,0,0,0,0,0,36,0,30,0,0,17,0,0,0,0,0,0,0,0],"split_type":[0,0,0,0,0,0,0,0,0,0,0,0,0,0,0,0,0,0,0,0,0,0,0,0,0,0,0,0,0,0,0,0,0,0,0,0,0,0,0,0,0,0,0,0,0],"sum_hessian":[5.657316E2,4.3497537E2,1.3075626E2,3.441575E2,9.081787E1,8.548132E1,4.527494E1,3.1323343E2,3.0924076E1,3.456721E1,5.6250656E1,5.610737E1,2.9373953E1,2.1885357E1,2.3389584E1,2.9546408E2,1.7769352E1,1.90907E1,1.5476514E1,6.8012376E0,4.9449417E1,3.3342747E1,2.276462E1,3.4905002E0,2.5883451E1,2.9161847E2,3.8455837E0,1.4094368E1,4.9963317E0,2.4112113E0,1.3065302E1,5.259165E0,1.5420725E0,2.9083548E1,4.2592E0,2.7657998E0,1.9998821E1,2.7933135E0,2.309014E1,3.5996137E0,1.6595514E0,2.687149E1,2.2120566E0,1.4502763E0,1.8548544E1],"tree_param":{"num_deleted":"0","num_feature":"40","num_nodes":"45","size_leaf_vector":"0"}},{"base_weights":[-2.8560224E-1,-5.544623E-1,4.8101622E-1,-7.9718214E-1,-3.6723047E-2,2.5055277E-1,8.616838E-1,-8.9782995E-1,-1.2508579E-1,-3.7749946E-2,-1.1016915E-2,4.0889077E-2,1.6683549E-1,6.3938665E-1,2.8622448E-1,-9.437138E-1,-1.972174E-1,-3.6723047E-2,2.9850367E-1,1.6683549E-1,2.3902024E-1,-2.8825232E-1,-2.4016577E-1,-3.6723047E-2,3.9267093E-2,1.3089031E-1,2.9850367E-1,-1.1016915E-2,1.412509E-2,3.9267093E-2,6.44091E-2,6.44091E-2,8.9551106E-2],"categories":[],"categories_nodes":[],"categories_segments":[],"categories_sizes":[],"default_left":[0,0,0,0,0,0,0,0,0,0,0,0,0,0,0,0,0,0,0,0,0,0,0,0,0,0,0,0,0,0,0,0,0],"id":19,"left_children":[1,3,5,7,9,11,13,15,-1,-1,-1,17,-1,19,-1,21,-1,23,25,-1,-1,-1,-1,27,-1,29,31,-1,-1,-1,-1,-1,-1],"loss_changes":[9.804254E1,6.1046448E1,1.0636932E1,1.6266266E1,1.8133879E-2,6.956445E0,3.39756E-1,3.9635162E0,0E0,0E0,0E0,4.4410615E0,0E0,6.184163E-1,0E0,4.091034E-1,0E0,7.723949E-1,7.5723314E-1,0E0,0E0,0E0,0E0,1.8249029E-1,0E0,1.7209953E-1,1.0569239E-1,0E0,0E0,0E0,0E0,0E0,0E0],"parents":[2147483647,0,0,1,1,2,2,3,3,4,4,5,5,6,6,7,7,11,11,13,13,15,15,17,17,18,18,23,23,25,25,26,26],"right_children":[2,4,6,8,10,12,14,16,-1,-1,-1,18,-1,20,-1,22,-1,24,26,-1,-1,-1,-1,28,-1,30,32,-1,-1,-1,-1,-1,-1],"split_conditions":[5.3985596E-2,5.2001953E-2,4.9987793E-2,6.201172E-2,1E0,1E0,4.9987793E-2,1E0,-1.2508579E-1,-3.7749946E-2,-1.1016915E-2,6.5979004E-2,1.6683549E-1,4.9987793E-2,2.8622448E-1,7.0007324E-2,-1.972174E-1,5.2001953E-2,5.2001953E-2,1.6683549E-1,2.3902024E-1,-2.8825232E-1,-2.4016577E-1,6.7993164E-2,3.9267093E-2,4.9987793E-2,5.5999756E-2,-1.1016915E-2,1.412509E-2,3.9267093E-2,6.44091E-2,6.44091E-2,8.9551106E-2],"split_indices":[10,30,30,23,30,20,15,0,0,0,0,2,0,20,0,33,0,21,7,0,0,0,0,24,0,23,12,0,0,0,0,0,0],"split_type":[0,0,0,0,0,0,0,0,0,0,0,0,0,0,0,0,0,0,0,0,0,0,0,0,0,0,0,0,0,0,0,0,0],"sum_hessian":[4.7337952E2,3.5067227E2,1.2270723E2,2.675725E2,8.309976E1,7.746602E1,4.5241215E1,2.3800764E2,2.9564867E1,1.4535222E0,8.164624E1,5.39689E1,2.3497114E1,1.5608679E1,2.9632538E1,2.2116107E2,1.6846577E1,2.3092457E1,3.0876444E1,7.586404E0,8.022275E0,2.1708847E2,4.072595E0,2.142873E1,1.6637272E0,8.1630945E0,2.2713348E1,1.9620983E1,1.807746E0,6.9090557E0,1.2540392E0,5.426437E0,1.7286911E1],"tree_param":{"num_deleted":"0","num_feature":"40","num_nodes":"33","size_leaf_vector":"0"}},{"base_weights":[-2.2068542E-1,-4.9951148E-1,4.4688842E-1,-7.3968744E-1,-2.6311532E-2,2.6476896E-1,2.704575E-1,-8.630592E-1,-1.1489985E-1,-3.2437623E-2,-2.6311532E-2,9.52922E-2,1.7494409E-1,-9.298927E-1,-1.8690881E-1,-3.048871E-1,-8.8123735E-3,-2.9374577E-2,-2.6311532E-2,-2.6311532E-2,3.3921957E-1,-2.8559667E-1,-2.329383E-1,-3.8299948E-1,-5.0139252E-2,-2.9374577E-2,-8.352917E-3,-8.352917E-3,-7.89346E-3,-2.6311532E-2,4.693621E-2,4.693621E-2,3.3921957E-1,-1.1489985E-1,-8.2519546E-2,-8.8123735E-3,-8.582645E-3,-7.89346E-3,1.9521374E-2,7.435104E-2,1.0176588E-1],"categories":[],"categories_nodes":[],"categories_segments":[],"categories_sizes":[],"default_left":[0,0,0,0,0,0,0,0,0,0,0,0,0,0,0,0,0,0,0,0,0,0,0,0,0,0,0,0,0,0,0,0,0,0,0,0,0,0,0,0,0],"id":20,"left_children":[1,3,5,7,9,11,-1,13,-1,15,17,19,-1,21,-1,23,-1,25,27,29,31,-1,-1,33,-1,35,-1,-1,-1,37,-1,-1,39,-1,-1,-1,-1,-1,-1,-1,-1],"loss_changes":[7.523184E1,4.510366E1,9.635105E0,1.5482147E1,6.3180923E-4,6.248353E0,0E0,4.6941223E0,0E0,1.7812635E0,4.3869615E-3,3.2128599E0,0E0,4.4328308E-1,0E0,1.4069407E0,0E0,6.457176E-3,9.202957E-4,8.26308E-1,9.949198E-1,0E0,0E0,3.7414885E-1,0E0,1.5540719E-3,0E0,0E0,0E0,4.7767577E-1,0E0,0E0,1.31711E-1,0E0,0E0,0E0,0E0,0E0,0E0,0E0,0E0],"parents":[2147483647,0,0,1,1,2,2,3,3,4,4,5,5,7,7,9,9,10,10,11,11,13,13,15,15,17,17,18,18,19,19,20,20,23,23,25,25,29,29,32,32],"right_children":[2,4,6,8,10,12,-1,14,-1,16,18,20,-1,22,-1,24,-1,26,28,30,32,-1,-1,34,-1,36,-1,-1,-1,38,-1,-1,40,-1,-1,-1,-1,-1,-1,-1,-1],"split_conditions":[1E0,5.2001953E-2,5.8013916E-2,6.201172E-2,5.2001953E-2,1E0,2.704575E-1,1E0,-1.1489985E-1,1E0,4.9987793E-2,4.9987793E-2,1.7494409E-1,6.201172E-2,-1.8690881E-1,6.201172E-2,-8.8123735E-3,4.9987793E-2,5.5999756E-2,1E0,4.9987793E-2,-2.8559667E-1,-2.329383E-1,5.2001953E-2,-5.0139252E-2,1E0,-8.352917E-3,-8.352917E-3,-7.89346E-3,6.7993164E-2,4.693621E-2,4.693621E-2,4.9987793E-2,-1.1489985E-1,-8.2519546E-2,-8.8123735E-3,-8.582645E-3,-7.89346E-3,1.9521374E-2,7.435104E-2,1.0176588E-1],"split_indices":[20,0,14,31,12,2,0,10,0,32,17,39,0,26,0,28,0,33,16,0,30,0,0,39,0,28,0,0,0,5,0,0,21,0,0,0,0,0,0,0,0],"split_type":[0,0,0,0,0,0,0,0,0,0,0,0,0,0,0,0,0,0,0,0,0,0,0,0,0,0,0,0,0,0,0,0,0,0,0,0,0,0,0,0,0],"sum_hessian":[4.0197537E2,2.8372394E2,1.1825144E2,2.1290865E2,7.08153E1,8.555998E1,3.269146E1,1.8490703E2,2.8001614E1,3.428274E1,3.6532555E1,6.3547832E1,2.2012152E1,1.6671803E2,1.8188995E1,2.2482077E1,1.1800666E1,1.2213371E1,2.4319185E1,3.9476727E1,2.4071106E1,1.611054E2,5.61265E0,1.8749517E1,3.7325597E0,9.455252E0,2.7581198E0,1.1111262E0,2.320806E1,3.576361E1,3.713117E0,3.6229293E0,2.0448175E1,1.6656794E1,2.0927238E0,6.9444256E0,2.5108256E0,3.302107E1,2.7425387E0,2.8409245E0,1.7607252E1],"tree_param":{"num_deleted":"0","num_feature":"40","num_nodes":"41","size_leaf_vector":"0"}},{"base_weights":[-1.5097837E-1,-4.169233E-1,4.0155113E-1,-6.778699E-1,-7.6860934E-3,2.3114504E-1,2.5947294E-1,-8.3112997E-1,-1.02833405E-1,-4.196508E-2,-2.305828E-3,-7.6860934E-3,5.174976E-1,-8.994276E-1,-1.760862E-1,-2.4989317E-1,-7.4476763E-3,-7.6860934E-3,7.647173E-2,2.5490576E-1,5.480274E-1,-2.812608E-1,-2.2295724E-1,-3.42778E-1,-4.1207816E-2,-7.6860934E-3,3.708295E-2,2.5490576E-1,1.2043998E-1,1.2043998E-1,1.6440822E-1,-1.02833405E-1,-7.202061E-2,-2.305828E-3,1.7388562E-2,7.647173E-2,9.8455854E-2],"categories":[],"categories_nodes":[],"categories_segments":[],"categories_sizes":[],"default_left":[0,0,0,0,0,0,0,0,0,0,0,0,0,0,0,0,0,0,0,0,0,0,0,0,0,0,0,0,0,0,0,0,0,0,0,0,0],"id":21,"left_children":[1,3,5,7,9,11,-1,13,-1,15,-1,17,19,21,-1,23,-1,25,-1,27,29,-1,-1,31,-1,33,-1,35,-1,-1,-1,-1,-1,-1,-1,-1,-1],"loss_changes":[5.1376934E1,3.7459995E1,8.781433E0,1.3902954E1,1.2835562E-2,5.8783712E0,0E0,3.8041992E0,0E0,4.8792487E-1,0E0,3.322546E0,1.5144854E0,1.0758514E0,0E0,4.2973423E-1,0E0,3.640064E-1,0E0,3.1475353E-1,2.1966457E-1,0E0,0E0,6.196189E-2,0E0,1.3942106E-1,0E0,1.1394978E-2,0E0,0E0,0E0,0E0,0E0,0E0,0E0,0E0,0E0],"parents":[2147483647,0,0,1,1,2,2,3,3,4,4,5,5,7,7,9,9,11,11,12,12,13,13,15,15,17,17,19,19,20,20,23,23,25,25,27,27],"right_children":[2,4,6,8,10,12,-1,14,-1,16,-1,18,20,22,-1,24,-1,26,-1,28,30,-1,-1,32,-1,34,-1,36,-1,-1,-1,-1,-1,-1,-1,-1,-1],"split_conditions":[5.2001953E-2,1E0,5.2001953E-2,5.5999756E-2,5.8013916E-2,4.9987793E-2,2.5947294E-1,1E0,-1.02833405E-1,5.8013916E-2,-2.305828E-3,4.9987793E-2,4.9987793E-2,1E0,-1.760862E-1,5.8013916E-2,-7.4476763E-3,1E0,7.647173E-2,4.9987793E-2,1E0,-2.812608E-1,-2.2295724E-1,4.9987793E-2,-4.1207816E-2,4.9987793E-2,3.708295E-2,6.7993164E-2,1.2043998E-1,1.2043998E-1,1.6440822E-1,-1.02833405E-1,-7.202061E-2,-2.305828E-3,1.7388562E-2,7.647173E-2,9.8455854E-2],"split_indices":[30,0,15,20,1,24,0,12,0,6,0,0,39,32,0,22,0,5,0,10,23,0,0,16,0,10,0,29,0,0,0,0,0,0,0,0,0],"split_type":[0,0,0,0,0,0,0,0,0,0,0,0,0,0,0,0,0,0,0,0,0,0,0,0,0,0,0,0,0,0,0,0,0,0,0,0,0],"sum_hessian":[3.475006E2,2.3475374E2,1.1274686E2,1.7030927E2,6.444448E1,8.352742E1,2.9219433E1,1.384461E2,3.1863153E1,9.973703E0,5.447078E1,4.573407E1,3.779335E1,1.2664027E2,1.1805837E1,8.70804E0,1.2656628E0,2.966743E1,1.6066639E1,1.9557182E1,1.8236168E1,1.24599075E2,2.041197E0,6.543356E0,2.1646845E0,2.711224E1,2.5551922E0,1.6458858E1,3.0983233E0,2.018377E0,1.621779E1,5.1466784E0,1.3966774E0,2.36199E1,3.49234E0,3.4789329E0,1.2979927E1],"tree_param":{"num_deleted":"0","num_feature":"40","num_nodes":"37","size_leaf_vector":"0"}},{"base_weights":[-9.326647E-2,-3.1682107E-1,4.6822867E-1,-5.70542E-1,7.57038E-2,3.1867582E-1,7.757471E-1,-7.352001E-1,-7.422573E-2,-1.4919202E-2,7.57038E-2,1.18301995E-1,1.6416344E-1,1.6416344E-1,2.5963482E-1,-8.3755004E-1,-1.4739288E-1,-2.4741909E-1,3.0392298E-2,3.945967E-2,2.2711141E-2,7.57038E-2,9.982702E-2,-8.901457E-1,-1.9932894E-1,-7.422573E-2,-3.255402E-2,-3.255402E-2,3.0392298E-2,9.11769E-3,1.7274521E-2,7.57038E-2,6.1269082E-2,-2.778594E-1,-2.3318632E-1,-4.3403893E-3,9.11769E-3,2.2711141E-2,4.199011E-2],"categories":[],"categories_nodes":[],"categories_segments":[],"categories_sizes":[],"default_left":[0,0,0,0,0,0,0,0,0,0,0,0,0,0,0,0,0,0,0,0,0,0,0,0,0,0,0,0,0,0,0,0,0,0,0,0,0,0,0],"id":22,"left_children":[1,3,5,7,9,11,13,15,-1,17,19,21,-1,-1,-1,23,-1,25,27,29,-1,31,-1,33,-1,-1,-1,-1,35,-1,-1,37,-1,-1,-1,-1,-1,-1,-1],"loss_changes":[3.8704815E1,2.8254417E1,3.7940712E0,1.2650955E1,2.2777843E-1,4.875058E0,2.5141907E-1,4.823227E0,0E0,2.8407686E0,2.042532E-3,2.0588536E0,0E0,0E0,0E0,1.533699E0,0E0,4.3773842E-1,4.9085885E-1,5.055704E-2,0E0,7.039676E-1,0E0,2.2091675E-1,0E0,0E0,0E0,0E0,3.3876598E-3,0E0,0E0,2.2160637E-1,0E0,0E0,0E0,0E0,0E0,0E0,0E0],"parents":[2147483647,0,0,1,1,2,2,3,3,4,4,5,5,6,6,7,7,9,9,10,10,11,11,15,15,17,17,18,18,19,19,21,21,23,23,28,28,31,31],"right_children":[2,4,6,8,10,12,14,16,-1,18,20,22,-1,-1,-1,24,-1,26,28,30,-1,32,-1,34,-1,-1,-1,-1,36,-1,-1,38,-1,-1,-1,-1,-1,-1,-1],"split_conditions":[5.8013916E-2,6.201172E-2,1E0,5.2001953E-2,4.9987793E-2,5.5999756E-2,4.9987793E-2,1E0,-7.422573E-2,4.9987793E-2,1E0,1E0,1.6416344E-1,1.6416344E-1,2.5963482E-1,5.8013916E-2,-1.4739288E-1,5.3985596E-2,4.9987793E-2,1E0,2.2711141E-2,5.3985596E-2,9.982702E-2,5.2001953E-2,-1.9932894E-1,-7.422573E-2,-3.255402E-2,-3.255402E-2,7.0007324E-2,9.11769E-3,1.7274521E-2,5.3985596E-2,6.1269082E-2,-2.778594E-1,-2.3318632E-1,-4.3403893E-3,9.11769E-3,2.2711141E-2,4.199011E-2],"split_indices":[11,21,21,32,29,39,15,0,0,39,20,24,0,0,0,10,0,10,31,0,0,30,0,30,0,0,0,0,38,0,0,33,0,0,0,0,0,0,0],"split_type":[0,0,0,0,0,0,0,0,0,0,0,0,0,0,0,0,0,0,0,0,0,0,0,0,0,0,0,0,0,0,0,0,0,0,0,0,0,0,0],"sum_hessian":[3.0616214E2,2.1928958E2,8.687255E1,1.4793784E2,7.1351746E1,5.9818035E1,2.705452E1,1.1778488E2,3.0152946E1,2.7433289E1,4.391846E1,4.439456E1,1.5423473E1,8.147364E0,1.8907156E1,1.00184525E2,1.760036E1,1.3097707E1,1.4335582E1,4.917662E0,3.9000797E1,3.9014843E1,5.3797164E0,9.729131E1,2.8932095E0,1.1977307E1,1.1203996E0,3.2115722E0,1.1124009E1,3.1532776E0,1.7643843E0,3.2330627E1,6.684216E0,9.266796E1,4.6233516E0,1.1423608E0,9.981648E0,3.0643799E1,1.6868297E0],"tree_param":{"num_deleted":"0","num_feature":"40","num_nodes":"39","size_leaf_vector":"0"}},{"base_weights":[-3.546505E-2,-2.5738817E-1,3.968485E-1,-5.4219663E-1,6.973016E-2,2.4784632E-1,7.644264E-1,-7.27323E-1,-7.0869975E-2,-9.421843E-2,2.091905E-2,9.4530076E-2,5.0613636E-1,5.602754E-1,3.0132437E-1,-8.510801E-1,-1.4453344E-1,-2.3623323E-1,-1.2244135E-2,6.973016E-2,3.003332E-1,3.003332E-1,1.5184091E-1,1.5184091E-1,2.3426165E-1,-2.6664367E-1,-1.9992875E-1,-7.0869975E-2,-3.7271608E-2,-3.7271608E-2,-3.6732408E-3,6.973016E-2,5.5509508E-2,5.5509508E-2,3.003332E-1,9.009996E-2,1.20970435E-1,2.091905E-2,3.8214277E-2,7.2804734E-2,9.009996E-2],"categories":[],"categories_nodes":[],"categories_segments":[],"categories_sizes":[],"default_left":[0,0,0,0,0,0,0,0,0,0,0,0,0,0,0,0,0,0,0,0,0,0,0,0,0,0,0,0,0,0,0,0,0,0,0,0,0,0,0,0,0],"id":23,"left_children":[1,3,5,7,9,11,13,15,-1,17,-1,19,21,23,-1,25,-1,27,29,31,33,35,-1,-1,-1,-1,-1,-1,-1,-1,-1,37,-1,-1,39,-1,-1,-1,-1,-1,-1],"loss_changes":[2.6565056E1,2.1323643E1,4.956521E0,1.0505665E1,8.6080265E-1,3.242958E0,7.4151516E-1,4.5968933E0,0E0,1.1087105E0,0E0,2.0911613E0,4.8415375E-1,1.3695669E-1,0E0,5.8644867E-1,0E0,8.2167304E-1,8.47125E-1,6.166545E-1,4.330454E-1,9.6754074E-2,0E0,0E0,0E0,0E0,0E0,0E0,0E0,0E0,0E0,2.5017172E-1,0E0,0E0,4.603529E-2,0E0,0E0,0E0,0E0,0E0,0E0],"parents":[2147483647,0,0,1,1,2,2,3,3,4,4,5,5,6,6,7,7,9,9,11,11,12,12,13,13,15,15,17,17,18,18,19,19,20,20,21,21,31,31,34,34],"right_children":[2,4,6,8,10,12,14,16,-1,18,-1,20,22,24,-1,26,-1,28,30,32,34,36,-1,-1,-1,-1,-1,-1,-1,-1,-1,38,-1,-1,40,-1,-1,-1,-1,-1,-1],"split_conditions":[4.9987793E-2,4.9987793E-2,1E0,6.201172E-2,4.9987793E-2,5.2001953E-2,4.9987793E-2,1E0,-7.0869975E-2,4.9987793E-2,2.091905E-2,6.402588E-2,5.3985596E-2,4.9987793E-2,3.0132437E-1,1E0,-1.4453344E-1,5.3985596E-2,4.9987793E-2,4.9987793E-2,4.9987793E-2,5.999756E-2,1.5184091E-1,1.5184091E-1,2.3426165E-1,-2.6664367E-1,-1.9992875E-1,-7.0869975E-2,-3.7271608E-2,-3.7271608E-2,-3.6732408E-3,1E0,5.5509508E-2,5.5509508E-2,4.9987793E-2,9.009996E-2,1.20970435E-1,2.091905E-2,3.8214277E-2,7.2804734E-2,9.009996E-2],"split_indices":[0,20,23,31,29,39,13,10,0,39,0,16,10,38,0,26,0,10,30,32,12,17,0,0,0,0,0,0,0,0,0,28,0,0,17,0,0,0,0,0,0],"split_type":[0,0,0,0,0,0,0,0,0,0,0,0,0,0,0,0,0,0,0,0,0,0,0,0,0,0,0,0,0,0,0,0,0,0,0,0,0,0,0,0,0],"sum_hessian":[2.7482663E2,1.8187029E2,9.295636E1,1.0821705E2,7.365324E1,6.7335396E1,2.562096E1,8.518706E1,2.3029985E1,3.1205828E1,4.2447407E1,4.6562595E1,2.07728E1,1.5645977E1,9.974982E0,7.250888E1,1.2678181E1,1.544252E1,1.5763308E1,2.8415125E1,1.8147472E1,1.1296589E1,9.476212E0,1.0791161E1,4.8548164E0,7.05193E1,1.9895786E0,1.18133545E1,3.6291664E0,2.4008377E0,1.336247E1,2.4043303E1,4.371823E0,1.7934608E0,1.6354012E1,9.490311E0,1.806278E0,2.0479078E1,3.5642242E0,1.2836181E0,1.5070393E1],"tree_param":{"num_deleted":"0","num_feature":"40","num_nodes":"41","size_leaf_vector":"0"}},{"base_weights":[2.437889E-3,-1.5615584E-1,3.9023492E-1,-3.9448753E-1,1.1703954E-1,2.5475916E-1,6.8138456E-1,-6.2703466E-1,-4.16172E-2,-1.38724E-1,3.5111863E-2,1.1703954E-1,1.4042157E-1,4.7986552E-1,2.774437E-1,-7.7995855E-1,-1.148638E-1,-4.16172E-2,-3.2526692E-3,1.1703954E-1,2.9255572E-1,1.4042157E-1,2.1070169E-1,-8.5743624E-1,-1.7442569E-1,1.1703954E-1,2.0479763E-1,6.143929E-2,8.776672E-2,-2.670636E-1,-2.1582828E-1,3.5111863E-2,4.8275575E-2,4.8275575E-2,6.143929E-2],"categories":[],"categories_nodes":[],"categories_segments":[],"categories_sizes":[],"default_left":[0,0,0,0,0,0,0,0,0,0,0,0,0,0,0,0,0,0,0,0,0,0,0,0,0,0,0,0,0,0,0,0,0,0,0],"id":24,"left_children":[1,3,5,7,9,11,13,15,-1,17,-1,19,-1,21,-1,23,-1,-1,-1,25,27,-1,-1,29,-1,31,33,-1,-1,-1,-1,-1,-1,-1,-1],"loss_changes":[1.5501234E1,1.625325E1,2.7119427E0,1.1189556E1,8.685379E-1,3.0136871E0,6.665096E-1,4.4189014E0,0E0,3.1272832E-1,0E0,8.16257E-1,0E0,1.2033796E-1,0E0,1.6124649E0,0E0,0E0,0E0,2.5598773E-1,1.389401E-1,0E0,0E0,3.276825E-3,0E0,9.222072E-2,2.001381E-2,0E0,0E0,0E0,0E0,0E0,0E0,0E0,0E0],"parents":[2147483647,0,0,1,1,2,2,3,3,4,4,5,5,6,6,7,7,9,9,11,11,13,13,15,15,19,19,20,20,23,23,25,25,26,26],"right_children":[2,4,6,8,10,12,14,16,-1,18,-1,20,-1,22,-1,24,-1,-1,-1,26,28,-1,-1,30,-1,32,34,-1,-1,-1,-1,-1,-1,-1,-1],"split_conditions":[6.402588E-2,5.2001953E-2,1E0,4.9987793E-2,4.9987793E-2,5.5999756E-2,4.9987793E-2,1E0,-4.16172E-2,1E0,3.5111863E-2,1E0,1.4042157E-1,4.9987793E-2,2.774437E-1,5.2001953E-2,-1.148638E-1,-4.16172E-2,-3.2526692E-3,5.3985596E-2,4.9987793E-2,1.4042157E-1,2.1070169E-1,1E0,-1.7442569E-1,5.3985596E-2,4.9987793E-2,6.143929E-2,8.776672E-2,-2.670636E-1,-2.1582828E-1,3.5111863E-2,4.8275575E-2,4.8275575E-2,6.143929E-2],"split_indices":[12,32,21,20,31,39,33,0,0,0,0,24,0,0,0,30,0,0,0,30,0,0,0,27,0,33,14,0,0,0,0,0,0,0,0],"split_type":[0,0,0,0,0,0,0,0,0,0,0,0,0,0,0,0,0,0,0,0,0,0,0,0,0,0,0,0,0,0,0,0,0,0,0],"sum_hessian":[2.5005287E2,1.7789723E2,7.215565E1,1.12196815E2,6.5700424E1,5.052207E1,2.1633574E1,7.706157E1,3.5135246E1,5.1620655E0,6.0538357E1,3.7917267E1,1.2604803E1,1.3461174E1,8.1723995E0,5.746882E1,1.9592749E1,3.0706851E0,2.0913806E0,3.3122684E1,4.794583E0,8.603666E0,4.8575077E0,5.485357E1,2.6152492E0,2.7436451E1,5.686234E0,1.4797347E0,3.314848E0,5.3329903E1,1.523666E0,2.610841E1,1.3280418E0,1.4170274E0,4.2692065E0],"tree_param":{"num_deleted":"0","num_feature":"40","num_nodes":"35","size_leaf_vector":"0"}},{"base_weights":[3.420842E-2,-1.05873734E-1,3.8643253E-1,-3.0067316E-1,1.402794E-1,2.4175777E-1,7.0470005E-1,-5.566317E-1,-8.019688E-2,3.8905602E-2,4.2083822E-2,1.7137255E-1,4.732289E-1,1.4196868E-1,8.280316E-1,-6.884506E-1,-9.552429E-2,-2.006032E-1,-8.019688E-2,-8.019688E-2,2.6877752E-2,1.402794E-1,3.2230073E-1,9.669022E-2,1.4196868E-1,1.9518907E-1,3.3153167E-1,-7.892472E-1,-1.5102972E-1,-3.1841427E-1,-1.4040004E-1,-4.2120013E-2,-8.019688E-2,-8.019688E-2,4.697811E-3,1.402794E-1,6.9387026E-2,2.3129007E-1,9.669022E-2,-2.4964313E-1,-1.9390194E-1,-9.552429E-2,-6.882215E-2,-6.882215E-2,-4.2120013E-2,-3.3089537E-2,-2.4059065E-2,-2.4059065E-2,-1.1324861E-2,-1.1324861E-2,1.4093433E-3,4.2083822E-2,5.573542E-2,6.9387026E-2,8.303862E-2],"categories":[],"categories_nodes":[],"categories_segments":[],"categories_sizes":[],"default_left":[0,0,0,0,0,0,0,0,0,0,0,0,0,0,0,0,0,0,0,0,0,0,0,0,0,0,0,0,0,0,0,0,0,0,0,0,0,0,0,0,0,0,0,0,0,0,0,0,0,0,0,0,0,0,0],"id":25,"left_children":[1,3,5,7,9,11,13,15,17,19,-1,21,23,-1,25,27,-1,29,31,33,-1,35,37,-1,-1,-1,-1,39,-1,41,43,-1,45,47,49,51,-1,53,-1,-1,-1,-1,-1,-1,-1,-1,-1,-1,-1,-1,-1,-1,-1,-1,-1],"loss_changes":[1.1509791E1,1.0915428E1,2.884985E0,9.590134E0,3.992114E-1,1.0172503E0,5.708513E-1,3.2844162E0,2.7848506E-1,1.1827557E0,0E0,9.488996E-1,6.628919E-2,0E0,7.826328E-2,1.4525967E0,0E0,4.0193313E-1,1.4125836E-1,4.053493E-1,0E0,2.9789993E-1,1.0069299E-1,0E0,0E0,0E0,0E0,1.4806366E-1,0E0,3.1886816E-2,5.7184175E-2,0E0,2.4505734E-2,1.030761E-2,2.580579E-1,4.5149326E-2,0E0,4.3679297E-2,0E0,0E0,0E0,0E0,0E0,0E0,0E0,0E0,0E0,0E0,0E0,0E0,0E0,0E0,0E0,0E0,0E0],"parents":[2147483647,0,0,1,1,2,2,3,3,4,4,5,5,6,6,7,7,8,8,9,9,11,11,12,12,14,14,15,15,17,17,18,18,19,19,21,21,22,22,27,27,29,29,30,30,32,32,33,33,34,34,35,35,37,37],"right_children":[2,4,6,8,10,12,14,16,18,20,-1,22,24,-1,26,28,-1,30,32,34,-1,36,38,-1,-1,-1,-1,40,-1,42,44,-1,46,48,50,52,-1,54,-1,-1,-1,-1,-1,-1,-1,-1,-1,-1,-1,-1,-1,-1,-1,-1,-1],"split_conditions":[1E0,5.2001953E-2,6.7993164E-2,6.402588E-2,4.9987793E-2,6.7993164E-2,4.9987793E-2,1E0,6.402588E-2,6.402588E-2,4.2083822E-2,6.7993164E-2,4.9987793E-2,1.4196868E-1,4.9987793E-2,6.201172E-2,-9.552429E-2,4.9987793E-2,4.9987793E-2,4.9987793E-2,2.6877752E-2,7.0007324E-2,4.9987793E-2,9.669022E-2,1.4196868E-1,1.9518907E-1,3.3153167E-1,7.0007324E-2,-1.5102972E-1,4.9987793E-2,5.2001953E-2,-4.2120013E-2,4.9987793E-2,4.9987793E-2,6.5979004E-2,4.9987793E-2,6.9387026E-2,4.9987793E-2,9.669022E-2,-2.4964313E-1,-1.9390194E-1,-9.552429E-2,-6.882215E-2,-6.882215E-2,-4.2120013E-2,-3.3089537E-2,-2.4059065E-2,-2.4059065E-2,-1.1324861E-2,-1.1324861E-2,1.4093433E-3,4.2083822E-2,5.573542E-2,6.9387026E-2,8.303862E-2],"split_indices":[29,31,6,10,2,1,23,0,16,10,0,11,20,0,38,20,0,2,13,37,0,34,30,0,0,0,0,37,0,21,38,0,17,0,21,38,0,15,0,0,0,0,0,0,0,0,0,0,0,0,0,0,0,0,0],"split_type":[0,0,0,0,0,0,0,0,0,0,0,0,0,0,0,0,0,0,0,0,0,0,0,0,0,0,0,0,0,0,0,0,0,0,0,0,0,0,0,0,0,0,0,0,0,0,0,0,0,0,0,0,0,0,0],"sum_hessian":[2.3144437E2,1.6608896E2,6.535541E1,1.0730768E2,5.878128E1,4.61408E1,1.9214603E1,6.447147E1,4.283621E1,3.976136E1,1.901992E1,4.034176E1,5.7990417E0,5.2972383E0,1.3917364E1,5.086089E1,1.3610586E1,1.8652563E1,2.4183645E1,2.9786947E1,9.974412E0,3.0240246E1,1.0101513E1,2.3255978E0,3.473444E0,1.0216032E1,3.7013323E0,4.1616276E1,9.244611E0,8.158726E0,1.0493836E1,1.2980937E0,2.2885551E1,9.717359E0,2.0069588E1,1.9153801E1,1.1086446E1,6.1688585E0,3.9326544E0,4.0599762E1,1.016515E0,6.3141994E0,1.8445266E0,8.575075E0,1.9187615E0,1.4520806E0,2.143347E1,8.452505E0,1.2648535E0,1.130009E1,8.769499E0,1.6629044E1,2.5247579E0,1.5148563E0,4.654002E0],"tree_param":{"num_deleted":"0","num_feature":"40","num_nodes":"55","size_leaf_vector":"0"}},{"base_weights":[6.4253934E-2,-7.495554E-2,3.0457866E-1,-2.849716E-1,1.1481156E-1,2.053802E-1,6.0029966E-1,-4.843237E-1,-2.5524005E-2,1.8342417E-2,3.444347E-2,1.1481156E-1,4.0283993E-1,4.0283993E-1,2.7759162E-1,-6.301025E-1,-8.541056E-2,-8.508001E-2,1.9973097E-2,1.1481156E-1,7.764773E-2,2.5882575E-1,1.20851986E-1,1.20851986E-1,1.9239946E-1,-7.9545474E-1,-1.3722065E-1,-8.508001E-2,-9.251513E-3,1.1481156E-1,5.60456E-2,7.764773E-2,9.9249855E-2,-2.636395E-1,-1.8792856E-1,-2.5524005E-2,-1.4149729E-2,-1.4149729E-2,-2.775454E-3,3.444347E-2,4.5244537E-2],"categories":[],"categories_nodes":[],"categories_segments":[],"categories_sizes":[],"default_left":[0,0,0,0,0,0,0,0,0,0,0,0,0,0,0,0,0,0,0,0,0,0,0,0,0,0,0,0,0,0,0,0,0,0,0,0,0,0,0,0,0],"id":26,"left_children":[1,3,5,7,9,11,13,15,-1,17,-1,19,21,23,-1,25,-1,27,-1,29,-1,31,-1,-1,-1,33,-1,35,37,39,-1,-1,-1,-1,-1,-1,-1,-1,-1,-1,-1],"loss_changes":[7.343246E0,6.833609E0,2.2368684E0,4.3717446E0,3.7433052E-1,1.6164165E0,9.6082497E-1,3.1845036E0,0E0,1.3451196E0,0E0,8.843318E-1,1.8149304E-1,9.3360424E-2,0E0,2.4205608E0,0E0,2.983492E-1,0E0,3.4936756E-1,0E0,1.1674929E-1,0E0,0E0,0E0,7.2844887E-1,0E0,1.1260879E-1,6.079289E-2,1.6056049E-1,0E0,0E0,0E0,0E0,0E0,0E0,0E0,0E0,0E0,0E0,0E0],"parents":[2147483647,0,0,1,1,2,2,3,3,4,4,5,5,6,6,7,7,9,9,11,11,12,12,13,13,15,15,17,17,19,19,21,21,25,25,27,27,28,28,29,29],"right_children":[2,4,6,8,10,12,14,16,-1,18,-1,20,22,24,-1,26,-1,28,-1,30,-1,32,-1,-1,-1,34,-1,36,38,40,-1,-1,-1,-1,-1,-1,-1,-1,-1,-1,-1],"split_conditions":[1E0,1E0,1E0,5.5999756E-2,1E0,5.5999756E-2,4.9987793E-2,6.201172E-2,-2.5524005E-2,1E0,3.444347E-2,5.2001953E-2,4.9987793E-2,4.9987793E-2,2.7759162E-1,1E0,-8.541056E-2,4.9987793E-2,1.9973097E-2,1E0,7.764773E-2,4.9987793E-2,1.20851986E-1,1.20851986E-1,1.9239946E-1,1E0,-1.3722065E-1,5.3985596E-2,4.9987793E-2,5.2001953E-2,5.60456E-2,7.764773E-2,9.9249855E-2,-2.636395E-1,-1.8792856E-1,-2.5524005E-2,-1.4149729E-2,-1.4149729E-2,-2.775454E-3,3.444347E-2,4.5244537E-2],"split_indices":[0,30,23,20,29,30,13,37,0,15,0,39,17,38,0,10,0,25,0,24,0,11,0,0,0,27,0,4,39,34,0,0,0,0,0,0,0,0,0,0,0],"split_type":[0,0,0,0,0,0,0,0,0,0,0,0,0,0,0,0,0,0,0,0,0,0,0,0,0,0,0,0,0,0,0,0,0,0,0,0,0,0,0,0,0],"sum_hessian":[2.1781071E2,1.3835556E2,7.9455154E1,7.3237976E1,6.5117584E1,6.0765957E1,1.8689196E1,4.508212E1,2.8155863E1,4.063983E1,2.4477755E1,4.308695E1,1.7679007E1,1.2762454E1,5.926741E0,4.1764557E1,3.3175623E0,3.2191517E1,8.448312E0,3.58583E1,7.22865E0,1.3247178E1,4.431828E0,9.267935E0,3.4945195E0,3.317279E1,8.591764E0,2.4872448E1,7.31907E0,3.380033E1,2.0579686E0,1.1085834E1,2.1613448E0,3.1927492E1,1.2452983E0,2.1343756E1,3.5286922E0,2.752439E0,4.566631E0,3.235206E1,1.448272E0],"tree_param":{"num_deleted":"0","num_feature":"40","num_nodes":"41","size_leaf_vector":"0"}},{"base_weights":[8.1751086E-2,-1.5477963E-2,3.4135863E-1,-1.4939354E-1,1.6294034E-1,2.1215782E-1,6.04017E-1,-3.1681442E-1,6.7733973E-3,6.7733973E-3,1.6294034E-1,1.6294034E-1,3.3933488E-1,4.0808743E-1,2.571096E-1,-4.4649908E-1,-4.650615E-2,-1.550205E-1,2.0320192E-3,6.7733973E-3,8.485687E-2,1.0866223E-1,4.8882104E-2,4.8882104E-2,7.5341284E-2,2.511376E-1,4.0808743E-1,1.22426234E-1,1.8976793E-1,-5.565749E-1,-9.022794E-2,-4.650615E-2,-2.2237066E-2,2.0320192E-3,1.37445405E-2,1.37445405E-2,2.5457062E-2,8.485687E-2,1.3580129E-1,7.5341284E-2,9.888376E-2,9.888376E-2,1.22426234E-1,-2.129912E-1,-1.2860021E-1,2.5457062E-2,3.3098724E-2,3.3098724E-2,4.0740386E-2],"categories":[],"categories_nodes":[],"categories_segments":[],"categories_sizes":[],"default_left":[0,0,0,0,0,0,0,0,0,0,0,0,0,0,0,0,0,0,0,0,0,0,0,0,0,0,0,0,0,0,0,0,0,0,0,0,0,0,0,0,0,0,0,0,0,0,0,0,0],"id":27,"left_children":[1,3,5,7,9,11,13,15,17,19,21,23,25,27,-1,29,-1,31,-1,33,35,37,-1,-1,-1,39,41,-1,-1,43,-1,-1,-1,-1,-1,-1,-1,45,47,-1,-1,-1,-1,-1,-1,-1,-1,-1,-1],"loss_changes":[5.19602E0,4.5822845E0,1.774837E0,3.5699046E0,4.0633678E-1,8.940718E-1,5.987787E-1,2.2552404E0,3.7470657E-1,1.8514417E-1,6.607008E-2,1.9710827E-1,6.7723274E-1,7.51735E-2,0E0,1.7123976E0,0E0,1.1359498E-1,0E0,6.611584E-2,2.0640507E-2,3.729602E-1,0E0,0E0,0E0,6.0140252E-2,4.484558E-2,0E0,0E0,1.486227E0,0E0,0E0,0E0,0E0,0E0,0E0,0E0,8.590987E-2,4.1993856E-2,0E0,0E0,0E0,0E0,0E0,0E0,0E0,0E0,0E0,0E0],"parents":[2147483647,0,0,1,1,2,2,3,3,4,4,5,5,6,6,7,7,8,8,9,9,10,10,11,11,12,12,13,13,15,15,17,17,19,19,20,20,21,21,25,25,26,26,29,29,37,37,38,38],"right_children":[2,4,6,8,10,12,14,16,18,20,22,24,26,28,-1,30,-1,32,-1,34,36,38,-1,-1,-1,40,42,-1,-1,44,-1,-1,-1,-1,-1,-1,-1,46,48,-1,-1,-1,-1,-1,-1,-1,-1,-1,-1],"split_conditions":[6.402588E-2,4.9987793E-2,1E0,5.2001953E-2,1E0,6.402588E-2,6.402588E-2,4.9987793E-2,4.9987793E-2,7.0007324E-2,7.0007324E-2,7.0007324E-2,5.2001953E-2,4.9987793E-2,2.571096E-1,5.2001953E-2,-4.650615E-2,5.3985596E-2,2.0320192E-3,6.402588E-2,1E0,1E0,4.8882104E-2,4.8882104E-2,7.5341284E-2,5.999756E-2,1E0,1.22426234E-1,1.8976793E-1,1E0,-9.022794E-2,-4.650615E-2,-2.2237066E-2,2.0320192E-3,1.37445405E-2,1.37445405E-2,2.5457062E-2,4.9987793E-2,4.9987793E-2,7.5341284E-2,9.888376E-2,9.888376E-2,1.22426234E-1,-2.129912E-1,-1.2860021E-1,2.5457062E-2,3.3098724E-2,3.3098724E-2,4.0740386E-2],"split_indices":[14,28,30,31,29,17,20,20,32,39,34,29,6,0,0,30,0,7,0,10,24,2,0,0,0,34,0,0,0,2,0,0,0,0,0,0,0,38,20,0,0,0,0,0,0,0,0,0,0],"split_type":[0,0,0,0,0,0,0,0,0,0,0,0,0,0,0,0,0,0,0,0,0,0,0,0,0,0,0,0,0,0,0,0,0,0,0,0,0,0,0,0,0,0,0,0,0,0,0,0,0],"sum_hessian":[2.0464383E2,1.4956766E2,5.5076176E1,9.537756E1,5.4190086E1,3.8128582E1,1.6947594E1,5.554158E1,3.9835983E1,9.325762E0,4.4864323E1,6.494682E0,3.1633898E1,1.0732089E1,6.2155056E0,4.324891E1,1.2292672E1,4.2425184E0,3.5593464E1,5.983397E0,3.3423648E0,3.0437967E1,1.4426356E1,4.930113E0,1.5645694E0,1.65909E1,1.5042998E1,7.177081E0,3.5550077E0,4.091079E1,2.3381195E0,2.9781535E0,1.2643652E0,4.5738955E0,1.4095013E0,1.8420082E0,1.5003566E0,2.1951078E1,8.48689E0,1.4750699E1,1.8402008E0,1.595724E0,1.3447274E1,2.8768896E1,1.2141892E1,1.8946629E1,3.0044491E0,3.4263864E0,5.0605035E0],"tree_param":{"num_deleted":"0","num_feature":"40","num_nodes":"49","size_leaf_vector":"0"}},{"base_weights":[8.497768E-2,-7.823918E-3,2.794872E-1,-1.3275027E-1,1.3583164E-1,1.7963865E-1,5.73233E-1,-2.9072148E-1,4.6220497E-4,2.2305306E-2,4.0749494E-2,1.3583164E-1,3.7643582E-1,4.2287472E-1,2.1114852E-1,-4.8898616E-1,-1.445904E-1,1.5406832E-3,7.9068474E-2,1.3583164E-1,7.6840125E-2,7.6840125E-2,1.1293075E-1,1.1293075E-1,1.6900545E-1,-5.5964166E-1,-9.503649E-2,-9.503649E-2,-4.337712E-2,1.5406832E-3,1.2091374E-2,1.2091374E-2,7.9068474E-2,1.3583164E-1,1.959827E-1,-1.8880098E-1,-1.314645E-1,4.6220497E-4,6.2767896E-3,1.7905958E-2,2.3720544E-2,4.0749494E-2,4.9772155E-2,4.9772155E-2,5.879481E-2],"categories":[],"categories_nodes":[],"categories_segments":[],"categories_sizes":[],"default_left":[0,0,0,0,0,0,0,0,0,0,0,0,0,0,0,0,0,0,0,0,0,0,0,0,0,0,0,0,0,0,0,0,0,0,0,0,0,0,0,0,0,0,0,0,0],"id":28,"left_children":[1,3,5,7,9,11,13,15,-1,17,-1,19,21,23,-1,25,27,29,31,33,-1,-1,-1,-1,-1,35,-1,-1,-1,37,-1,-1,39,41,43,-1,-1,-1,-1,-1,-1,-1,-1,-1,-1],"loss_changes":[3.555304E0,2.963645E0,1.7626138E0,3.5766776E0,5.1594436E-1,1.2339752E0,1.0253906E-2,2.969028E0,0E0,3.7450257E-1,0E0,5.306937E-1,3.0835438E-1,2.807895E-1,0E0,8.7467E-1,1.0369229E-1,1.5723255E-1,1.4441761E-1,1.1409736E-1,0E0,0E0,0E0,0E0,0E0,3.9540672E-1,0E0,0E0,0E0,3.0558486E-2,0E0,0E0,2.5575161E-2,3.6321044E-2,5.365169E-2,0E0,0E0,0E0,0E0,0E0,0E0,0E0,0E0,0E0,0E0],"parents":[2147483647,0,0,1,1,2,2,3,3,4,4,5,5,6,6,7,7,9,9,11,11,12,12,13,13,15,15,16,16,17,17,18,18,19,19,25,25,29,29,32,32,33,33,34,34],"right_children":[2,4,6,8,10,12,14,16,-1,18,-1,20,22,24,-1,26,28,30,32,34,-1,-1,-1,-1,-1,36,-1,-1,-1,38,-1,-1,40,42,44,-1,-1,-1,-1,-1,-1,-1,-1,-1,-1],"split_conditions":[4.9987793E-2,6.402588E-2,5.8013916E-2,1E0,1E0,1E0,4.9987793E-2,1E0,4.6220497E-4,6.402588E-2,4.0749494E-2,4.9987793E-2,4.9987793E-2,1E0,2.1114852E-1,1E0,4.9987793E-2,4.9987793E-2,1E0,6.5979004E-2,7.6840125E-2,7.6840125E-2,1.1293075E-1,1.1293075E-1,1.6900545E-1,6.201172E-2,-9.503649E-2,-9.503649E-2,-4.337712E-2,5.999756E-2,1.2091374E-2,1.2091374E-2,4.9987793E-2,5.8013916E-2,7.0007324E-2,-1.8880098E-1,-1.314645E-1,4.6220497E-4,6.2767896E-3,1.7905958E-2,2.3720544E-2,4.0749494E-2,4.9772155E-2,4.9772155E-2,5.879481E-2],"split_indices":[39,10,18,0,20,4,20,29,0,16,0,1,23,6,0,5,28,30,0,24,0,0,0,0,0,25,0,0,0,24,0,0,17,12,31,0,0,0,0,0,0,0,0,0,0],"split_type":[0,0,0,0,0,0,0,0,0,0,0,0,0,0,0,0,0,0,0,0,0,0,0,0,0,0,0,0,0,0,0,0,0,0,0,0,0,0,0,0,0,0,0,0,0],"sum_hessian":[1.9583995E2,1.3323334E2,6.2606613E1,7.874158E1,5.4491764E1,4.7927048E1,1.4679565E1,5.7708855E1,2.1032722E1,4.0463783E1,1.4027978E1,3.3564983E1,1.4362067E1,8.793455E0,5.886111E0,3.4778397E1,2.2930456E1,1.741604E1,2.3047745E1,2.9742926E1,3.8220556E0,1.0011559E1,4.3505087E0,5.3509607E0,3.4424946E0,3.3520306E1,1.2580925E0,1.1725192E0,2.1757938E1,1.4485043E1,2.9309978E0,8.938685E0,1.4109059E1,1.826289E1,1.1480036E1,2.9016363E1,4.503942E0,1.3002223E1,1.4828194E0,1.0114509E0,1.3097609E1,1.600139E1,2.2614994E0,2.582647E0,8.897389E0],"tree_param":{"num_deleted":"0","num_feature":"40","num_nodes":"45","size_leaf_vector":"0"}},{"base_weights":[9.053147E-2,1.1078055E-2,2.1999906E-1,-1.094457E-1,1.1553856E-1,1.1553856E-1,5.282125E-1,-2.4172664E-1,9.1392925E-4,8.426219E-2,1.1553856E-1,1.1553856E-1,3.218755E-1,3.3415306E-1,2.607845E-1,-3.5264358E-1,-3.5802033E-2,3.0464306E-3,9.990038E-2,2.9970115E-2,1.1553856E-1,1.1553856E-1,2.1870704E-1,6.5612115E-2,9.656266E-2,9.656266E-2,1.5771385E-1,-4.9362648E-1,-7.0797555E-2,9.1392925E-4,1.5442022E-2,5.1473405E-2,9.990038E-2,3.2315843E-2,3.466157E-2,1.1553856E-1,5.013684E-2,5.013684E-2,6.5612115E-2,-1.6691324E-1,-1.0944275E-1,1.5442022E-2,2.2706069E-2,2.2706069E-2,2.9970115E-2,3.466157E-2,4.2399205E-2],"categories":[],"categories_nodes":[],"categories_segments":[],"categories_sizes":[],"default_left":[0,0,0,0,0,0,0,0,0,0,0,0,0,0,0,0,0,0,0,0,0,0,0,0,0,0,0,0,0,0,0,0,0,0,0,0,0,0,0,0,0,0,0,0,0,0,0],"id":29,"left_children":[1,3,5,7,9,11,13,15,-1,17,19,21,23,25,-1,27,-1,29,31,-1,33,35,37,-1,-1,-1,-1,39,-1,-1,-1,41,43,-1,-1,45,-1,-1,-1,-1,-1,-1,-1,-1,-1,-1,-1],"loss_changes":[1.9494791E0,2.3603451E0,2.4716282E0,2.357281E0,1.685965E-2,6.8144983E-1,9.811435E-1,1.6899817E0,0E0,3.1777912E-1,1.30211115E-2,5.083994E-1,2.4753928E-1,2.3489141E-1,0E0,1.4989214E0,0E0,7.751994E-2,5.1985085E-2,0E0,1.1775494E-3,2.7617496E-1,1.3627768E-2,0E0,0E0,0E0,0E0,4.685049E-1,0E0,0E0,0E0,1.029854E-1,6.6487074E-2,0E0,0E0,6.79667E-2,0E0,0E0,0E0,0E0,0E0,0E0,0E0,0E0,0E0,0E0,0E0],"parents":[2147483647,0,0,1,1,2,2,3,3,4,4,5,5,6,6,7,7,9,9,10,10,11,11,12,12,13,13,15,15,17,17,18,18,20,20,21,21,22,22,27,27,31,31,32,32,35,35],"right_children":[2,4,6,8,10,12,14,16,-1,18,20,22,24,26,-1,28,-1,30,32,-1,34,36,38,-1,-1,-1,-1,40,-1,-1,-1,42,44,-1,-1,46,-1,-1,-1,-1,-1,-1,-1,-1,-1,-1,-1],"split_conditions":[5.3985596E-2,1E0,6.402588E-2,1E0,4.9987793E-2,5.999756E-2,4.9987793E-2,5.5999756E-2,9.1392925E-4,1E0,4.9987793E-2,1E0,5.5999756E-2,4.9987793E-2,2.607845E-1,6.201172E-2,-3.5802033E-2,4.9987793E-2,6.7993164E-2,2.9970115E-2,7.0007324E-2,5.2001953E-2,4.9987793E-2,6.5612115E-2,9.656266E-2,9.656266E-2,1.5771385E-1,1E0,-7.0797555E-2,9.1392925E-4,1.5442022E-2,4.9987793E-2,4.9987793E-2,3.2315843E-2,3.466157E-2,1E0,5.013684E-2,5.013684E-2,6.5612115E-2,-1.6691324E-1,-1.0944275E-1,1.5442022E-2,2.2706069E-2,2.2706069E-2,2.9970115E-2,3.466157E-2,4.2399205E-2],"split_indices":[10,26,30,4,37,34,20,0,0,29,23,20,18,15,0,21,0,0,4,0,31,38,1,0,0,0,0,16,0,0,0,34,20,0,0,23,0,0,0,0,0,0,0,0,0,0,0],"split_type":[0,0,0,0,0,0,0,0,0,0,0,0,0,0,0,0,0,0,0,0,0,0,0,0,0,0,0,0,0,0,0,0,0,0,0,0,0,0,0,0,0,0,0,0,0,0,0],"sum_hessian":[1.8875255E2,1.1764199E2,7.111055E1,7.1470695E1,4.6171295E1,5.2898277E1,1.8212278E1,5.3651276E1,1.7819416E1,2.9881445E1,1.628985E1,4.7291637E1,5.6066365E0,1.2869557E1,5.34272E0,4.534929E1,8.30199E0,4.648562E0,2.5232882E1,1.95736E0,1.4332491E1,3.6024055E1,1.1267585E1,2.4190717E0,3.187565E0,5.6724787E0,7.1970787E0,3.192352E1,1.3425768E1,3.2898123E0,1.3587496E0,1.8526281E1,6.7066E0,2.5182104E0,1.18142805E1,3.3128967E1,2.895086E0,8.125515E0,3.1420698E0,3.0279755E1,1.6437652E0,1.5300242E1,3.2260394E0,1.5060012E0,5.200599E0,3.1289383E1,1.8395851E0],"tree_param":{"num_deleted":"0","num_feature":"40","num_nodes":"47","size_leaf_vector":"0"}},{"base_weights":[9.317195E-2,3.6747668E-2,2.0886496E-1,-4.3558277E-2,1.2280631E-1,1.2280631E-1,3.8201413E-1,-1.6962008E-1,1.1887206E-2,3.9624017E-2,3.6841895E-2,1.2280631E-1,2.5241023E-1,2.5241023E-1,7.0263124E-1,-2.8110272E-1,-1.949941E-2,3.9624017E-2,2.4364552E-2,1.2280631E-1,1.8760827E-1,5.6282483E-2,2.5241023E-1,2.5241023E-1,1.4325623E-1,1.4325623E-1,2.5119382E-1,-5.064742E-1,-1.7305037E-1,3.9624017E-2,6.041959E-2,1.2280631E-1,4.6562187E-2,4.6562187E-2,5.6282483E-2,6.600278E-2,7.5723074E-2,7.5723074E-2,1.0948966E-1,-2.002901E-1,-1.0192869E-1,-9.440959E-2,-5.1915113E-2,1.1887206E-2,1.5006542E-2,1.5006542E-2,1.8125877E-2,3.6841895E-2,4.170204E-2],"categories":[],"categories_nodes":[],"categories_segments":[],"categories_sizes":[],"default_left":[0,0,0,0,0,0,0,0,0,0,0,0,0,0,0,0,0,0,0,0,0,0,0,0,0,0,0,0,0,0,0,0,0,0,0,0,0,0,0,0,0,0,0,0,0,0,0,0,0],"id":30,"left_children":[1,3,5,7,9,11,13,15,-1,17,-1,19,21,23,25,27,-1,29,-1,31,33,-1,35,37,-1,-1,-1,39,41,43,45,47,-1,-1,-1,-1,-1,-1,-1,-1,-1,-1,-1,-1,-1,-1,-1,-1,-1],"loss_changes":[1.1820388E0,1.1075128E0,9.0999866E-1,2.070339E0,3.5973227E-1,7.3258364E-1,1.1646645E0,1.6679087E0,0E0,2.76047E-1,0E0,1.1284602E-1,2.5085294E-1,3.6088878E-1,6.531477E-2,2.8093996E0,0E0,7.638678E-2,0E0,1.409626E-2,5.5667818E-2,0E0,2.9604435E-3,8.999646E-3,0E0,0E0,0E0,1.1316104E0,2.6640415E-2,2.8607458E-2,3.0881375E-2,1.6977787E-3,0E0,0E0,0E0,0E0,0E0,0E0,0E0,0E0,0E0,0E0,0E0,0E0,0E0,0E0,0E0,0E0,0E0],"parents":[2147483647,0,0,1,1,2,2,3,3,4,4,5,5,6,6,7,7,9,9,11,11,12,12,13,13,14,14,15,15,17,17,19,19,20,20,22,22,23,23,27,27,28,28,29,29,30,30,31,31],"right_children":[2,4,6,8,10,12,14,16,-1,18,-1,20,22,24,26,28,-1,30,-1,32,34,-1,36,38,-1,-1,-1,40,42,44,46,48,-1,-1,-1,-1,-1,-1,-1,-1,-1,-1,-1,-1,-1,-1,-1,-1,-1],"split_conditions":[4.9987793E-2,1E0,4.9987793E-2,4.9987793E-2,5.3985596E-2,5.3985596E-2,5.3985596E-2,6.201172E-2,1.1887206E-2,1E0,3.6841895E-2,4.9987793E-2,7.0007324E-2,1E0,6.402588E-2,6.402588E-2,-1.949941E-2,6.7993164E-2,2.4364552E-2,1E0,1E0,5.6282483E-2,4.9987793E-2,1E0,1.4325623E-1,1.4325623E-1,2.5119382E-1,1E0,4.9987793E-2,6.5979004E-2,4.9987793E-2,5.8013916E-2,4.6562187E-2,4.6562187E-2,5.6282483E-2,6.600278E-2,7.5723074E-2,7.5723074E-2,1.0948966E-1,-2.002901E-1,-1.0192869E-1,-9.440959E-2,-5.1915113E-2,1.1887206E-2,1.5006542E-2,1.5006542E-2,1.8125877E-2,3.6841895E-2,4.170204E-2],"split_indices":[39,20,1,30,10,26,10,28,0,0,0,16,31,23,7,16,0,4,0,6,30,0,36,21,0,0,0,2,12,12,29,4,0,0,0,0,0,0,0,0,0,0,0,0,0,0,0,0,0],"split_type":[0,0,0,0,0,0,0,0,0,0,0,0,0,0,0,0,0,0,0,0,0,0,0,0,0,0,0,0,0,0,0,0,0,0,0,0,0,0,0,0,0,0,0,0,0,0,0,0,0],"sum_hessian":[1.8125076E2,1.2271798E2,5.8532772E1,7.266578E1,5.0052204E1,3.920219E1,1.9330585E1,5.796395E1,1.4701824E1,3.733056E1,1.2721646E1,2.440149E1,1.48007E1,1.2585743E1,6.744841E0,4.862479E1,9.339163E0,2.9479862E1,7.850697E0,1.8934216E1,5.467273E0,3.9416764E0,1.0859023E1,9.705769E0,2.879975E0,2.4469814E0,4.29786E0,2.9751875E1,1.8872915E1,2.5545906E1,3.9339566E0,1.7693142E1,1.2410735E0,1.9898188E0,3.4774544E0,1.3324136E0,9.52661E0,8.010775E0,1.6949934E0,1.8551064E1,1.1200812E1,1.8202846E0,1.705263E1,2.4392529E1,1.1533772E0,1.0433666E0,2.8905902E0,1.6631931E1,1.0612121E0],"tree_param":{"num_deleted":"0","num_feature":"40","num_nodes":"49","size_leaf_vector":"0"}},{"base_weights":[9.608658E-2,4.5458995E-2,1.7510217E-1,-1.08273905E-2,1.1028059E-1,1.1028059E-1,3.9406645E-1,-1.01633996E-1,1.491798E-2,4.9726598E-2,3.3084176E-2,1.1028059E-1,7.5652055E-2,7.5652055E-2,2.5158155E-1,-2.3684159E-1,-2.5953699E-2,1.491798E-2,2.4001079E-2,1.1028059E-1,1.8122706E-1,-3.027835E-1,-3.9419297E-2,-1.3139765E-1,-2.5953699E-2,1.1028059E-1,1.4575383E-1,4.372615E-2,5.436812E-2,-1.10515945E-1,-6.512718E-2,-3.9419297E-2,-2.3602704E-2,-2.3602704E-2,-7.78611E-3,3.3084176E-2,3.8405165E-2,3.8405165E-2,4.372615E-2],"categories":[],"categories_nodes":[],"categories_segments":[],"categories_sizes":[],"default_left":[0,0,0,0,0,0,0,0,0,0,0,0,0,0,0,0,0,0,0,0,0,0,0,0,0,0,0,0,0,0,0,0,0,0,0,0,0,0,0],"id":31,"left_children":[1,3,5,7,9,11,13,15,-1,17,-1,19,-1,-1,-1,21,23,-1,-1,25,27,29,-1,31,33,35,37,-1,-1,-1,-1,-1,-1,-1,-1,-1,-1,-1,-1],"loss_changes":[6.9982755E-1,9.596661E-1,1.0617392E0,1.2836839E0,2.2440314E-2,5.427169E-1,1.1488447E0,1.3436475E0,0E0,6.382932E-2,0E0,2.831883E-1,0E0,0E0,0E0,6.6967225E-1,3.773581E-1,0E0,0E0,9.095615E-2,4.764974E-3,5.2176E-1,0E0,1.6264004E-1,6.240067E-2,1.1898041E-2,2.0335823E-2,0E0,0E0,0E0,0E0,0E0,0E0,0E0,0E0,0E0,0E0,0E0,0E0],"parents":[2147483647,0,0,1,1,2,2,3,3,4,4,5,5,6,6,7,7,9,9,11,11,15,15,16,16,19,19,20,20,21,21,23,23,24,24,25,25,26,26],"right_children":[2,4,6,8,10,12,14,16,-1,18,-1,20,-1,-1,-1,22,24,-1,-1,26,28,30,-1,32,34,36,38,-1,-1,-1,-1,-1,-1,-1,-1,-1,-1,-1,-1],"split_conditions":[1E0,1E0,1E0,6.402588E-2,6.402588E-2,1E0,5.3985596E-2,1E0,1.491798E-2,1E0,3.3084176E-2,5.5999756E-2,7.5652055E-2,7.5652055E-2,2.5158155E-1,1E0,7.0007324E-2,1.491798E-2,2.4001079E-2,5.8013916E-2,4.9987793E-2,1E0,-3.9419297E-2,7.0007324E-2,4.9987793E-2,1E0,4.9987793E-2,4.372615E-2,5.436812E-2,-1.10515945E-1,-6.512718E-2,-3.9419297E-2,-2.3602704E-2,-2.3602704E-2,-7.78611E-3,3.3084176E-2,3.8405165E-2,3.8405165E-2,4.372615E-2],"split_indices":[0,4,20,10,20,28,13,25,0,31,0,30,0,0,0,9,34,0,0,31,12,12,0,12,23,24,8,0,0,0,0,0,0,0,0,0,0,0,0],"split_type":[0,0,0,0,0,0,0,0,0,0,0,0,0,0,0,0,0,0,0,0,0,0,0,0,0,0,0,0,0,0,0,0,0,0,0,0,0,0,0],"sum_hessian":[1.7593053E2,1.0818719E2,6.774334E1,9.6538765E1,1.1648426E1,5.182201E1,1.5921333E1,7.075069E1,2.5788076E1,3.8443458E0,7.8040805E0,4.348715E1,8.334861E0,1.2405153E1,3.5161805E0,3.8467678E1,3.228301E1,1.8251648E0,2.019181E0,3.240893E1,1.1078216E1,3.732608E1,1.141596E0,1.9002964E1,1.3280044E1,3.0041155E1,2.367777E0,8.463131E0,2.615085E0,3.614773E1,1.1783507E0,1.7784262E1,1.2187029E0,1.1104007E0,1.2169642E1,2.857905E1,1.462105E0,1.0554031E0,1.3123741E0],"tree_param":{"num_deleted":"0","num_feature":"40","num_nodes":"39","size_leaf_vector":"0"}},{"base_weights":[9.969148E-2,5.133789E-2,1.6106977E-1,-1.201575E-2,3.186115E-2,1.06203824E-1,4.231239E-1,-7.65049E-2,4.7094036E-2,1.06203824E-1,2.2450165E-1,2.6583233E-1,2.3376541E-1,-1.8939878E-1,-1.4705433E-2,1.3416946E-2,4.7094036E-2,1.06203824E-1,4.960582E-2,1.6535273E-1,2.6466388E-1,7.939917E-2,4.6891853E-1,-3.5729042E-1,-3.0615633E-2,-3.0615633E-2,-1.4705433E-2,-1.4705433E-2,9.076647E-3,3.025549E-2,1.4128211E-2,3.186115E-2,4.0733486E-2,4.960582E-2,6.450249E-2,6.450249E-2,7.939917E-2,1.10037364E-1,1.5675756E-1,-1.738376E-1,-6.890138E-2,-1.7513633E-2,-4.41163E-3,-4.41163E-3,2.3325088E-3,9.076647E-3,1.160243E-2],"categories":[],"categories_nodes":[],"categories_segments":[],"categories_sizes":[],"default_left":[0,0,0,0,0,0,0,0,0,0,0,0,0,0,0,0,0,0,0,0,0,0,0,0,0,0,0,0,0,0,0,0,0,0,0,0,0,0,0,0,0,0,0,0,0,0,0],"id":32,"left_children":[1,3,5,7,-1,9,11,13,15,17,19,21,-1,23,25,27,29,31,-1,33,35,-1,37,39,-1,-1,41,43,-1,45,-1,-1,-1,-1,-1,-1,-1,-1,-1,-1,-1,-1,-1,-1,-1,-1,-1],"loss_changes":[5.02494E-1,8.99418E-1,1.152661E0,5.69391E-1,0E0,3.8861543E-1,5.6846404E-1,8.5668814E-1,2.3430169E-2,1.15608126E-1,5.045289E-1,1.2916583E-1,0E0,1.5718226E0,1.5696332E-1,8.480321E-2,6.403953E-3,4.02956E-2,0E0,2.8550506E-2,9.941363E-2,0E0,2.3643517E-1,1.4551382E0,0E0,0E0,1.2577766E-1,2.6432507E-2,0E0,2.318617E-2,0E0,0E0,0E0,0E0,0E0,0E0,0E0,0E0,0E0,0E0,0E0,0E0,0E0,0E0,0E0,0E0,0E0],"parents":[2147483647,0,0,1,1,2,2,3,3,5,5,6,6,7,7,8,8,9,9,10,10,11,11,13,13,14,14,15,15,16,16,17,17,19,19,20,20,22,22,23,23,26,26,27,27,29,29],"right_children":[2,4,6,8,-1,10,12,14,16,18,20,22,-1,24,26,28,30,32,-1,34,36,-1,38,40,-1,-1,42,44,-1,46,-1,-1,-1,-1,-1,-1,-1,-1,-1,-1,-1,-1,-1,-1,-1,-1,-1],"split_conditions":[1E0,5.2001953E-2,5.2001953E-2,1E0,3.186115E-2,4.9987793E-2,4.9987793E-2,6.402588E-2,1E0,4.9987793E-2,4.9987793E-2,6.402588E-2,2.3376541E-1,6.201172E-2,4.9987793E-2,1E0,4.9987793E-2,7.0007324E-2,4.960582E-2,4.9987793E-2,1E0,7.939917E-2,4.9987793E-2,1E0,-3.0615633E-2,-3.0615633E-2,6.201172E-2,5.8013916E-2,9.076647E-3,5.3985596E-2,1.4128211E-2,3.186115E-2,4.0733486E-2,4.960582E-2,6.450249E-2,6.450249E-2,7.939917E-2,1.10037364E-1,1.5675756E-1,-1.738376E-1,-6.890138E-2,-1.7513633E-2,-4.41163E-3,-4.41163E-3,2.3325088E-3,9.076647E-3,1.160243E-2],"split_indices":[30,33,15,20,0,24,0,16,1,0,39,20,0,28,12,4,28,5,0,10,23,0,39,2,0,0,17,13,0,10,0,0,0,0,0,0,0,0,0,0,0,0,0,0,0,0,0],"split_type":[0,0,0,0,0,0,0,0,0,0,0,0,0,0,0,0,0,0,0,0,0,0,0,0,0,0,0,0,0,0,0,0,0,0,0,0,0,0,0,0,0,0,0,0,0,0,0],"sum_hessian":[1.7109813E2,9.673057E1,7.436757E1,8.5212364E1,1.15182E1,6.15201E1,1.2847469E1,5.613486E1,2.9077505E1,3.394472E1,2.7575378E1,1.0122671E1,2.7247977E0,3.4229065E1,2.1905796E1,2.1614386E1,7.463121E0,2.2442549E1,1.1502172E1,1.5639826E1,1.1935553E1,6.3473063E0,3.7753649E0,2.7413076E1,6.8159885E0,2.4226432E0,1.9483152E1,1.9627302E1,1.987082E0,3.1813347E0,4.281786E0,2.019838E1,2.2441707E0,1.394466E1,1.6951658E0,1.6826057E0,1.0252947E1,1.733648E0,2.041717E0,1.510642E1,1.2306657E1,1.2172261E0,1.8265926E1,1.4040637E1,5.586666E0,1.7758136E0,1.4055213E0],"tree_param":{"num_deleted":"0","num_feature":"40","num_nodes":"47","size_leaf_vector":"0"}},{"base_weights":[9.42091E-2,6.9925115E-2,1.317985E-1,3.7878927E-2,3.0258544E-2,1.0086181E-1,3.1941697E-1,-2.3297641E-2,2.081111E-2,3.0258544E-2,2.101394E-1,2.101394E-1,2.3728062E-1,-1.0959919E-1,6.910909E-3,1.555006E-1,6.304182E-2,6.304182E-2,1.3174282E-1,-2.3044017E-1,-4.3281414E-2,4.6650182E-2,5.4846E-2,-9.468002E-2,-4.105824E-2,-4.105824E-2,-1.2984425E-2],"categories":[],"categories_nodes":[],"categories_segments":[],"categories_sizes":[],"default_left":[0,0,0,0,0,0,0,0,0,0,0,0,0,0,0,0,0,0,0,0,0,0,0,0,0,0,0],"id":33,"left_children":[1,3,5,7,-1,9,11,13,-1,-1,15,17,-1,19,-1,21,-1,-1,-1,23,25,-1,-1,-1,-1,-1,-1],"loss_changes":[1.4402294E-1,2.7571326E-1,6.3162744E-1,5.224921E-1,0E0,3.906232E-1,1.2352083E0,9.528336E-1,0E0,0E0,2.1457875E-1,1.3951987E-1,0E0,8.592551E-1,0E0,3.4698486E-2,0E0,0E0,0E0,6.940161E-1,4.3199715E-1,0E0,0E0,0E0,0E0,0E0,0E0],"parents":[2147483647,0,0,1,1,2,2,3,3,5,5,6,6,7,7,10,10,11,11,13,13,15,15,19,19,20,20],"right_children":[2,4,6,8,-1,10,12,14,-1,-1,16,18,-1,20,-1,22,-1,-1,-1,24,26,-1,-1,-1,-1,-1,-1],"split_conditions":[5.3985596E-2,1E0,6.402588E-2,1E0,3.0258544E-2,1E0,4.9987793E-2,4.9987793E-2,2.081111E-2,3.0258544E-2,5.2001953E-2,4.9987793E-2,2.3728062E-1,6.201172E-2,6.910909E-3,4.9987793E-2,6.304182E-2,6.304182E-2,1.3174282E-1,1E0,7.0007324E-2,4.6650182E-2,5.4846E-2,-9.468002E-2,-4.105824E-2,-4.105824E-2,-1.2984425E-2],"split_indices":[10,12,30,4,0,2,20,0,0,0,7,0,0,25,0,23,0,0,0,16,34,0,0,0,0,0,0],"split_type":[0,0,0,0,0,0,0,0,0,0,0,0,0,0,0,0,0,0,0,0,0,0,0,0,0,0,0],"sum_hessian":[1.6687413E2,1.03117256E2,6.375688E1,9.618934E1,6.9279137E0,5.002312E1,1.3733761E1,7.1628624E1,2.4560715E1,2.3436638E1,2.6586485E1,1.0419477E1,3.314283E0,6.2055607E1,9.573016E0,7.508581E0,1.9077904E1,7.917008E0,2.5024698E0,3.1500765E1,3.0554844E1,6.1956162E0,1.3129646E0,3.0218494E1,1.2822703E0,1.7641537E1,1.2913306E1],"tree_param":{"num_deleted":"0","num_feature":"40","num_nodes":"27","size_leaf_vector":"0"}},{"base_weights":[9.1380045E-2,7.305979E-2,1.1300639E-1,1.44127505E-2,9.303309E-2,9.303309E-2,3.6224362E-1,-2.8367592E-2,5.372292E-2,5.372292E-2,2.7909929E-2,9.303309E-2,6.8291515E-2,2.2763836E-1,2.4240819E-1,-1.4451173E-1,3.8032995E-3,1.2677665E-2,1.6116878E-2,5.372292E-2,2.2013402E-2,9.303309E-2,4.8100717E-2,2.2763836E-1,1.2893906E-1,-2.4011126E-1,-6.591703E-2,1.2677665E-2,3.3200294E-2,1.6116878E-2,1.906514E-2,2.7909929E-2,3.8005322E-2,6.8291515E-2,9.861529E-2,-8.386516E-2,-4.590425E-2,-4.590425E-2,-1.977511E-2,3.8032995E-3,6.8816943E-3,6.8816943E-3,9.960089E-3],"categories":[],"categories_nodes":[],"categories_segments":[],"categories_sizes":[],"default_left":[0,0,0,0,0,0,0,0,0,0,0,0,0,0,0,0,0,0,0,0,0,0,0,0,0,0,0,0,0,0,0,0,0,0,0,0,0,0,0,0,0,0,0],"id":34,"left_children":[1,3,5,7,9,11,13,15,17,19,-1,21,-1,23,-1,25,-1,27,-1,29,-1,31,-1,33,-1,35,37,39,41,-1,-1,-1,-1,-1,-1,-1,-1,-1,-1,-1,-1,-1,-1],"loss_changes":[5.6687832E-2,4.4118765E-1,1.0829526E0,2.3332623E-1,3.2256842E-3,6.2977135E-1,1.0552275E0,1.0797032E0,1.1670521E-1,1.3794897E-2,0E0,2.5059974E-1,0E0,2.4898851E-1,0E0,5.6650853E-1,0E0,3.9939463E-2,0E0,7.980742E-3,0E0,3.0222774E-2,0E0,7.978046E-2,0E0,1.9855428E-1,2.0859525E-1,8.1735775E-3,2.4662763E-3,0E0,0E0,0E0,0E0,0E0,0E0,0E0,0E0,0E0,0E0,0E0,0E0,0E0,0E0],"parents":[2147483647,0,0,1,1,2,2,3,3,4,4,5,5,6,6,7,7,8,8,9,9,11,11,13,13,15,15,17,17,19,19,21,21,23,23,25,25,26,26,27,27,28,28],"right_children":[2,4,6,8,10,12,14,16,18,20,-1,22,-1,24,-1,26,-1,28,-1,30,-1,32,-1,34,-1,36,38,40,42,-1,-1,-1,-1,-1,-1,-1,-1,-1,-1,-1,-1,-1,-1],"split_conditions":[1E0,4.9987793E-2,1E0,1E0,1E0,6.7993164E-2,5.3985596E-2,5.999756E-2,1E0,1E0,2.7909929E-2,6.7993164E-2,6.8291515E-2,4.9987793E-2,2.4240819E-1,5.5999756E-2,3.8032995E-3,4.9987793E-2,1.6116878E-2,6.5979004E-2,2.2013402E-2,6.201172E-2,4.8100717E-2,5.3985596E-2,1.2893906E-1,5.5999756E-2,6.402588E-2,5.3985596E-2,4.9987793E-2,1.6116878E-2,1.906514E-2,2.7909929E-2,3.8005322E-2,6.8291515E-2,9.861529E-2,-8.386516E-2,-4.590425E-2,-4.590425E-2,-1.977511E-2,3.8032995E-3,6.8816943E-3,6.8816943E-3,9.960089E-3],"split_indices":[20,23,2,30,23,4,10,34,15,9,0,0,0,28,0,8,0,0,0,10,0,5,0,18,0,37,16,4,11,0,0,0,0,0,0,0,0,0,0,0,0,0,0],"split_type":[0,0,0,0,0,0,0,0,0,0,0,0,0,0,0,0,0,0,0,0,0,0,0,0,0,0,0,0,0,0,0,0,0,0,0,0,0,0,0,0,0,0,0],"sum_hessian":[1.6291727E2,9.057069E1,7.234658E1,7.768644E1,1.2884253E1,5.788085E1,1.446573E1,5.209594E1,2.5590498E1,4.5198503E0,8.364403E0,5.3085857E1,4.7949934E0,1.1347401E1,3.1183288E0,4.632441E1,5.7715306E0,1.9543255E1,6.047243E0,3.3259745E0,1.1938759E0,4.9427635E1,3.658224E0,4.9869423E0,6.360459E0,2.7446896E1,1.8877512E1,1.0267942E1,9.275313E0,1.7291679E0,1.5968065E0,4.8377434E1,1.0502007E0,3.9774394E0,1.0095026E0,2.6340628E1,1.1062689E0,1.051247E1,8.365041E0,8.714009E0,1.5539324E0,8.175619E0,1.0996935E0],"tree_param":{"num_deleted":"0","num_feature":"40","num_nodes":"43","size_leaf_vector":"0"}},{"base_weights":[8.406608E-2,7.88206E-2,9.315822E-2,4.7706645E-2,8.5989416E-2,8.5989416E-2,2.3664303E-1,1.6768368E-2,6.684803E-2,6.684803E-2,2.5796825E-2,8.5989416E-2,1.6131622E-1,1.6131622E-1,4.3696243E-1,-7.710126E-2,4.18082E-2,4.18082E-2,2.0054411E-2,2.0054411E-2,2.2925619E-2,8.5989416E-2,3.7095845E-2,3.7095845E-2,1.6131622E-1,4.8394866E-2,8.9741796E-2,8.9741796E-2,2.0218422E-1,-1.5243374E-1,-5.2939593E-3,3.303674E-2,1.254246E-2,4.18082E-2,1.6298436E-2,8.5989416E-2,3.1446338E-2,4.2745356E-2,4.8394866E-2,-6.788662E-2,-2.5512042E-2,-5.2939593E-3,1.1226742E-2,1.254246E-2,1.4420448E-2,2.5796825E-2,2.862158E-2],"categories":[],"categories_nodes":[],"categories_segments":[],"categories_sizes":[],"default_left":[0,0,0,0,0,0,0,0,0,0,0,0,0,0,0,0,0,0,0,0,0,0,0,0,0,0,0,0,0,0,0,0,0,0,0,0,0,0,0,0,0,0,0,0,0,0,0],"id":35,"left_children":[1,3,5,7,9,11,13,15,17,19,-1,21,23,25,27,29,31,33,-1,-1,-1,35,-1,-1,37,-1,-1,-1,-1,39,-1,41,-1,43,-1,45,-1,-1,-1,-1,-1,-1,-1,-1,-1,-1,-1],"loss_changes":[3.51429E-4,1.22688174E-1,2.698095E-1,1.6621265E-1,4.9812794E-3,2.045322E-1,2.998588E-1,6.866315E-1,2.8364986E-2,3.5098407E-2,0E0,5.2910924E-2,1.5312618E-1,2.0354763E-1,3.6008924E-1,6.569619E-1,5.415082E-5,2.463666E-2,0E0,0E0,0E0,1.4782727E-2,0E0,0E0,6.35128E-2,0E0,0E0,0E0,0E0,6.453607E-1,0E0,2.1771404E-1,0E0,1.0365985E-2,0E0,1.0020614E-2,0E0,0E0,0E0,0E0,0E0,0E0,0E0,0E0,0E0,0E0,0E0],"parents":[2147483647,0,0,1,1,2,2,3,3,4,4,5,5,6,6,7,7,8,8,9,9,11,11,12,12,13,13,14,14,15,15,16,16,17,17,21,21,24,24,29,29,31,31,33,33,35,35],"right_children":[2,4,6,8,10,12,14,16,18,20,-1,22,24,26,28,30,32,34,-1,-1,-1,36,-1,-1,38,-1,-1,-1,-1,40,-1,42,-1,44,-1,46,-1,-1,-1,-1,-1,-1,-1,-1,-1,-1,-1],"split_conditions":[4.9987793E-2,4.9987793E-2,5.8013916E-2,4.9987793E-2,6.402588E-2,1E0,4.9987793E-2,1E0,6.402588E-2,4.9987793E-2,2.5796825E-2,1E0,7.0007324E-2,1E0,4.9987793E-2,4.9987793E-2,6.7993164E-2,4.9987793E-2,2.0054411E-2,2.0054411E-2,2.2925619E-2,5.8013916E-2,3.7095845E-2,3.7095845E-2,4.9987793E-2,4.8394866E-2,8.9741796E-2,8.9741796E-2,2.0218422E-1,6.201172E-2,-5.2939593E-3,5.3985596E-2,1.254246E-2,4.9987793E-2,1.6298436E-2,5.8013916E-2,3.1446338E-2,4.2745356E-2,4.8394866E-2,-6.788662E-2,-2.5512042E-2,-5.2939593E-3,1.1226742E-2,1.254246E-2,1.4420448E-2,2.5796825E-2,2.862158E-2],"split_indices":[39,34,18,32,29,23,20,20,0,14,0,22,31,6,30,30,4,37,0,0,0,11,0,0,38,0,0,0,0,21,0,10,0,10,0,10,0,0,0,0,0,0,0,0,0,0,0],"split_type":[0,0,0,0,0,0,0,0,0,0,0,0,0,0,0,0,0,0,0,0,0,0,0,0,0,0,0,0,0,0,0,0,0,0,0,0,0,0,0,0,0,0,0,0,0,0,0],"sum_hessian":[1.6032866E2,1.078034E2,5.252526E1,9.157415E1,1.6229248E1,4.119057E1,1.1334687E1,8.057976E1,1.0994391E1,8.102177E0,8.127072E0,2.675546E1,1.4435112E1,7.1245527E0,4.210134E0,5.130252E1,2.927724E1,8.295029E0,2.6993625E0,6.175649E0,1.926527E0,2.3894243E1,2.8612182E0,3.8518465E0,1.0583265E1,4.580328E0,2.544225E0,1.3054E0,2.9047341E0,4.535482E1,5.947698E0,2.2422277E1,6.854962E0,7.1327596E0,1.1622691E0,1.998134E1,3.9129014E0,1.2417758E0,9.34149E0,4.2262207E1,3.0926147E0,1.5864758E1,6.5575204E0,6.094126E0,1.0386336E0,1.825524E1,1.7261015E0],"tree_param":{"num_deleted":"0","num_feature":"40","num_nodes":"47","size_leaf_vector":"0"}},{"base_weights":[8.3865225E-2,6.764376E-2,1.0806714E-1,3.0643802E-2,2.6356636E-2,8.785545E-2,7.4122034E-2,-2.6860744E-2,1.7774887E-2,8.785545E-2,1.6746445E-1,-7.612025E-2,4.858332E-3,2.6356636E-2,1.2765995E-1,3.8297985E-2,1.6746445E-1,-1.374699E-1,-2.9962905E-2,3.2327313E-2,3.8297985E-2,4.4268664E-2,5.0239336E-2,-5.9721164E-2,-2.5114924E-2,-2.5114924E-2,-8.988872E-3],"categories":[],"categories_nodes":[],"categories_segments":[],"categories_sizes":[],"default_left":[0,0,0,0,0,0,0,0,0,0,0,0,0,0,0,0,0,0,0,0,0,0,0,0,0,0,0],"id":36,"left_children":[1,3,5,7,-1,9,-1,11,-1,13,15,17,-1,-1,19,-1,21,23,25,-1,-1,-1,-1,-1,-1,-1,-1],"loss_changes":[5.53447E-2,2.4319285E-1,3.920312E-1,4.2147315E-1,0E0,2.9690093E-1,0E0,4.116311E-1,0E0,2.6332498E-2,1.498068E-1,2.9191503E-1,0E0,0E0,1.3152152E-2,0E0,2.7040482E-2,2.655568E-1,1.5607886E-1,0E0,0E0,0E0,0E0,0E0,0E0,0E0,0E0],"parents":[2147483647,0,0,1,1,2,2,3,3,5,5,7,7,9,9,10,10,11,11,14,14,16,16,17,17,18,18],"right_children":[2,4,6,8,-1,10,-1,12,-1,14,16,18,-1,-1,20,-1,22,24,26,-1,-1,-1,-1,-1,-1,-1,-1],"split_conditions":[1E0,1E0,4.9987793E-2,6.402588E-2,2.6356636E-2,5.3985596E-2,7.4122034E-2,6.402588E-2,1.7774887E-2,4.9987793E-2,4.9987793E-2,4.9987793E-2,4.858332E-3,2.6356636E-2,4.9987793E-2,3.8297985E-2,4.9987793E-2,4.9987793E-2,1E0,3.2327313E-2,3.8297985E-2,4.4268664E-2,5.0239336E-2,-5.9721164E-2,-2.5114924E-2,-2.5114924E-2,-8.988872E-3],"split_indices":[0,5,28,11,0,16,0,10,0,22,12,39,0,0,38,0,17,34,24,0,0,0,0,0,0,0,0],"split_type":[0,0,0,0,0,0,0,0,0,0,0,0,0,0,0,0,0,0,0,0,0,0,0,0,0,0,0],"sum_hessian":[1.58593E2,9.7223434E1,6.1369568E1,8.791583E1,9.307604E0,4.559551E1,1.5774062E1,6.6126526E1,2.1789307E1,2.8874535E1,1.6720972E1,6.1934635E1,4.1918893E0,2.5660208E1,3.214327E0,2.654203E0,1.406677E1,3.593582E1,2.5998814E1,2.0791135E0,1.1352136E0,1.0214504E0,1.3045319E1,2.7503857E1,8.431965E0,1.5391116E1,1.06076975E1],"tree_param":{"num_deleted":"0","num_feature":"40","num_nodes":"27","size_leaf_vector":"0"}},{"base_weights":[7.811046E-2],"categories":[],"categories_nodes":[],"categories_segments":[],"categories_sizes":[],"default_left":[0],"id":37,"left_children":[-1],"loss_changes":[0E0],"parents":[2147483647],"right_children":[-1],"split_conditions":[2.3433138E-2],"split_indices":[0],"split_type":[0],"sum_hessian":[1.564694E2],"tree_param":{"num_deleted":"0","num_feature":"40","num_nodes":"1","size_leaf_vector":"0"}},{"base_weights":[5.472237E-2],"categories":[],"categories_nodes":[],"categories_segments":[],"categories_sizes":[],"default_left":[0],"id":38,"left_children":[-1],"loss_changes":[0E0],"parents":[2147483647],"right_children":[-1],"split_conditions":[1.6416712E-2],"split_indices":[0],"split_type":[0],"sum_hessian":[1.5671645E2],"tree_param":{"num_deleted":"0","num_feature":"40","num_nodes":"1","size_leaf_vector":"0"}},{"base_weights":[3.8353927E-2],"categories":[],"categories_nodes":[],"categories_segments":[],"categories_sizes":[],"default_left":[0],"id":39,"left_children":[-1],"loss_changes":[0E0],"parents":[2147483647],"right_children":[-1],"split_conditions":[1.1506178E-2],"split_indices":[0],"split_type":[0],"sum_hessian":[1.5690555E2],"tree_param":{"num_deleted":"0","num_feature":"40","num_nodes":"1","size_leaf_vector":"0"}},{"base_weights":[2.6891397E-2],"categories":[],"categories_nodes":[],"categories_segments":[],"categories_sizes":[],"default_left":[0],"id":40,"left_children":[-1],"loss_changes":[0E0],"parents":[2147483647],"right_children":[-1],"split_conditions":[8.06742E-3],"split_indices":[0],"split_type":[0],"sum_hessian":[1.5704607E2],"tree_param":{"num_deleted":"0","num_feature":"40","num_nodes":"1","size_leaf_vector":"0"}},{"base_weights":[1.8860111E-2],"categories":[],"categories_nodes":[],"categories_segments":[],"categories_sizes":[],"default_left":[0],"id":41,"left_children":[-1],"loss_changes":[0E0],"parents":[2147483647],"right_children":[-1],"split_conditions":[5.6580333E-3],"split_indices":[0],"split_type":[0],"sum_hessian":[1.5714859E2],"tree_param":{"num_deleted":"0","num_feature":"40","num_nodes":"1","size_leaf_vector":"0"}},{"base_weights":[1.3230469E-2],"categories":[],"categories_nodes":[],"categories_segments":[],"categories_sizes":[],"default_left":[0],"id":42,"left_children":[-1],"loss_changes":[0E0],"parents":[2147483647],"right_children":[-1],"split_conditions":[3.969141E-3],"split_indices":[0],"split_type":[0],"sum_hessian":[1.5722252E2],"tree_param":{"num_deleted":"0","num_feature":"40","num_nodes":"1","size_leaf_vector":"0"}},{"base_weights":[9.282412E-3],"categories":[],"categories_nodes":[],"categories_segments":[],"categories_sizes":[],"default_left":[0],"id":43,"left_children":[-1],"loss_changes":[0E0],"parents":[2147483647],"right_children":[-1],