{"learner":{"attributes":{"best_iteration":"52","best_ntree_limit":"53","best_score":"0.00793773811548939"},"feature_names":[],"feature_types":[],"gradient_booster":{"model":{"gbtree_model_param":{"num_parallel_tree":"1","num_trees":"73","size_leaf_vector":"0"},"tree_info":[0,0,0,0,0,0,0,0,0,0,0,0,0,0,0,0,0,0,0,0,0,0,0,0,0,0,0,0,0,0,0,0,0,0,0,0,0,0,0,0,0,0,0,0,0,0,0,0,0,0,0,0,0,0,0,0,0,0,0,0,0,0,0,0,0,0,0,0,0,0,0,0,0],"trees":[{"base_weights":[-1.4332436E0,-1.9799341E0,1.8797259E0,-1.9955723E0,-1.9019842E-1,-5.010408E-2,1.9940674E0,-1.9975553E0,-1.6174636E0,-1.0928854E0,-1.5031225E-2,-5.010408E-2,9.7198164E-1,1.7895193E0,5.997492E-1,-5.9941095E-1,-5.688614E-1,-1.8075094E0,-3.2786563E-1,-3.2786563E-1,-1.7144841E-1,-5.010408E-2,2.2555205E-1,7.962489E-1,2.915945E-1,2.915945E-1,1.8943416E0,-5.4225284E-1,-4.3505925E-1,-1.5031225E-2,-0E0,2.6317196E-2,2.4324325E-1,1.3828164E-1,2.472414E-1,4.299485E-1,5.683025E-1,7.057407E-2,1.3828164E-1],"categories":[],"categories_nodes":[],"categories_segments":[],"categories_sizes":[],"default_left":[0,0,0,0,0,0,0,0,0,0,0,0,0,0,0,0,0,0,0,0,0,0,0,0,0,0,0,0,0,0,0,0,0,0,0,0,0,0,0],"id":0,"left_children":[1,3,5,7,9,11,13,15,17,19,-1,21,23,25,-1,-1,-1,27,-1,-1,-1,29,31,33,-1,-1,35,-1,-1,-1,-1,-1,37,-1,-1,-1,-1,-1,-1],"loss_changes":[1.2734384E6,1.6891E4,2.3545719E4,4.4525E2,6.1167314E3,5.4989287E3,9.484375E1,2.55E1,9.1363916E2,4.5885303E2,0E0,4.817282E1,8.111816E0,3.6107324E2,0E0,0E0,0E0,7.988281E-1,0E0,0E0,0E0,2.5024414E-3,3.161621E0,5.0715485E0,0E0,0E0,1.8520508E0,0E0,0E0,0E0,0E0,0E0,1.6992912E0,0E0,0E0,0E0,0E0,0E0,0E0],"parents":[2147483647,0,0,1,1,2,2,3,3,4,4,5,5,6,6,7,7,8,8,9,9,11,11,12,12,13,13,17,17,21,21,22,22,23,23,26,26,32,32],"right_children":[2,4,6,8,10,12,14,16,18,20,-1,22,24,26,-1,-1,-1,28,-1,-1,-1,30,32,34,-1,-1,36,-1,-1,-1,-1,-1,38,-1,-1,-1,-1,-1,-1],"split_conditions":[4.8388672E-1,1E0,2.999878E-2,9.7021484E-1,4.0016174E-3,1E0,4.0016174E-3,1E0,8.598633E-1,1E0,-1.5031225E-2,8.901367E-1,2.0008087E-3,4.0016174E-3,5.997492E-1,-5.9941095E-1,-5.688614E-1,2.2003174E-2,-3.2786563E-1,-3.2786563E-1,-1.7144841E-1,2.2003174E-2,9.7021484E-1,1E0,2.915945E-1,2.915945E-1,1E0,-5.4225284E-1,-4.3505925E-1,-1.5031225E-2,-0E0,2.6317196E-2,2.0008087E-3,1.3828164E-1,2.472414E-1,4.299485E-1,5.683025E-1,7.057407E-2,1.3828164E-1],"split_indices":[3,1,1,0,0,0,2,2,2,2,0,2,2,0,0,0,0,1,0,0,0,1,3,3,0,0,1,0,0,0,0,0,0,0,0,0,0,0,0],"split_type":[0,0,0,0,0,0,0,0,0,0,0,0,0,0,0,0,0,0,0,0,0,0,0,0,0,0,0,0,0,0,0,0,0,0,0,0,0,0,0],"sum_hessian":[7.031E5,6.0351175E5,9.958825E4,5.98284E5,5.22775E3,5.19475E3,9.43935E4,5.951585E5,3.1255E3,2.816E3,2.41175E3,3.1815E3,2.01325E3,2.30325E3,9.209025E4,5.92327E5,2.8315E3,2.811E3,3.145E2,2.532E3,2.84E2,2.5485E3,6.33E2,2.9225E2,1.721E3,3.67E2,1.93625E3,2.795E3,1.6E1,2.5475E3,1E0,5E0,6.28E2,3.25E0,2.89E2,5.25E0,1.931E3,6.2175E2,6.25E0],"tree_param":{"num_deleted":"0","num_feature":"4","num_nodes":"39","size_leaf_vector":"0"}},{"base_weights":[-1.108346E0,-1.533212E0,1.4591827E0,-1.5472522E0,-1.1001237E-1,-3.7014604E-2,1.5589305E0,-4.6454334E-1,-1.3124793E0,-8.286323E-1,-3.7014604E-2,-3.7014604E-2,7.6095796E-1,9.4671905E-1,4.6773368E-1,-1.4304786E0,-2.485897E-1,-2.485897E-1,-1.2984703E-1,-8.340124E-2,-1.1104382E-2,-1.1104382E-2,2.6112816E-1,5.327958E-1,2.282874E-1,2.282874E-1,3.758747E-1,-4.2914358E-1,-3.3886665E-1,-4.3282345E-1,-1.8062377E-2,7.5661086E-2,1.08591504E-1,1.08591504E-1,5.7030404E-1,-1.2984703E-1,-7.395471E-2,1.3984136E-1,1.7702049E-1],"categories":[],"categories_nodes":[],"categories_segments":[],"categories_sizes":[],"default_left":[0,0,0,0,0,0,0,0,0,0,0,0,0,0,0,0,0,0,0,0,0,0,0,0,0,0,0,0,0,0,0,0,0,0,0,0,0,0,0],"id":1,"left_children":[1,3,5,7,9,11,13,-1,15,17,19,21,23,25,-1,27,-1,-1,-1,29,-1,-1,31,33,-1,-1,-1,-1,-1,35,-1,-1,-1,-1,37,-1,-1,-1,-1],"loss_changes":[7.0298256E5,1.1048125E4,1.4606078E4,1.555E2,3.6060332E3,3.418742E3,8.15625E0,0E0,7.604834E2,3.97011E2,1.4144897E-2,5.7062225E1,1.4972168E1,9.715847E0,0E0,1.4282227E0,0E0,0E0,0E0,6.868081E-1,0E0,0E0,1.0364685E0,3.8748016E0,0E0,0E0,0E0,0E0,0E0,2.131834E-1,0E0,0E0,0E0,0E0,1.0697174E0,0E0,0E0,0E0,0E0],"parents":[2147483647,0,0,1,1,2,2,3,3,4,4,5,5,6,6,8,8,9,9,10,10,11,11,12,12,13,13,15,15,19,19,22,22,23,23,29,29,34,34],"right_children":[2,4,6,8,10,12,14,-1,16,18,20,22,24,26,-1,28,-1,-1,-1,30,-1,-1,32,34,-1,-1,-1,-1,-1,36,-1,-1,-1,-1,38,-1,-1,-1,-1],"split_conditions":[6.699219E-1,1E0,6.000519E-3,9.458008E-1,2.0004272E-2,1.5197754E-1,6.402588E-2,-4.6454334E-1,8.901367E-1,9.7021484E-1,1.5002441E-1,9.458008E-1,1E0,2.0008087E-3,4.6773368E-1,4.0016174E-3,-2.485897E-1,-2.485897E-1,-1.2984703E-1,2.0008087E-3,-1.1104382E-2,-1.1104382E-2,2.0008087E-3,1E0,2.282874E-1,2.282874E-1,3.758747E-1,-4.2914358E-1,-3.3886665E-1,8.3984375E-2,-1.8062377E-2,7.5661086E-2,1.08591504E-1,1.08591504E-1,1E0,-1.2984703E-1,-7.395471E-2,1.3984136E-1,1.7702049E-1],"split_indices":[0,2,2,1,1,3,2,0,3,3,1,1,1,3,0,0,0,0,0,3,0,0,3,3,0,0,0,0,0,1,0,0,0,0,0,0,0,0,0],"split_type":[0,0,0,0,0,0,0,0,0,0,0,0,0,0,0,0,0,0,0,0,0,0,0,0,0,0,0,0,0,0,0,0,0,0,0,0,0,0,0],"sum_hessian":[6.44429E5,5.5293206E5,9.149691E4,5.475305E5,5.4016123E3,5.345416E3,8.615149E4,5.4468125E5,2.8492104E3,3.236652E3,2.16496E3,3.2664404E3,2.0789753E3,2.711002E1,8.612438E4,2.4805093E3,3.687014E2,2.6106995E3,6.2595264E2,6.2119093E0,2.158748E3,2.6254768E3,6.4096375E2,2.9773257E2,1.7812428E3,6.5446362E0,2.0565384E1,2.467279E3,1.3230118E1,3.9239E0,2.2880096E0,6.377139E2,3.2498162E0,5.5892353E0,2.9214334E2,2.0773587E0,1.8465412E0,2.2498727E0,2.8989346E2],"tree_param":{"num_deleted":"0","num_feature":"4","num_nodes":"39","size_leaf_vector":"0"}},{"base_weights":[-9.583719E-1,-1.3298115E0,1.2636031E0,-1.3428361E0,-1.1555241E-1,-3.310418E-2,1.3522552E0,-4.029957E-1,-1.2668176E0,-7.291943E-1,-9.931255E-3,-3.310418E-2,6.595755E-1,1.1997852E0,4.0576681E-1,-3.915205E-1,-2.187583E-1,-2.187583E-1,-1.14344776E-1,-9.931255E-3,1.7607515E-1,9.397071E-2,1.9787267E-1,6.595755E-1,3.828512E-1,2.1445645E-2,5.330431E-2,1.9787267E-1,2.9036194E-1],"categories":[],"categories_nodes":[],"categories_segments":[],"categories_sizes":[],"default_left":[0,0,0,0,0,0,0,0,0,0,0,0,0,0,0,0,0,0,0,0,0,0,0,0,0,0,0,0,0],"id":2,"left_children":[1,3,5,7,9,11,13,-1,15,17,-1,19,21,23,-1,-1,-1,-1,-1,-1,25,-1,-1,27,-1,-1,-1,-1,-1],"loss_changes":[4.4514256E5,7.30825E3,8.959805E3,1.51875E1,2.6532483E3,2.810957E3,1.6875E0,0E0,4.9588184E2,2.7209082E2,0E0,2.8005905E1,2.5483398E0,1.774646E1,0E0,0E0,0E0,0E0,0E0,0E0,1.9276619E-1,0E0,0E0,1.0384369E0,0E0,0E0,0E0,0E0,0E0],"parents":[2147483647,0,0,1,1,2,2,3,3,4,4,5,5,6,6,8,8,9,9,11,11,12,12,13,13,20,20,23,23],"right_children":[2,4,6,8,10,12,14,-1,16,18,-1,20,22,24,-1,-1,-1,-1,-1,-1,26,-1,-1,28,-1,-1,-1,-1,-1],"split_conditions":[5.2001953E-1,9.7021484E-1,8.003235E-3,1E0,8.901367E-1,2.7999878E-2,9.160156E-1,-4.029957E-1,1E0,8.798828E-1,-9.931255E-3,4.880371E-1,1E0,2.0008087E-3,4.0576681E-1,-3.915205E-1,-2.187583E-1,-2.187583E-1,-1.14344776E-1,-9.931255E-3,9.458008E-1,9.397071E-2,1.9787267E-1,2.0008087E-3,3.828512E-1,2.1445645E-2,5.330431E-2,1.9787267E-1,2.9036194E-1],"split_indices":[1,2,2,0,3,3,2,0,3,0,0,0,1,3,0,0,0,0,0,0,1,0,0,0,0,0,0,0,0],"split_type":[0,0,0,0,0,0,0,0,0,0,0,0,0,0,0,0,0,0,0,0,0,0,0,0,0,0,0,0,0],"sum_hessian":[5.3934844E5,4.6210103E5,7.724737E4,4.571968E5,4.9042217E3,4.9017827E3,7.2345586E4,4.5429547E5,2.9013455E3,2.7227368E3,2.181485E3,2.8686526E3,2.0331302E3,1.5032109E2,7.2195266E4,2.6085483E3,2.927971E2,2.4108284E3,3.1190848E2,2.2295803E3,6.390723E2,2.8829646E0,2.0302473E3,1.2780304E1,1.3754079E2,1.6657202E0,6.374066E2,7.771234E0,5.00907E0],"tree_param":{"num_deleted":"0","num_feature":"4","num_nodes":"29","size_leaf_vector":"0"}},{"base_weights":[-8.718751E-1,-1.212347E0,1.1404902E0,-1.2266587E0,-9.982777E-2,-3.592843E-2,1.2335302E0,-3.6843368E-1,-1.0141575E0,-6.6324323E-1,-3.592843E-2,-3.592843E-2,5.988009E-1,1.0989553E0,3.7016636E-1,-3.363405E-1,-1.9897299E-1,-1.9897299E-1,-1.0487575E-1,-9.6025735E-2,-1.0778529E-2,-1.0778529E-2,2.8143623E-1,8.443087E-2,1.7964028E-1,1.7964028E-1,3.4992647E-1,-1.0487575E-1,-1.9793125E-2,3.682617E-2,8.443087E-2],"categories":[],"categories_nodes":[],"categories_segments":[],"categories_sizes":[],"default_left":[0,0,0,0,0,0,0,0,0,0,0,0,0,0,0,0,0,0,0,0,0,0,0,0,0,0,0,0,0,0,0],"id":3,"left_children":[1,3,5,7,9,11,13,-1,15,17,19,21,23,25,-1,-1,-1,-1,-1,27,-1,-1,29,-1,-1,-1,-1,-1,-1,-1,-1],"loss_changes":[2.965919E5,5.894875E3,6.8864062E3,1.11625E2,2.1512363E3,2.2012773E3,1.4375E0,0E0,3.5689575E2,2.6746948E2,3.527832E-2,7.189807E1,1.5131836E0,2.8698334E1,0E0,0E0,0E0,0E0,0E0,2.7404318E0,0E0,0E0,8.387222E-1,0E0,0E0,0E0,0E0,0E0,0E0,0E0,0E0],"parents":[2147483647,0,0,1,1,2,2,3,3,4,4,5,5,6,6,8,8,9,9,10,10,11,11,12,12,13,13,19,19,22,22],"right_children":[2,4,6,8,10,12,14,-1,16,18,20,22,24,26,-1,-1,-1,-1,-1,28,-1,-1,30,-1,-1,-1,-1,-1,-1,-1,-1],"split_conditions":[6.7578125E-1,1E0,6.000519E-3,9.7021484E-1,6.402588E-2,1.8005371E-1,1E0,-3.6843368E-1,2.0004272E-2,6.557617E-1,8.598633E-1,5.942383E-1,1E0,2.0008087E-3,3.7016636E-1,-3.363405E-1,-1.9897299E-1,-1.9897299E-1,-1.0487575E-1,2.0008087E-3,-1.0778529E-2,-1.0778529E-2,9.7021484E-1,8.443087E-2,1.7964028E-1,1.7964028E-1,3.4992647E-1,-1.0487575E-1,-1.9793125E-2,3.682617E-2,8.443087E-2],"split_indices":[3,0,0,2,2,1,0,0,1,1,2,2,3,1,0,0,0,0,0,1,0,0,3,0,0,0,0,0,0,0,0],"split_type":[0,0,0,0,0,0,0,0,0,0,0,0,0,0,0,0,0,0,0,0,0,0,0,0,0,0,0,0,0,0,0],"sum_hessian":[4.3288066E5,3.7024016E5,6.2640492E4,3.655377E5,4.702457E3,4.572417E3,5.8068074E4,3.6304953E5,2.488178E3,2.9132102E3,1.789247E3,2.7054446E3,1.8669724E3,1.6206108E2,5.7906016E4,2.186738E3,3.0144E2,2.264147E3,6.4906323E2,9.125209E0,1.7801218E3,2.0791523E3,6.262921E2,1.1435564E0,1.8658289E3,1.998158E1,1.420795E2,4.9749446E0,4.150264E0,1.437794E0,6.248543E2],"tree_param":{"num_deleted":"0","num_feature":"4","num_nodes":"31","size_leaf_vector":"0"}},{"base_weights":[-8.1541E-1,-1.1390651E0,1.0707002E0,-1.1548989E0,-6.1075594E-2,-3.3507582E-3,1.1657737E0,-3.4686926E-1,-9.9372554E-1,-6.079872E-1,-1.0254747E-2,-3.418249E-2,5.812115E-1,1.0451287E0,3.498174E-1,-1.0749781E0,-1.8239617E-1,-1.8239617E-1,-9.6325465E-2,-1.0254747E-2,2.2457963E-1,8.2054354E-2,1.7436346E-1,5.812115E-1,3.31678E-1,-3.2249343E-1,-2.524448E-1,6.5769956E-2,8.2054354E-2,1.7436346E-1,2.5302073E-1],"categories":[],"categories_nodes":[],"categories_segments":[],"categories_sizes":[],"default_left":[0,0,0,0,0,0,0,0,0,0,0,0,0,0,0,0,0,0,0,0,0,0,0,0,0,0,0,0,0,0,0],"id":4,"left_children":[1,3,5,7,9,11,13,-1,15,17,-1,19,21,23,-1,25,-1,-1,-1,-1,27,-1,-1,29,-1,-1,-1,-1,-1,-1,-1],"loss_changes":[2.0726162E5,4.9463125E3,5.078E3,6.0125E1,1.4837094E3,1.767188E3,3.59375E-1,0E0,2.9130884E2,2.0268225E2,0E0,4.2125084E1,2.8295898E-1,1.0388245E1,0E0,1.3393555E0,0E0,0E0,0E0,0E0,2.5458717E-1,0E0,0E0,1.1982794E0,0E0,0E0,0E0,0E0,0E0,0E0,0E0],"parents":[2147483647,0,0,1,1,2,2,3,3,4,4,5,5,6,6,8,8,9,9,11,11,12,12,13,13,15,15,20,20,23,23],"right_children":[2,4,6,8,10,12,14,-1,16,18,-1,20,22,24,-1,26,-1,-1,-1,-1,28,-1,-1,30,-1,-1,-1,-1,-1,-1,-1],"split_conditions":[6.3183594E-1,1E0,8.003235E-3,1E0,4.0016174E-3,8.9208984E-1,1E0,-3.4686926E-1,1E0,8.901367E-1,-1.0254747E-2,9.7021484E-1,8.598633E-1,2.0008087E-3,3.498174E-1,4.0016174E-3,-1.8239617E-1,-1.8239617E-1,-9.6325465E-2,-1.0254747E-2,2.0008087E-3,8.2054354E-2,1.7436346E-1,2.0008087E-3,3.31678E-1,-3.2249343E-1,-2.524448E-1,6.5769956E-2,8.2054354E-2,1.7436346E-1,2.5302073E-1],"split_indices":[2,1,1,0,0,0,1,0,3,3,0,3,2,0,0,1,0,0,0,0,0,0,0,3,0,0,0,0,0,0,0],"split_type":[0,0,0,0,0,0,0,0,0,0,0,0,0,0,0,0,0,0,0,0,0,0,0,0,0,0,0,0,0,0,0],"sum_hessian":[3.395201E5,2.8979234E5,4.9727758E4,2.8559734E5,4.194989E3,4.0439573E3,4.56838E4,2.8325056E5,2.34678E3,2.2162573E3,1.9787312E3,2.472042E3,1.5719153E3,1.1598397E2,4.5567816E4,2.065183E3,2.8159705E2,1.8648777E3,3.5137967E2,1.8438959E3,6.2814606E2,1.5103253E0,1.5704049E3,2.222641E1,9.375756E1,2.050336E3,1.4846981E1,6.221062E2,6.0398626E0,7.692643E0,1.4533766E1],"tree_param":{"num_deleted":"0","num_feature":"4","num_nodes":"31","size_leaf_vector":"0"}},{"base_weights":[-7.750461E-1,-1.086943E0,1.0033493E0,-1.1053118E0,-5.81794E-2,-3.8130698E-3,1.1151955E0,-3.3222225E-1,-8.886752E-1,-5.8174556E-1,-1.253906E-2,-4.1796863E-2,5.5569124E-1,9.604164E-1,3.3468413E-1,-2.994124E-1,-1.7452368E-1,-1.7452368E-1,-9.353137E-2,-1.253906E-2,7.183072E-2,4.0308866E-1,1.6670738E-1,5.5569124E-1,3.1140453E-1,7.708416E-2,4.3413922E-1,1.6670738E-1,2.3905595E-1,1.0366297E-1,1.3674365E-1],"categories":[],"categories_nodes":[],"categories_segments":[],"categories_sizes":[],"default_left":[0,0,0,0,0,0,0,0,0,0,0,0,0,0,0,0,0,0,0,0,0,0,0,0,0,0,0,0,0,0,0],"id":5,"left_children":[1,3,5,7,9,11,13,-1,15,17,-1,19,21,23,-1,-1,-1,-1,-1,-1,-1,25,-1,27,-1,-1,29,-1,-1,-1,-1],"loss_changes":[1.4574761E5,4.2244375E3,4.4166133E3,9.875E1,1.1930779E3,1.4969017E3,1.2148438E0,0E0,2.5900073E2,2.0476001E2,0E0,5.053543E1,6.5634766E0,1.1694382E1,0E0,0E0,0E0,0E0,0E0,0E0,0E0,2.6486588E0,0E0,7.6179504E-1,0E0,0E0,1.0806808E0,0E0,0E0,0E0,0E0],"parents":[2147483647,0,0,1,1,2,2,3,3,4,4,5,5,6,6,8,8,9,9,11,11,12,12,13,13,21,21,23,23,26,26],"right_children":[2,4,6,8,10,12,14,-1,16,18,-1,20,22,24,-1,-1,-1,-1,-1,-1,-1,26,-1,28,-1,-1,30,-1,-1,-1,-1],"split_conditions":[5.498047E-1,1E0,6.000519E-3,1E0,4.0016174E-3,2.6000977E-2,8.901367E-1,-3.3222225E-1,1E0,4.0016174E-3,-1.253906E-2,9.458008E-1,1E0,2.0008087E-3,3.3468413E-1,-2.994124E-1,-1.7452368E-1,-1.7452368E-1,-9.353137E-2,-1.253906E-2,7.183072E-2,1E0,1.6670738E-1,2.0008087E-3,3.1140453E-1,7.708416E-2,1E0,1.6670738E-1,2.3905595E-1,1.0366297E-1,1.3674365E-1],"split_indices":[0,3,2,2,1,3,2,0,1,2,0,1,1,3,0,0,0,0,0,0,0,3,0,1,0,0,0,0,0,0,0],"split_type":[0,0,0,0,0,0,0,0,0,0,0,0,0,0,0,0,0,0,0,0,0,0,0,0,0,0,0,0,0,0,0],"sum_hessian":[2.6275872E5,2.2355227E5,3.9206445E4,2.1963064E5,3.9216233E3,3.9188257E3,3.528762E4,2.1752233E5,2.1083228E3,2.3670022E3,1.5546212E3,2.3602554E3,1.5585703E3,1.01285774E2,3.5186332E4,1.8216917E3,2.8663123E2,1.7380288E3,6.289734E2,1.7222867E3,6.379687E2,2.9409708E2,1.2644733E3,1.3649974E1,8.7635796E1,7.8990226E0,2.8619806E2,8.974392E0,4.6755824E0,3.1022224E0,2.8309586E2],"tree_param":{"num_deleted":"0","num_feature":"4","num_nodes":"31","size_leaf_vector":"0"}},{"base_weights":[-7.436859E-1,-1.0503393E0,9.6614873E-1,-1.0709656E0,-4.2095304E-2,6.405266E-3,1.081288E0,-3.220917E-1,-8.33496E-1,-5.565305E-1,-4.2095304E-2,-4.2095304E-2,5.438466E-1,1.0339894E0,3.2520008E-1,-9.5356745E-1,-1.6695915E-1,-1.6695915E-1,-8.979387E-2,-1.828802E-1,-1.2628592E-2,-1.2628592E-2,1.7587237E-1,1.4833307E-1,1.6315399E-1,5.9584796E-1,3.1769845E-1,-2.8607026E-1,-2.2651471E-1,-8.979387E-2,-3.3746324E-2,5.0632942E-2,7.5262696E-2,1.6315399E-1,1.8460923E-1],"categories":[],"categories_nodes":[],"categories_segments":[],"categories_sizes":[],"default_left":[0,0,0,0,0,0,0,0,0,0,0,0,0,0,0,0,0,0,0,0,0,0,0,0,0,0,0,0,0,0,0,0,0,0,0],"id":6,"left_children":[1,3,5,7,9,11,13,-1,15,17,19,21,23,25,-1,27,-1,-1,-1,29,-1,-1,31,-1,-1,33,-1,-1,-1,-1,-1,-1,-1,-1,-1],"loss_changes":[1.0579068E5,3.5806562E3,3.3906152E3,1.05546875E2,8.8144086E2,1.1228379E3,2.3945312E0,0E0,2.2541211E2,1.1191229E2,3.7123108E-1,3.0610596E1,3.7719727E-1,7.4829346E1,0E0,1.0415039E0,0E0,0E0,0E0,2.3450274E0,0E0,0E0,6.2459946E-1,0E0,0E0,5.3609467E-1,0E0,0E0,0E0,0E0,0E0,0E0,0E0,0E0,0E0],"parents":[2147483647,0,0,1,1,2,2,3,3,4,4,5,5,6,6,8,8,9,9,10,10,11,11,12,12,13,13,15,15,19,19,22,22,25,25],"right_children":[2,4,6,8,10,12,14,-1,16,18,20,22,24,26,-1,28,-1,-1,-1,30,-1,-1,32,-1,-1,34,-1,-1,-1,-1,-1,-1,-1,-1,-1],"split_conditions":[6.7578125E-1,9.7021484E-1,4.0016174E-3,1E0,4.0016174E-3,1E0,4.0016174E-3,-3.220917E-1,1E0,8.798828E-1,9.7021484E-1,2.800293E-1,4.0016174E-3,4.0016174E-3,3.2520008E-1,4.0016174E-3,-1.6695915E-1,-1.6695915E-1,-8.979387E-2,2.0008087E-3,-1.2628592E-2,-1.2628592E-2,2.0008087E-3,1.4833307E-1,1.6315399E-1,8.901367E-1,3.1769845E-1,-2.8607026E-1,-2.2651471E-1,-8.979387E-2,-3.3746324E-2,5.0632942E-2,7.5262696E-2,1.6315399E-1,1.8460923E-1],"split_indices":[1,2,3,3,3,2,2,0,0,0,3,0,0,0,0,2,0,0,0,0,0,0,2,0,0,3,0,0,0,0,0,0,0,0,0],"split_type":[0,0,0,0,0,0,0,0,0,0,0,0,0,0,0,0,0,0,0,0,0,0,0,0,0,0,0,0,0,0,0,0,0,0,0],"sum_hessian":[2.0176189E5,1.7107967E5,3.0682213E4,1.6767147E5,3.4082034E3,3.2867312E3,2.7395482E4,1.6580147E5,1.8700085E3,1.7792277E3,1.6289757E3,2.0246407E3,1.2620903E3,1.506443E3,2.588904E4,1.5853677E3,2.8464093E2,1.4913378E3,2.8788986E2,1.7818644E1,1.6111571E3,1.381304E3,6.433368E2,2.7471887E2,9.873715E2,3.574689E2,1.1489741E3,1.58104E3,4.327617E0,1.217558E1,5.6430645E0,6.387732E2,4.5635934E0,6.3093195E0,3.5115958E2],"tree_param":{"num_deleted":"0","num_feature":"4","num_nodes":"35","size_leaf_vector":"0"}},{"base_weights":[-7.17365E-1,-1.0191605E0,9.140876E-1,-1.044174E0,-5.2536458E-2,1.51822725E-2,1.0531546E0,-1.0485834E0,-7.0198685E-1,-5.483552E-1,-1.5760938E-2,-5.2536458E-2,5.341684E-1,9.294237E-1,3.1823593E-1,-3.1478757E-1,-9.8847264E-1,-8.7528515E-1,-1.6450657E-1,-5.483552E-1,-9.013376E-2,-1.5760938E-2,2.4081598E-1,4.4006097E-1,1.6025053E-1,1.6025053E-1,9.95105E-1,-2.986406E-1,-2.6258555E-1,-2.6258555E-1,-2.1354607E-1,-1.6450657E-1,-1.2732017E-1,2.824193E-2,7.22448E-2,7.22448E-2,4.5042133E-1,2.2939104E-1,2.9853153E-1,1.036856E-1,1.3705711E-1],"categories":[],"categories_nodes":[],"categories_segments":[],"categories_sizes":[],"default_left":[0,0,0,0,0,0,0,0,0,0,0,0,0,0,0,0,0,0,0,0,0,0,0,0,0,0,0,0,0,0,0,0,0,0,0,0,0,0,0,0,0],"id":7,"left_children":[1,3,5,7,9,11,13,15,17,19,-1,21,23,25,-1,-1,27,29,-1,31,-1,-1,33,35,-1,-1,37,-1,-1,-1,-1,-1,-1,-1,-1,-1,39,-1,-1,-1,-1],"loss_changes":[7.592569E4,3.2235469E3,3.0093125E3,1.908125E2,6.754692E2,9.9758484E2,1.8695312E1,4.3125E0,1.6138812E2,1.2013013E2,0E0,5.8927574E1,2.7618408E0,8.955701E1,0E0,0E0,1.4987793E0,2.8125E-1,0E0,6.225586E-2,0E0,0E0,1.7997322E0,1.2787552E0,0E0,0E0,1.772461E-1,0E0,0E0,0E0,0E0,0E0,0E0,0E0,0E0,0E0,3.2839966E-1,0E0,0E0,0E0,0E0],"parents":[2147483647,0,0,1,1,2,2,3,3,4,4,5,5,6,6,7,7,8,8,9,9,11,11,12,12,13,13,16,16,17,17,19,19,22,22,23,23,26,26,36,36],"right_children":[2,4,6,8,10,12,14,16,18,20,-1,22,24,26,-1,-1,28,30,-1,32,-1,-1,34,36,-1,-1,38,-1,-1,-1,-1,-1,-1,-1,-1,-1,40,-1,-1,-1,-1],"split_conditions":[2.4804688E-1,1E0,6.000519E-3,1E0,6.000519E-3,1.8005371E-1,2.0008087E-3,2.999878E-2,4.0016174E-3,8.598633E-1,-1.5760938E-2,4.0016174E-3,4.0016174E-3,1E0,3.1823593E-1,-3.1478757E-1,4.0016174E-3,2.7999878E-2,-1.6450657E-1,2.6000977E-2,-9.013376E-2,-1.5760938E-2,9.7021484E-1,9.458008E-1,1.6025053E-1,1.6025053E-1,8.5009766E-1,-2.986406E-1,-2.6258555E-1,-2.6258555E-1,-2.1354607E-1,-1.6450657E-1,-1.2732017E-1,2.824193E-2,7.22448E-2,7.22448E-2,8.901367E-1,2.2939104E-1,2.9853153E-1,1.036856E-1,1.3705711E-1],"split_indices":[3,0,0,2,1,1,2,1,1,2,0,2,2,1,0,0,0,3,0,3,0,0,3,1,0,0,3,0,0,0,0,0,0,0,0,0,3,0,0,0,0],"split_type":[0,0,0,0,0,0,0,0,0,0,0,0,0,0,0,0,0,0,0,0,0,0,0,0,0,0,0,0,0,0,0,0,0,0,0,0,0,0,0,0,0],"sum_hessian":[1.542032E5,1.30131164E5,2.4072035E4,1.26927125E5,3.204046E3,3.2253079E3,2.0846727E4,1.2531027E5,1.6168468E3,1.6506742E3,1.5533717E3,1.9673268E3,1.257981E3,1.2182573E3,1.9628469E4,1.2383432E5,1.4759563E3,1.3241669E3,2.926798E2,1.3608444E3,2.8982983E2,1.3334309E3,6.338959E2,3.4307367E2,9.1490735E2,2.9856955E2,9.1968774E2,1.4658304E3,1.0125798E1,1.3199447E3,4.222206E0,1.3579497E3,2.89465E0,5.557201E0,6.283387E2,2.746844E0,3.4032684E2,7.197832E0,9.1248987E2,2.1589162E0,3.381679E2],"tree_param":{"num_deleted":"0","num_feature":"4","num_nodes":"41","size_leaf_vector":"0"}},{"base_weights":[-6.933263E-1,-9.935438E-1,8.913661E-1,-1.0233405E0,-5.108884E-2,4.7194723E-2,1.0376701E0,-1.0291742E0,-6.562566E-1,-5.3721464E-1,-1.5326653E-2,-5.108884E-2,5.424324E-1,9.273396E-1,3.1371635E-1,-3.091093E-1,-9.4335896E-1,-8.427154E-1,-1.611644E-1,-1.611644E-1,-8.824552E-2,-1.5326653E-2,1.8971546E-1,1.4392442E-1,1.6272974E-1,1.6272974E-1,9.865304E-1,-2.8410074E-1,-2.5281462E-1,-2.5281462E-1,-2.0698951E-1,5.6293473E-2,7.370154E-2,2.2934444E-1,2.9595914E-1],"categories":[],"categories_nodes":[],"categories_segments":[],"categories_sizes":[],"default_left":[0,0,0,0,0,0,0,0,0,0,0,0,0,0,0,0,0,0,0,0,0,0,0,0,0,0,0,0,0,0,0,0,0,0,0],"id":8,"left_children":[1,3,5,7,9,11,13,15,17,19,-1,21,23,25,-1,-1,27,29,-1,-1,-1,-1,31,-1,-1,-1,33,-1,-1,-1,-1,-1,-1,-1,-1],"loss_changes":[5.598712E4,2.947039E3,2.314918E3,2.0509375E2,4.3597595E2,7.9709344E2,1.3220703E1,8.703125E0,1.313175E2,1.23767395E2,0E0,3.6386383E1,8.52478E-1,6.2935852E1,0E0,0E0,2.2155762E-1,1.1748657E0,0E0,0E0,0E0,0E0,6.962204E-2,0E0,0E0,0E0,6.12854E-1,0E0,0E0,0E0,0E0,0E0,0E0,0E0,0E0],"parents":[2147483647,0,0,1,1,2,2,3,3,4,4,5,5,6,6,7,7,8,8,9,9,11,11,12,12,13,13,16,16,17,17,22,22,26,26],"right_children":[2,4,6,8,10,12,14,16,18,20,-1,22,24,26,-1,-1,28,30,-1,-1,-1,-1,32,-1,-1,-1,34,-1,-1,-1,-1,-1,-1,-1,-1],"split_conditions":[9.160156E-1,1E0,8.003235E-3,1E0,4.0016174E-3,8.9208984E-1,4.0016174E-3,1E0,2.6000977E-2,9.399414E-2,-1.5326653E-2,9.7021484E-1,4.0016174E-3,2.0008087E-3,3.1371635E-1,-3.091093E-1,4.0016174E-3,4.0016174E-3,-1.611644E-1,-1.611644E-1,-8.824552E-2,-1.5326653E-2,2.0008087E-3,1.4392442E-1,1.6272974E-1,1.6272974E-1,5.2001953E-1,-2.8410074E-1,-2.5281462E-1,-2.5281462E-1,-2.0698951E-1,5.6293473E-2,7.370154E-2,2.2934444E-1,2.9595914E-1],"split_indices":[2,1,1,0,0,0,0,3,3,3,0,3,3,3,0,0,2,1,0,0,0,0,0,0,0,0,1,0,0,0,0,0,0,0,0],"split_type":[0,0,0,0,0,0,0,0,0,0,0,0,0,0,0,0,0,0,0,0,0,0,0,0,0,0,0,0,0,0,0,0,0,0,0],"sum_hessian":[1.17678375E5,9.893556E4,1.8742814E4,9.6081914E4,2.8536477E3,2.7687139E3,1.5974101E4,9.457707E4,1.5048401E3,1.4300581E3,1.4235897E3,1.7201001E3,1.0486139E3,1.0942917E3,1.487981E4,9.327256E4,1.3045057E3,1.213595E3,2.9124518E2,1.0942571E3,3.3580096E2,1.0935598E3,6.265403E2,2.908148E2,7.57799E2,2.8054886E2,8.137429E2,1.30054E3,3.9656897E0,1.203365E3,1.0229904E1,6.211557E2,5.384576E0,9.087742E0,8.046552E2],"tree_param":{"num_deleted":"0","num_feature":"4","num_nodes":"35","size_leaf_vector":"0"}},{"base_weights":[-6.693339E-1,-9.676421E-1,8.451726E-1,-1.0043246E0,-6.1234772E-2,5.2271973E-2,1.0170028E0,-1.0123608E0,-5.5287564E-1,-5.327797E-1,-1.8370433E-2,-6.1234772E-2,5.346374E-1,8.693566E-1,3.089152E-1,-3.044507E-1,-2.5561103E-1,-7.826182E-1,-1.5983391E-1,-1.5983391E-1,-8.910217E-2,-1.8370433E-2,4.4904985E-2,3.3984238E-1,1.6039123E-1,1.6039123E-1,2.848611E-1,-2.3478548E-1,-1.973097E-1,7.1010396E-2,1.0540981E-1],"categories":[],"categories_nodes":[],"categories_segments":[],"categories_sizes":[],"default_left":[0,0,0,0,0,0,0,0,0,0,0,0,0,0,0,0,0,0,0,0,0,0,0,0,0,0,0,0,0,0,0],"id":9,"left_children":[1,3,5,7,9,11,13,15,17,19,-1,21,23,25,-1,-1,-1,27,-1,-1,-1,-1,-1,29,-1,-1,-1,-1,-1,-1,-1],"loss_changes":[4.058867E4,2.6825234E3,2.0141611E3,2.6190625E2,3.2120184E2,6.9564276E2,2.1913086E1,2.734375E1,8.5545074E1,1.3362906E2,0E0,2.8417465E1,1.061853E1,5.975403E1,0E0,0E0,0E0,1.7630615E0,0E0,0E0,0E0,0E0,0E0,6.216583E-1,0E0,0E0,0E0,0E0,0E0,0E0,0E0],"parents":[2147483647,0,0,1,1,2,2,3,3,4,4,5,5,6,6,7,7,8,8,9,9,11,11,12,12,13,13,17,17,23,23],"right_children":[2,4,6,8,10,12,14,16,18,20,-1,22,24,26,-1,-1,-1,28,-1,-1,-1,-1,-1,30,-1,-1,-1,-1,-1,-1,-1],"split_conditions":[1E0,1E0,1.3999939E-2,1E0,4.0016174E-3,6.402588E-2,8.001709E-2,1E0,1E0,4.0016174E-3,-1.8370433E-2,5.2001953E-1,6.000519E-3,2.0008087E-3,3.089152E-1,-3.044507E-1,-2.5561103E-1,4.0016174E-3,-1.5983391E-1,-1.5983391E-1,-8.910217E-2,-1.8370433E-2,4.4904985E-2,8.598633E-1,1.6039123E-1,1.6039123E-1,2.848611E-1,-2.3478548E-1,-1.973097E-1,7.1010396E-2,1.0540981E-1],"split_indices":[0,3,3,1,2,2,1,2,2,1,0,1,1,2,0,0,0,0,0,0,0,0,0,2,0,0,0,0,0,0,0],"split_type":[0,0,0,0,0,0,0,0,0,0,0,0,0,0,0,0,0,0,0,0,0,0,0,0,0,0,0,0,0,0,0],"sum_hessian":[8.983691E4,7.505407E4,1.4782838E4,7.234498E4,2.7090886E3,2.6332346E3,1.2149604E4,7.107847E4,1.2665076E3,1.3967184E3,1.3123702E3,1.6301755E3,1.0030591E3,9.6880084E2,1.1180802E4,6.9992695E4,1.0857732E3,9.7946576E2,2.8704175E2,1.051761E3,3.4495737E2,9.9230145E2,6.37874E2,2.8637238E2,7.166867E2,2.8666995E2,6.821309E2,9.704759E2,8.9899E0,3.315437E0,2.8305695E2],"tree_param":{"num_deleted":"0","num_feature":"4","num_nodes":"31","size_leaf_vector":"0"}},{"base_weights":[-6.4362663E-1,-9.4605327E-1,8.1669116E-1,-9.868411E-1,-6.468105E-2,7.88216E-2,1.0046037E0,-9.974518E-1,-5.2576107E-1,-5.169427E-1,-1.9404316E-2,-6.468105E-2,5.4171264E-1,8.564008E-1,3.0618453E-1,-1.001044E0,-2.416382E-1,-7.6160645E-1,-1.5772833E-1,-5.2576107E-1,-8.7243564E-2,-1.9404316E-2,1.07805885E-1,7.155474E-2,5.4171264E-1,1.6251379E-1,9.385079E-1,-3.003782E-1,-2.709757E-1,-2.2848195E-1,-1.9310515E-1,-1.5772833E-1,-1.2248594E-1,6.468725E-3,3.298084E-2,4.8374903E-1,1.6251379E-1,2.220331E-1,2.8155237E-1,1.1703427E-1,1.4775868E-1],"categories":[],"categories_nodes":[],"categories_segments":[],"categories_sizes":[],"default_left":[0,0,0,0,0,0,0,0,0,0,0,0,0,0,0,0,0,0,0,0,0,0,0,0,0,0,0,0,0,0,0,0,0,0,0,0,0,0,0,0,0],"id":10,"left_children":[1,3,5,7,9,11,13,15,17,19,-1,21,23,25,-1,27,-1,29,-1,31,-1,-1,33,-1,35,-1,37,-1,-1,-1,-1,-1,-1,-1,-1,39,-1,-1,-1,-1,-1],"loss_changes":[3.0370271E4,2.2129023E3,1.6358179E3,2.6984766E2,2.3548477E2,5.823829E2,2.1441406E1,3.6039062E1,6.2957794E1,8.74812E1,0E0,1.9253487E1,2.8060913E0,5.1368896E1,0E0,2.6953125E-1,0E0,6.090088E-1,0E0,4.088745E-1,0E0,0E0,2.1944427E-1,0E0,8.7231445E-1,0E0,8.078003E-1,0E0,0E0,0E0,0E0,0E0,0E0,0E0,0E0,3.9662933E-1,0E0,0E0,0E0,0E0,0E0],"parents":[2147483647,0,0,1,1,2,2,3,3,4,4,5,5,6,6,7,7,8,8,9,9,11,11,12,12,13,13,15,15,17,17,19,19,22,22,24,24,26,26,35,35],"right_children":[2,4,6,8,10,12,14,16,18,20,-1,22,24,26,-1,28,-1,30,-1,32,-1,-1,34,-1,36,-1,38,-1,-1,-1,-1,-1,-1,-1,-1,40,-1,-1,-1,-1,-1],"split_conditions":[1.8603516E-1,9.5214844E-1,1.0002136E-2,1E0,4.0016174E-3,1.2001038E-2,2.0008087E-3,1E0,6.000519E-3,8.798828E-1,-1.9404316E-2,4.0016174E-3,1E0,4.0016174E-3,3.0618453E-1,2.0008087E-3,-2.416382E-1,4.0016174E-3,-1.5772833E-1,4.0016174E-3,-8.7243564E-2,-1.9404316E-2,5.2001953E-1,7.155474E-2,4.0016174E-3,1.6251379E-1,6.1816406E-1,-3.003782E-1,-2.709757E-1,-2.2848195E-1,-1.9310515E-1,-1.5772833E-1,-1.2248594E-1,6.468725E-3,3.298084E-2,8.901367E-1,1.6251379E-1,2.220331E-1,2.8155237E-1,1.1703427E-1,1.4775868E-1],"split_indices":[1,2,2,3,3,3,3,0,0,0,0,0,1,0,0,2,0,2,0,1,0,0,1,0,0,0,1,0,0,0,0,0,0,0,0,3,0,0,0,0,0],"split_type":[0,0,0,0,0,0,0,0,0,0,0,0,0,0,0,0,0,0,0,0,0,0,0,0,0,0,0,0,0,0,0,0,0,0,0,0,0,0,0,0,0],"sum_hessian":[6.876442E4,5.6967094E4,1.1797331E4,5.464131E4,2.3257822E3,2.3948762E3,9.402455E3,5.3424684E4,1.2166252E3,1.1503069E3,1.1754753E3,1.4587981E3,9.3607825E2,9.220786E2,8.480376E3,5.24393E4,9.8538306E2,9.270912E2,2.8953403E2,8.7223486E2,2.7807202E2,8.125194E2,6.462787E2,5.306351E0,9.307719E2,2.8095334E2,6.411253E2,5.232069E4,1.1860938E2,9.2374994E2,3.3412867E0,8.6860333E2,3.6315057E0,2.671341E0,6.4360736E2,3.459791E2,5.847928E2,3.259142E0,6.3786615E2,4.6175003E0,3.413616E2],"tree_param":{"num_deleted":"0","num_feature":"4","num_nodes":"41","size_leaf_vector":"0"}},{"base_weights":[-6.161434E-1,-9.1581184E-1,7.703486E-1,-9.6793395E-1,-7.2731614E-2,8.24806E-2,9.8465514E-1,-9.8275286E-1,-5.203328E-1,-4.4345298E-1,-2.1819485E-2,-7.2731614E-2,5.3356785E-1,7.76057E-1,3.03142E-1,-9.8761976E-1,-2.2546285E-1,-7.072076E-1,-1.5609986E-1,-1.5609986E-1,-7.7427685E-2,-2.1819485E-2,5.1423885E-2,3.517107E-1,1.6007036E-1,1.6007036E-1,2.6797956E-1,-2.963714E-1,-2.608744E-1,-2.1308741E-1,-1.8413109E-1,6.9125436E-2,1.08099446E-1],"categories":[],"categories_nodes":[],"categories_segments":[],"categories_sizes":[],"default_left":[0,0,0,0,0,0,0,0,0,0,0,0,0,0,0,0,0,0,0,0,0,0,0,0,0,0,0,0,0,0,0,0,0],"id":11,"left_children":[1,3,5,7,9,11,13,15,17,19,-1,21,23,25,-1,27,-1,29,-1,-1,-1,-1,-1,31,-1,-1,-1,-1,-1,-1,-1,-1,-1],"loss_changes":[2.1949459E4,2.122664E3,1.3839922E3,3.2808984E2,1.4980348E2,4.6011133E2,3.777002E1,4.6109375E1,2.661612E1,1.0284273E2,0E0,3.7223843E1,1.0779053E1,4.369095E1,0E0,5.9765625E-1,0E0,3.0822754E-3,0E0,0E0,0E0,0E0,0E0,5.809288E-1,0E0,0E0,0E0,0E0,0E0,0E0,0E0,0E0,0E0],"parents":[2147483647,0,0,1,1,2,2,3,3,4,4,5,5,6,6,7,7,8,8,9,9,11,11,12,12,13,13,15,15,17,17,23,23],"right_children":[2,4,6,8,10,12,14,16,18,20,-1,22,24,26,-1,28,-1,30,-1,-1,-1,-1,-1,32,-1,-1,-1,-1,-1,-1,-1,-1,-1],"split_conditions":[1E0,1E0,4.0016174E-3,1E0,6.000519E-3,4.0016174E-3,2.0008087E-3,1E0,4.0016174E-3,1.3999939E-2,-2.1819485E-2,4.0016174E-3,4.0016174E-3,5.6591797E-1,3.03142E-1,2.0008087E-3,-2.2546285E-1,2.7999878E-2,-1.5609986E-1,-1.5609986E-1,-7.7427685E-2,-2.1819485E-2,5.1423885E-2,9.458008E-1,1.6007036E-1,1.6007036E-1,2.6797956E-1,-2.963714E-1,-2.608744E-1,-2.1308741E-1,-1.8413109E-1,6.9125436E-2,1.08099446E-1],"split_indices":[3,0,0,2,1,1,2,1,1,2,0,2,2,1,0,2,0,3,0,0,0,0,0,1,0,0,0,0,0,0,0,0,0],"split_type":[0,0,0,0,0,0,0,0,0,0,0,0,0,0,0,0,0,0,0,0,0,0,0,0,0,0,0,0,0,0,0,0,0],"sum_hessian":[5.2825457E4,4.343747E4,9.387986E3,4.1175168E4,2.2623044E3,2.2303926E3,7.1575933E3,4.0113914E4,1.061253E3,1.0890387E3,1.1732657E3,1.3876915E3,8.427009E2,7.9174536E2,6.365848E3,3.9314418E4,7.994947E2,7.6890656E2,2.9234647E2,7.983913E2,2.9064743E2,7.641106E2,6.23581E2,3.3353488E2,5.0916605E2,2.9114948E2,5.005959E2,3.922226E4,9.215682E1,7.612713E2,7.635241E0,5.3586006E0,3.2817627E2],"tree_param":{"num_deleted":"0","num_feature":"4","num_nodes":"33","size_leaf_vector":"0"}},{"base_weights":[-5.8434266E-1,-8.866829E-1,7.410398E-1,-9.472299E-1,-7.282156E-2,9.495432E-2,9.753466E-1,-9.6619844E-1,-5.1002574E-1,-3.5557193E-1,-2.1846468E-2,-7.282156E-2,5.3515047E-1,7.8110015E-1,3.0116066E-1,-9.736702E-1,-2.2143364E-1,-6.505096E-1,-1.5300773E-1,-1.5300773E-1,-6.425902E-2,-2.1846468E-2,1.20268404E-1,3.926213E-1,1.6054514E-1,1.6054514E-1,2.6774535E-1,-2.9220977E-1,-2.5676733E-1,-1.9771715E-1,-1.7408031E-1,3.558144E-2,6.875828E-2,6.934934E-2,1.2092317E-1],"categories":[],"categories_nodes":[],"categories_segments":[],"categories_sizes":[],"default_left":[0,0,0,0,0,0,0,0,0,0,0,0,0,0,0,0,0,0,0,0,0,0,0,0,0,0,0,0,0,0,0,0,0,0,0],"id":12,"left_children":[1,3,5,7,9,11,13,15,17,19,-1,21,23,25,-1,27,-1,29,-1,-1,-1,-1,31,33,-1,-1,-1,-1,-1,-1,-1,-1,-1,-1,-1],"loss_changes":[1.6366876E4,1.8513105E3,1.1484131E3,3.2322656E2,7.7800385E1,3.7335535E2,3.0060059E1,5.835547E1,1.366156E1,9.764916E1,0E0,2.3631088E1,5.7216187E0,3.4532288E1,0E0,9.5703125E-1,0E0,5.1278687E-1,0E0,0E0,0E0,0E0,8.7696075E-2,9.205704E-1,0E0,0E0,0E0,0E0,0E0,0E0,0E0,0E0,0E0,0E0,0E0],"parents":[2147483647,0,0,1,1,2,2,3,3,4,4,5,5,6,6,7,7,8,8,9,9,11,11,12,12,13,13,15,15,17,17,22,22,23,23],"right_children":[2,4,6,8,10,12,14,16,18,20,-1,22,24,26,-1,28,-1,30,-1,-1,-1,-1,32,34,-1,-1,-1,-1,-1,-1,-1,-1,-1,-1,-1],"split_conditions":[1.8798828E-1,1E0,7.2216797E-1,1E0,4.0016174E-3,8.9208984E-1,4.0016174E-3,2.0008087E-3,2.6000977E-2,1.2001038E-2,-2.1846468E-2,9.7021484E-1,4.0016174E-3,2.0008087E-3,3.0116066E-1,2.0008087E-3,-2.2143364E-1,4.0016174E-3,-1.5300773E-1,-1.5300773E-1,-6.425902E-2,-2.1846468E-2,2.0008087E-3,8.598633E-1,1.6054514E-1,1.6054514E-1,2.6774535E-1,-2.9220977E-1,-2.5676733E-1,-1.9771715E-1,-1.7408031E-1,3.558144E-2,6.875828E-2,6.934934E-2,1.2092317E-1],"split_indices":[2,1,1,0,0,0,0,3,3,3,0,3,3,3,0,2,0,1,0,0,0,0,1,2,0,0,0,0,0,0,0,0,0,0,0],"split_type":[0,0,0,0,0,0,0,0,0,0,0,0,0,0,0,0,0,0,0,0,0,0,0,0,0,0,0,0,0,0,0,0,0,0,0],"sum_hessian":[4.0841395E4,3.3255605E4,7.585787E3,3.1230777E4,2.024829E3,2.0192488E3,5.566538E3,3.024196E4,9.888163E2,9.7220636E2,1.0526227E3,1.2901888E3,7.290599E2,7.163456E2,4.850193E3,2.9415361E4,8.266006E2,7.044055E2,2.8441074E2,6.478904E2,3.2431598E2,6.5722906E2,6.329598E2,2.9474936E2,4.3431055E2,2.7665768E2,4.396879E2,2.9356254E4,5.9107296E1,6.9650507E2,7.9004827E0,6.2549554E2,7.46425E0,1.9247441E0,2.9282462E2],"tree_param":{"num_deleted":"0","num_feature":"4","num_nodes":"35","size_leaf_vector":"0"}},{"base_weights":[-5.4806596E-1,-8.4806037E-1,6.8407804E-1,-9.223943E-1,-8.1991166E-2,9.260007E-2,9.469851E-1,-9.475847E-1,-5.0219274E-1,-2.555951E-1,-2.459735E-2,-8.1991166E-2,5.197926E-1,7.033063E-1,9.922912E-1,-9.5776296E-1,-2.1746661E-1,-5.9052986E-1,-1.5065783E-1,-5.0219274E-1,-5.063794E-2,-2.459735E-2,3.5617944E-2,2.8194875E-1,5.197926E-1,1.5593779E-1,2.5433964E-1,2.7342504E-1,3.0080006E-1,-2.8744292E-1,-2.5239775E-1,-6.0357785E-1,-1.639084E-1,-1.5065783E-1,-1.0064789E-1,6.567022E-2,2.8978845E-1,1.2026121E-1,1.5593779E-1,-2.1746661E-1,-1.7902546E-1,7.630338E-2,8.884636E-2],"categories":[],"categories_nodes":[],"categories_segments":[],"categories_sizes":[],"default_left":[0,0,0,0,0,0,0,0,0,0,0,0,0,0,0,0,0,0,0,0,0,0,0,0,0,0,0,0,0,0,0,0,0,0,0,0,0,0,0,0,0,0,0],"id":13,"left_children":[1,3,5,7,9,11,13,15,17,19,-1,21,23,25,27,29,-1,31,-1,33,-1,-1,-1,35,37,-1,-1,-1,-1,-1,-1,39,-1,-1,-1,-1,41,-1,-1,-1,-1,-1,-1],"loss_changes":[1.1762706E4,1.6873809E3,9.688716E2,3.392168E2,3.763958E1,2.9320663E2,4.692505E1,6.789453E1,4.442795E0,9.9141304E1,0E0,2.5943802E1,1.6226288E1,3.2637024E1,2.1359863E0,5.917969E-1,0E0,4.79187E-1,0E0,5.0276184E-1,0E0,0E0,0E0,2.3653221E-1,2.5787354E-2,0E0,0E0,0E0,0E0,0E0,0E0,1.3212585E-1,0E0,0E0,0E0,0E0,7.435417E-2,0E0,0E0,0E0,0E0,0E0,0E0],"parents":[2147483647,0,0,1,1,2,2,3,3,4,4,5,5,6,6,7,7,8,8,9,9,11,11,12,12,13,13,14,14,15,15,17,17,19,19,23,23,24,24,31,31,36,36],"right_children":[2,4,6,8,10,12,14,16,18,20,-1,22,24,26,28,30,-1,32,-1,34,-1,-1,-1,36,38,-1,-1,-1,-1,-1,-1,40,-1,-1,-1,-1,42,-1,-1,-1,-1,-1,-1],"split_conditions":[2.619629E-1,1E0,1.3999939E-2,3.201294E-2,4.0016174E-3,1.3999939E-2,1E0,2.0008087E-3,1E0,4.0016174E-3,-2.459735E-2,4.0016174E-3,6.1816406E-1,2.0008087E-3,8.901367E-1,2.0008087E-3,-2.1746661E-1,4.0016174E-3,-1.5065783E-1,6.000519E-3,-5.063794E-2,-2.459735E-2,3.5617944E-2,8.598633E-1,8.0810547E-1,1.5593779E-1,2.5433964E-1,2.7342504E-1,3.0080006E-1,-2.8744292E-1,-2.5239775E-1,1E0,-1.639084E-1,-1.5065783E-1,-1.0064789E-1,6.567022E-2,8.798828E-1,1.2026121E-1,1.5593779E-1,-2.1746661E-1,-1.7902546E-1,7.630338E-2,8.884636E-2],"split_indices":[0,3,3,1,1,2,1,2,2,2,0,1,1,2,2,3,0,0,0,0,0,0,0,2,0,0,0,0,0,0,0,1,0,0,0,0,0,0,0,0,0,0,0],"split_type":[0,0,0,0,0,0,0,0,0,0,0,0,0,0,0,0,0,0,0,0,0,0,0,0,0,0,0,0,0,0,0,0,0,0,0,0,0,0,0,0,0,0,0],"sum_hessian":[3.1819799E4,2.5589697E4,6.230102E3,2.365203E4,1.9376681E3,1.9175116E3,4.3125903E3,2.2763422E4,8.886077E2,1.2481176E3,6.895505E2,1.2328218E3,6.846899E2,6.7870404E2,3.6338862E3,2.207856E4,6.848603E2,6.006557E2,2.87952E2,6.246228E2,6.2349475E2,5.8968933E2,6.4313245E2,2.906138E2,3.9407608E2,2.9307648E2,3.856276E2,4.2329443E2,3.2105918E3,2.203042E4,4.814174E1,5.950869E2,5.5687747E0,6.216084E2,3.0143743E0,4.3285885E0,2.8628522E2,1.3890946E0,3.9268698E2,2.1769997E1,5.7331696E2,1.2809441E0,2.8500427E2],"tree_param":{"num_deleted":"0","num_feature":"4","num_nodes":"43","size_leaf_vector":"0"}},{"base_weights":[-5.055216E-1,-8.0948716E-1,6.463611E-1,-8.952967E-1,-8.1563026E-2,1.05363995E-1,9.3284863E-1,-9.2576647E-1,-4.8842984E-1,-2.4027967E-1,-2.4468908E-2,-8.1563026E-2,5.191063E-1,7.025604E-1,9.8567754E-1,-9.388774E-1,-2.1212944E-1,-1.9982211E-1,-1.4652896E-1,-1.4652896E-1,-4.8276406E-2,-2.4468908E-2,2.7308134E-2,3.3707058E-1,5.191063E-1,1.557319E-1,8.4411895E-1,2.729242E-1,2.991811E-1,-2.818146E-1,-2.4689634E-1,6.56315E-2,3.4315646E-1,1.2842654E-1,1.557319E-1,2.0448379E-1,2.532357E-1,8.4289216E-2,1.04050435E-1],"categories":[],"categories_nodes":[],"categories_segments":[],"categories_sizes":[],"default_left":[0,0,0,0,0,0,0,0,0,0,0,0,0,0,0,0,0,0,0,0,0,0,0,0,0,0,0,0,0,0,0,0,0,0,0,0,0,0,0],"id":14,"left_children":[1,3,5,7,9,11,13,15,17,19,-1,21,23,25,27,29,-1,-1,-1,-1,-1,-1,-1,31,33,-1,35,-1,-1,-1,-1,-1,37,-1,-1,-1,-1,-1,-1],"loss_changes":[8.768584E3,1.4664814E3,8.1035156E2,3.0276074E2,2.0742924E1,2.3353412E2,4.089746E1,6.821582E1,1.4363098E0,6.587836E1,0E0,1.9260658E1,1.0978104E1,2.4160522E1,1.5383301E0,7.6660156E-1,0E0,0E0,0E0,0E0,0E0,0E0,0E0,3.8565826E-1,3.33786E-1,0E0,3.873291E-1,0E0,0E0,0E0,0E0,0E0,6.198883E-2,0E0,0E0,0E0,0E0,0E0,0E0],"parents":[2147483647,0,0,1,1,2,2,3,3,4,4,5,5,6,6,7,7,8,8,9,9,11,11,12,12,13,13,14,14,15,15,23,23,24,24,26,26,32,32],"right_children":[2,4,6,8,10,12,14,16,18,20,-1,22,24,26,28,30,-1,-1,-1,-1,-1,-1,-1,32,34,-1,36,-1,-1,-1,-1,-1,38,-1,-1,-1,-1,-1,-1],"split_conditions":[2.2003174E-2,1E0,1.0002136E-2,2.0008087E-3,4.0016174E-3,1.2001038E-2,1.3999939E-2,2.0008087E-3,1E0,1E0,-2.4468908E-2,4.0016174E-3,5.498047E-1,4.0016174E-3,1E0,2.0008087E-3,-2.1212944E-1,-1.9982211E-1,-1.4652896E-1,-1.4652896E-1,-4.8276406E-2,-2.4468908E-2,2.7308134E-2,9.458008E-1,1E0,1.557319E-1,6.1816406E-1,2.729242E-1,2.991811E-1,-2.818146E-1,-2.4689634E-1,6.56315E-2,8.901367E-1,1.2842654E-1,1.557319E-1,2.0448379E-1,2.532357E-1,8.4289216E-2,1.04050435E-1],"split_indices":[1,3,2,2,2,3,3,0,2,0,0,0,0,0,0,3,0,0,0,0,0,0,0,1,1,0,1,0,0,0,0,0,3,0,0,0,0,0,0],"split_type":[0,0,0,0,0,0,0,0,0,0,0,0,0,0,0,0,0,0,0,0,0,0,0,0,0,0,0,0,0,0,0,0,0,0,0,0,0,0,0],"sum_hessian":[2.5041107E4,1.9813027E4,5.228081E3,1.8069217E4,1.7438109E3,1.8105134E3,3.4175676E3,1.7223176E4,8.460406E2,8.2269086E2,9.2112006E2,1.1473755E3,6.631379E2,6.403772E2,2.7771904E3,1.660882E4,6.143558E2,5.207402E1,7.9396655E2,5.531528E2,2.695381E2,5.0154684E2,6.458286E2,3.384264E2,3.2471152E2,2.8287537E2,3.575018E2,3.783769E2,2.3988137E3,1.657151E4,3.7309452E1,4.3818097E0,3.340446E2,4.3225164E0,3.2038898E2,4.759654E0,3.5274216E2,3.8951874E0,3.3014938E2],"tree_param":{"num_deleted":"0","num_feature":"4","num_nodes":"39","size_leaf_vector":"0"}},{"base_weights":[-4.586508E-1,-7.5080556E-1,6.0868424E-1,-8.557329E-1,-7.106066E-2,1.6098173E-1,8.9743125E-1,-8.996902E-1,-1.3901904E-1,-1.6444694E-1,-7.106066E-2,-7.106066E-2,5.292065E-1,5.97511E-1,9.7709566E-1,-9.153579E-1,-2.0446305E-1,-4.5936814E-1,-3.5326142E-2,-1.177538E-1,-2.1318197E-2,-2.1318197E-2,1.552008E-1,1.023097E-1,1.5876196E-1,1.5876196E-1,2.36191E-1,2.6120025E-1,2.9812098E-1,-2.7485818E-1,-2.3953523E-1,-1.3858853E-1,-8.656829E-2,-3.5326142E-2,-2.832217E-2,1.5361491E-1,6.872188E-2,2.5403477E-2,4.620672E-2],"categories":[],"categories_nodes":[],"categories_segments":[],"categories_sizes":[],"default_left":[0,0,0,0,0,0,0,0,0,0,0,0,0,0,0,0,0,0,0,0,0,0,0,0,0,0,0,0,0,0,0,0,0,0,0,0,0,0,0],"id":15,"left_children":[1,3,5,7,9,11,13,15,-1,17,19,21,23,25,27,29,-1,31,-1,33,-1,-1,35,-1,-1,-1,-1,-1,-1,-1,-1,-1,-1,-1,-1,37,-1,-1,-1],"loss_changes":[6.2190537E3,1.3345518E3,5.539437E2,3.4706348E2,1.0070406E1,1.7831113E2,6.1667725E1,6.447266E1,0E0,5.6680275E1,4.84581E-2,3.2627174E1,9.938812E0,2.1820755E1,2.777954E0,1.2998047E0,0E0,2.509613E-1,0E0,5.710593E-2,0E0,0E0,9.213257E-2,0E0,0E0,0E0,0E0,0E0,0E0,0E0,0E0,0E0,0E0,0E0,0E0,4.8322678E-3,0E0,0E0,0E0],"parents":[2147483647,0,0,1,1,2,2,3,3,4,4,5,5,6,6,7,7,9,9,10,10,11,11,12,12,13,13,14,14,15,15,17,17,19,19,22,22,35,35],"right_children":[2,4,6,8,10,12,14,16,-1,18,20,22,24,26,28,30,-1,32,-1,34,-1,-1,36,-1,-1,-1,-1,-1,-1,-1,-1,-1,-1,-1,-1,38,-1,-1,-1],"split_conditions":[1E0,2.0008087E-3,1E0,2.0008087E-3,2.6000977E-2,8.9208984E-1,1.3999939E-2,2.0008087E-3,-1.3901904E-1,4.0016174E-3,1E0,2.7999878E-2,4.0016174E-3,4.0016174E-3,1E0,2.0008087E-3,-2.0446305E-1,1.3999939E-2,-3.5326142E-2,2.0008087E-3,-2.1318197E-2,-2.1318197E-2,5.2001953E-1,1.023097E-1,1.5876196E-1,1.5876196E-1,2.36191E-1,2.6120025E-1,2.9812098E-1,-2.7485818E-1,-2.3953523E-1,-1.3858853E-1,-8.656829E-2,-3.5326142E-2,-2.832217E-2,9.7021484E-1,6.872188E-2,2.5403477E-2,4.620672E-2],"split_indices":[2,0,1,3,3,0,3,1,0,1,0,3,3,0,0,2,0,2,0,1,0,0,1,0,0,0,0,0,0,0,0,0,0,0,0,3,0,0,0],"split_type":[0,0,0,0,0,0,0,0,0,0,0,0,0,0,0,0,0,0,0,0,0,0,0,0,0,0,0,0,0,0,0,0,0,0,0,0,0,0,0],"sum_hessian":[1.9941457E4,1.5656265E4,4.285192E3,1.3916326E4,1.739939E3,1.6807479E3,2.604444E3,1.3077616E4,8.3870917E2,1.1543098E3,5.856291E2,1.0894208E3,5.913271E2,5.4838544E2,2.0560588E3,1.2571376E4,5.062404E2,5.0639343E2,6.4791644E2,1.1659925E1,5.739692E2,4.530011E2,6.3641974E2,2.8759097E2,3.037361E2,2.6927783E2,2.7910764E2,2.852205E2,1.7708383E3,1.2533184E4,3.819241E1,5.024447E2,3.9487264E0,7.4985275E0,4.1613975E0,6.3530475E2,1.1149492E0,4.9602027E0,6.3034454E2],"tree_param":{"num_deleted":"0","num_feature":"4","num_nodes":"39","size_leaf_vector":"0"}},{"base_weights":[-4.0507045E-1,-7.0174736E-1,5.4820764E-1,-8.199573E-1,-7.676986E-2,1.3360548E-1,8.670759E-1,-8.6608684E-1,-4.483636E-1,-1.371157E-1,-2.303096E-2,-7.676986E-2,5.003407E-1,5.9557694E-1,9.601732E-1,-2.6609614E-1,-1.9716759E-1,-1.665653E-1,-1.3450909E-1,-3.7621203E-1,-1.0694278E-1,-7.676986E-2,1.125596E-1,3.7258682E-1,1.5010221E-1,1.5010221E-1,2.3336253E-1,2.4948983E-1,2.9634464E-1,-1.3450909E-1,-1.0709738E-1,-7.247322E-2,-3.2082837E-2,-2.303096E-2,5.368462E-3,1.7894872E-2,3.431147E-2,6.353563E-2,1.1306179E-1,5.368462E-3,1.2577116E-2],"categories":[],"categories_nodes":[],"categories_segments":[],"categories_sizes":[],"default_left":[0,0,0,0,0,0,0,0,0,0,0,0,0,0,0,0,0,0,0,0,0,0,0,0,0,0,0,0,0,0,0,0,0,0,0,0,0,0,0,0,0],"id":16,"left_children":[1,3,5,7,9,11,13,15,17,19,-1,21,23,25,27,-1,-1,-1,-1,29,31,33,35,37,-1,-1,-1,-1,-1,-1,-1,-1,-1,-1,-1,39,-1,-1,-1,-1,-1],"loss_changes":[4.56086E3,1.1042476E3,5.0594495E2,2.6131396E2,2.6270866E0,1.516601E2,5.4114014E1,6.892236E1,1.9525146E-1,3.14184E1,0E0,2.2897083E1,5.272064E0,2.2178574E1,4.897461E0,0E0,0E0,0E0,0E0,9.646721E-1,3.2887268E-1,6.90155E-2,1.6620445E-1,3.190155E-1,0E0,0E0,0E0,0E0,0E0,0E0,0E0,0E0,0E0,0E0,0E0,2.7208515E-3,0E0,0E0,0E0,0E0,0E0],"parents":[2147483647,0,0,1,1,2,2,3,3,4,4,5,5,6,6,7,7,8,8,9,9,11,11,12,12,13,13,14,14,19,19,20,20,21,21,22,22,23,23,35,35],"right_children":[2,4,6,8,10,12,14,16,18,20,-1,22,24,26,28,-1,-1,-1,-1,30,32,34,36,38,-1,-1,-1,-1,-1,-1,-1,-1,-1,-1,-1,40,-1,-1,-1,-1,-1],"split_conditions":[2.0008087E-3,2.0008087E-3,1E0,2.0008087E-3,6.000519E-3,9.458008E-1,1E0,2.0008087E-3,1E0,1.3999939E-2,-2.303096E-2,4.0016174E-3,4.0016174E-3,2.0008087E-3,8.901367E-1,-2.6609614E-1,-1.9716759E-1,-1.665653E-1,-1.3450909E-1,1E0,8.798828E-1,4.0016174E-3,9.7021484E-1,8.901367E-1,1.5010221E-1,1.5010221E-1,2.3336253E-1,2.4948983E-1,2.9634464E-1,-1.3450909E-1,-1.0709738E-1,-7.247322E-2,-3.2082837E-2,-2.303096E-2,5.368462E-3,8.8012695E-2,3.431147E-2,6.353563E-2,1.1306179E-1,5.368462E-3,1.2577116E-2],"split_indices":[3,0,0,2,1,1,1,1,2,2,0,2,2,2,2,0,0,0,0,0,0,1,3,3,0,0,0,0,0,0,0,0,0,0,0,3,0,0,0,0,0],"split_type":[0,0,0,0,0,0,0,0,0,0,0,0,0,0,0,0,0,0,0,0,0,0,0,0,0,0,0,0,0,0,0,0,0,0,0,0,0,0,0,0,0],"sum_hessian":[1.6124258E4,1.2297365E4,3.8268928E3,1.0695475E4,1.60189E3,1.6643167E3,2.1625762E3,9.962189E3,7.332856E2,7.220249E2,8.798651E2,1.0969583E3,5.6735846E2,5.540887E2,1.6084874E3,9.545793E3,4.163965E2,3.370793E1,6.9957764E2,4.4155795E2,2.8046692E2,4.59025E2,6.379332E2,3.373604E2,2.2999803E2,2.83107E2,2.709817E2,2.9018207E2,1.3183053E3,2.6983923E1,4.1457404E2,2.7016246E0,2.777653E2,4.5434515E2,4.6798363E0,5.883603E0,6.320497E2,3.988868E0,3.3337155E2,1.6166233E0,4.2669797E0],"tree_param":{"num_deleted":"0","num_feature":"4","num_nodes":"41","size_leaf_vector":"0"}},{"base_weights":[-3.5000652E-1,-6.2681717E-1,5.1644915E-1,-7.611202E-1,-5.5184007E-2,1.7742312E-1,8.2665014E-1,-8.2102025E-1,-4.081521E-1,-7.902403E-2,-1.6555203E-2,1.29108E-3,4.825333E-1,5.367272E-1,9.5161724E-1,-8.497023E-1,-1.8437585E-1,-5.3735495E-1,-1.22445635E-1,-3.2028574E-1,-2.0131206E-2,-1.6555203E-2,1.2245102E-1,2.8032145E-1,1.50611E-1,1.50611E-1,2.2325167E-1,2.3698013E-1,2.9468927E-1,-2.551875E-1,-2.1964328E-1,-1.8155879E-1,-1.4182606E-1,-1.22445635E-1,-3.1063542E-1,3.597048E-2,7.257366E-2,2.7173075E-1,1.17353715E-1,-9.4366975E-2,-5.8108464E-2,7.257366E-2,8.245592E-2],"categories":[],"categories_nodes":[],"categories_segments":[],"categories_sizes":[],"default_left":[0,0,0,0,0,0,0,0,0,0,0,0,0,0,0,0,0,0,0,0,0,0,0,0,0,0,0,0,0,0,0,0,0,0,0,0,0,0,0,0,0,0,0],"id":17,"left_children":[1,3,5,7,9,11,13,15,17,19,-1,21,23,25,27,29,-1,31,-1,33,-1,-1,35,37,-1,-1,-1,-1,-1,-1,-1,-1,-1,-1,39,-1,-1,41,-1,-1,-1,-1,-1],"loss_changes":[3.176959E3,9.453137E2,3.371593E2,2.719536E2,5.9679985E-1,8.242268E1,6.0161743E1,7.387988E1,3.657608E-1,2.6752945E1,0E0,1.7225151E1,1.5786591E1,1.6534119E1,5.022461E0,7.7246094E-1,0E0,8.174801E-2,0E0,3.3728027E-1,0E0,0E0,3.0041313E-1,4.383011E-1,0E0,0E0,0E0,0E0,0E0,0E0,0E0,0E0,0E0,0E0,2.5744247E-1,0E0,0E0,1.1520386E-3,0E0,0E0,0E0,0E0,0E0],"parents":[2147483647,0,0,1,1,2,2,3,3,4,4,5,5,6,6,7,7,8,8,9,9,11,11,12,12,13,13,14,14,15,15,17,17,19,19,22,22,23,23,34,34,37,37],"right_children":[2,4,6,8,10,12,14,16,18,20,-1,22,24,26,28,30,-1,32,-1,34,-1,-1,36,38,-1,-1,-1,-1,-1,-1,-1,-1,-1,-1,40,-1,-1,42,-1,-1,-1,-1,-1],"split_conditions":[1E0,2.0008087E-3,1E0,2.0008087E-3,8.9208984E-1,1.2001038E-2,1E0,2.0008087E-3,1E0,2.7999878E-2,-1.6555203E-2,4.0016174E-3,5.498047E-1,4.0016174E-3,1E0,2.0008087E-3,-1.8437585E-1,7.7783203E-1,-1.22445635E-1,1E0,-2.0131206E-2,-1.6555203E-2,2.0008087E-3,4.0016174E-3,1.50611E-1,1.50611E-1,2.2325167E-1,2.3698013E-1,2.9468927E-1,-2.551875E-1,-2.1964328E-1,-1.8155879E-1,-1.4182606E-1,-1.22445635E-1,4.0016174E-3,3.597048E-2,7.257366E-2,8.901367E-1,1.17353715E-1,-9.4366975E-2,-5.8108464E-2,7.257366E-2,8.245592E-2],"split_indices":[1,2,2,0,0,3,3,3,0,3,0,0,0,0,0,1,0,3,0,2,0,0,2,2,0,0,0,0,0,0,0,0,0,0,1,0,0,3,0,0,0,0,0],"split_type":[0,0,0,0,0,0,0,0,0,0,0,0,0,0,0,0,0,0,0,0,0,0,0,0,0,0,0,0,0,0,0,0,0,0,0,0,0,0,0,0,0,0,0],"sum_hessian":[1.3243583E4,1.0037222E4,3.2063613E3,8.47795E3,1.5592714E3,1.532752E3,1.6736093E3,7.792512E3,6.854383E2,1.0544152E3,5.0485617E2,9.724098E2,5.603422E2,5.0569492E2,1.1679143E3,7.3503223E3,4.421898E2,3.0889534E1,6.545487E2,4.1876593E2,6.356493E2,3.2903214E2,6.433776E2,3.2961224E2,2.3072995E2,2.7139807E2,2.3429684E2,1.9053801E2,9.7737634E2,7.329527E3,2.0795624E1,2.3988983E1,6.9005504E0,2.598443E1,3.927815E2,6.408417E2,2.5359464E0,3.2521133E2,4.4009266E0,3.8783734E2,4.944155E0,3.9136407E0,3.212977E2],"tree_param":{"num_deleted":"0","num_feature":"4","num_nodes":"43","size_leaf_vector":"0"}},{"base_weights":[-2.9046497E-1,-5.587705E-1,4.5327416E-1,-7.061579E-1,-5.274816E-2,1.3509068E-1,7.844832E-1,-7.734318E-1,-1.13835916E-1,-2.609546E-1,-1.5824448E-2,-1.6805684E-2,4.505029E-1,5.121874E-1,9.2318624E-1,-2.4176013E-1,-1.7293273E-1,-3.7478176E-1,-4.7055416E-2,-1.5824448E-2,8.8712044E-2,2.8227258E-1,1.3793609E-1,4.5978695E-1,7.1768683E-1,2.2405581E-1,2.9173404E-1,-1.13835916E-1,-7.974497E-2,2.6352432E-2,4.691461E-2,6.505459E-2,2.8963724E-1,1.3793609E-1,1.7662108E-1,1.7662108E-1,2.1530606E-1,7.597288E-2,8.793105E-2],"categories":[],"categories_nodes":[],"categories_segments":[],"categories_sizes":[],"default_left":[0,0,0,0,0,0,0,0,0,0,0,0,0,0,0,0,0,0,0,0,0,0,0,0,0,0,0,0,0,0,0,0,0,0,0,0,0,0,0],"id":18,"left_children":[1,3,5,7,9,11,13,15,-1,17,-1,19,21,23,25,-1,-1,27,-1,-1,29,31,-1,33,35,-1,-1,-1,-1,-1,-1,-1,37,-1,-1,-1,-1,-1,-1],"loss_changes":[2.210106E3,7.618457E2,3.0935388E2,2.236372E2,1.5529556E0,7.181933E1,5.385962E1,6.5234375E1,0E0,9.007795E-1,0E0,1.1750214E1,9.009956E0,1.2554153E1,7.541626E0,0E0,0E0,2.6858854E-1,0E0,0E0,2.47159E-2,2.3983383E-1,0E0,2.68425E-1,4.9705505E-2,0E0,0E0,0E0,0E0,0E0,0E0,0E0,7.335663E-3,0E0,0E0,0E0,0E0,0E0,0E0],"parents":[2147483647,0,0,1,1,2,2,3,3,4,4,5,5,6,6,7,7,9,9,11,11,12,12,13,13,14,14,17,17,20,20,21,21,23,23,24,24,32,32],"right_children":[2,4,6,8,10,12,14,16,-1,18,-1,20,22,24,26,-1,-1,28,-1,-1,30,32,-1,34,36,-1,-1,-1,-1,-1,-1,-1,38,-1,-1,-1,-1,-1,-1],"split_conditions":[2.0008087E-3,2.0008087E-3,1E0,2.0008087E-3,1E0,1.3999939E-2,8.901367E-1,2.0008087E-3,-1.13835916E-1,3.798828E-1,-1.5824448E-2,4.0016174E-3,6.1816406E-1,5.6591797E-1,2.0008087E-3,-2.4176013E-1,-1.7293273E-1,2.0008087E-3,-4.7055416E-2,-1.5824448E-2,2.0008087E-3,8.798828E-1,1.3793609E-1,2.0008087E-3,4.5996094E-1,2.2405581E-1,2.9173404E-1,-1.13835916E-1,-7.974497E-2,2.6352432E-2,4.691461E-2,6.505459E-2,8.598633E-1,1.3793609E-1,1.7662108E-1,1.7662108E-1,2.1530606E-1,7.597288E-2,8.793105E-2],"split_indices":[0,3,3,2,3,2,2,1,0,1,0,1,1,1,1,0,0,2,0,0,3,0,0,2,0,0,0,0,0,0,0,0,2,0,0,0,0,0,0],"split_type":[0,0,0,0,0,0,0,0,0,0,0,0,0,0,0,0,0,0,0,0,0,0,0,0,0,0,0,0,0,0,0,0,0,0,0,0,0,0,0],"sum_hessian":[1.1073217E4,8.137753E3,2.9354639E3,6.664616E3,1.4731371E3,1.4978898E3,1.4375741E3,6.0243022E3,6.4031396E2,3.4887936E1,1.4382491E3,1.01164703E3,4.862427E2,4.8673325E2,9.5084076E2,5.686718E3,3.3758453E2,2.6673517E1,8.214419E0,3.5994586E2,6.517012E2,2.9296866E2,1.9327405E2,2.886843E2,1.9804895E2,2.1115384E2,7.3968695E2,2.0889368E1,5.7841496E0,6.45692E2,6.00911E0,2.3349936E0,2.9063367E2,2.819278E2,6.756509E0,2.9536264E0,1.9509532E2,3.5331802E0,2.8710046E2],"tree_param":{"num_deleted":"0","num_feature":"4","num_nodes":"39","size_leaf_vector":"0"}},{"base_weights":[-2.3397577E-1,-4.7261587E-1,3.992459E-1,-6.3025343E-1,-3.668499E-2,1.3992926E-1,7.247263E-1,-7.1141106E-1,-1.0004077E-1,-5.1497027E-2,-1.1005498E-2,1.8351132E-2,3.981254E-1,4.323278E-1,9.08873E-1,-2.255579E-1,-1.5673205E-1,-1.6228947E-1,-1.32273035E-2,-3.668499E-2,1.1488212E-1,6.2471483E-2,1.2969835E-1,1.2969835E-1,1.9711523E-1,2.1775445E-1,2.8792816E-1,-8.4258586E-2,-3.0957075E-2,-1.1005498E-2,1.172957E-2,3.4001887E-2,6.2471483E-2],"categories":[],"categories_nodes":[],"categories_segments":[],"categories_sizes":[],"default_left":[0,0,0,0,0,0,0,0,0,0,0,0,0,0,0,0,0,0,0,0,0,0,0,0,0,0,0,0,0,0,0,0,0],"id":19,"left_children":[1,3,5,7,9,11,13,15,-1,17,-1,19,21,23,25,-1,-1,27,-1,29,31,-1,-1,-1,-1,-1,-1,-1,-1,-1,-1,-1,-1],"loss_changes":[1.4299534E3,6.1611707E2,2.1852725E2,2.0783252E2,5.22995E-3,4.528768E1,6.2230713E1,6.293921E1,0E0,2.6552173E-1,0E0,1.1668278E1,1.3890198E1,8.42691E0,5.8898315E0,0E0,0E0,4.0265977E-1,0E0,7.67746E-2,1.3235474E-1,0E0,0E0,0E0,0E0,0E0,0E0,0E0,0E0,0E0,0E0,0E0,0E0],"parents":[2147483647,0,0,1,1,2,2,3,3,4,4,5,5,6,6,7,7,9,9,11,11,12,12,13,13,14,14,17,17,19,19,20,20],"right_children":[2,4,6,8,10,12,14,16,-1,18,-1,20,22,24,26,-1,-1,28,-1,30,32,-1,-1,-1,-1,-1,-1,-1,-1,-1,-1,-1,-1],"split_conditions":[2.0008087E-3,2.0008087E-3,1E0,2.0008087E-3,1E0,8.9208984E-1,1E0,2.0008087E-3,-1.0004077E-1,2.0008087E-3,-1.1005498E-2,2.7999878E-2,4.0016174E-3,4.0016174E-3,1E0,-2.255579E-1,-1.5673205E-1,3.779297E-1,-1.32273035E-2,4.0016174E-3,5.2001953E-1,6.2471483E-2,1.2969835E-1,1.2969835E-1,1.9711523E-1,2.1775445E-1,2.8792816E-1,-8.4258586E-2,-3.0957075E-2,-1.1005498E-2,1.172957E-2,3.4001887E-2,6.2471483E-2],"split_indices":[2,1,1,3,1,0,3,0,0,0,0,3,3,0,0,0,0,3,0,1,1,0,0,0,0,0,0,0,0,0,0,0,0],"split_type":[0,0,0,0,0,0,0,0,0,0,0,0,0,0,0,0,0,0,0,0,0,0,0,0,0,0,0,0,0,0,0,0,0],"sum_hessian":[9.460616E3,6.8713047E3,2.5893118E3,5.4545034E3,1.4168011E3,1.4419288E3,1.1473829E3,4.8188623E3,6.356411E2,2.8971773E1,1.3878293E3,9.810486E2,4.6088028E2,4.411879E2,7.0619507E2,4.4701187E3,3.4874362E2,1.8262194E1,1.0709579E1,3.4458337E2,6.364652E2,2.8057855E2,1.8030173E2,2.716187E2,1.6956918E2,1.569531E2,5.49242E2,1.4224181E1,4.038013E0,3.3992606E2,4.6573486E0,6.3542236E2,1.0428474E0],"tree_param":{"num_deleted":"0","num_feature":"4","num_nodes":"33","size_leaf_vector":"0"}},{"base_weights":[-1.7835455E-1,-3.989707E-1,3.6185387E-1,-5.553014E-1,-1.8558413E-2,1.260206E-1,6.91192E-1,-6.4027095E-1,-8.607897E-2,-4.471009E-2,-5.567524E-3,2.1462545E-2,3.4957963E-1,4.4797075E-1,8.733449E-1,-6.8687636E-1,-1.3908014E-1,-8.607897E-2,-9.490275E-3,-1.8558413E-2,2.3909051E-2,6.6428475E-2,1.2258189E-1,1.2258189E-1,1.9673838E-1,1.9946395E-1,2.8573796E-1,-2.065395E-1,-1.7257152E-1,-5.567524E-3,9.170763E-3],"categories":[],"categories_nodes":[],"categories_segments":[],"categories_sizes":[],"default_left":[0,0,0,0,0,0,0,0,0,0,0,0,0,0,0,0,0,0,0,0,0,0,0,0,0,0,0,0,0,0,0],"id":20,"left_children":[1,3,5,7,9,11,13,15,-1,17,-1,19,21,23,25,27,-1,-1,-1,29,-1,-1,-1,-1,-1,-1,-1,-1,-1,-1,-1],"loss_changes":[9.8369257E2,4.431103E2,1.8581839E2,1.6737805E2,2.236557E-2,3.262401E1,4.3848267E1,5.6092285E1,0E0,3.251373E0,0E0,4.559089E0,9.384617E0,8.741417E0,8.7659E0,7.357178E-1,0E0,0E0,0E0,1.675002E-1,0E0,0E0,0E0,0E0,0E0,0E0,0E0,0E0,0E0,0E0,0E0],"parents":[2147483647,0,0,1,1,2,2,3,3,4,4,5,5,6,6,7,7,9,9,11,11,12,12,13,13,14,14,15,15,19,19],"right_children":[2,4,6,8,10,12,14,16,-1,18,-1,20,22,24,26,28,-1,-1,-1,30,-1,-1,-1,-1,-1,-1,-1,-1,-1,-1,-1],"split_conditions":[1E0,2.0008087E-3,1E0,2.0008087E-3,1E0,5.517578E-1,5.6591797E-1,2.0008087E-3,-8.607897E-2,2.0008087E-3,-5.567524E-3,4.0016174E-3,4.0016174E-3,2.0008087E-3,8.901367E-1,2.0008087E-3,-1.3908014E-1,-8.607897E-2,-9.490275E-3,4.0016174E-3,2.3909051E-2,6.6428475E-2,1.2258189E-1,1.2258189E-1,1.9673838E-1,1.9946395E-1,2.8573796E-1,-2.065395E-1,-1.7257152E-1,-5.567524E-3,9.170763E-3],"split_indices":[3,0,0,1,0,1,1,2,0,1,0,2,2,2,2,3,0,0,0,1,0,0,0,0,0,0,0,0,0,0,0],"split_type":[0,0,0,0,0,0,0,0,0,0,0,0,0,0,0,0,0,0,0,0,0,0,0,0,0,0,0,0,0,0,0],"sum_hessian":[8.251718E3,5.859155E3,2.3925635E3,4.480727E3,1.3784277E3,1.3950065E3,9.97557E2,3.925705E3,5.5502185E2,3.2206554E1,1.3462212E3,9.5121936E2,4.4378714E2,4.2865326E2,5.6890375E2,3.587001E3,3.3870398E2,1.9391788E1,1.2814767E1,3.2196017E2,6.292592E2,3.158569E2,1.2793024E2,2.7296188E2,1.5569138E2,1.590958E2,4.0980795E2,3.5702192E3,1.6781923E1,3.190675E2,2.8926876E0],"tree_param":{"num_deleted":"0","num_feature":"4","num_nodes":"31","size_leaf_vector":"0"}},{"base_weights":[-1.2854804E-1,-3.1945226E-1,3.1364566E-1,-4.6854675E-1,-8.709893E-4,1.3571708E-1,6.027097E-1,-5.643323E-1,-2.3572502E-1,5.9138536E-2,2.8737983E-1,3.692134E-1,8.397117E-1,-1.8498091E-1,-1.20008595E-1,-3.437576E-1,-7.0717506E-2,8.565223E-3,7.972389E-2,1.7325918E-1,3.692134E-1,1.1076403E-1,5.545828E-1,1.8133877E-1,2.8097677E-1,-1.1946924E-1,-8.692239E-2,-8.709893E-4,5.3386088E-3,2.3490744E-2,5.1977757E-2,5.1977757E-2,8.137089E-2,8.137089E-2,1.1076403E-1,1.3856943E-1,1.7351805E-1],"categories":[],"categories_nodes":[],"categories_segments":[],"categories_sizes":[],"default_left":[0,0,0,0,0,0,0,0,0,0,0,0,0,0,0,0,0,0,0,0,0,0,0,0,0,0,0,0,0,0,0,0,0,0,0,0,0],"id":21,"left_children":[1,3,5,7,-1,9,11,13,15,17,19,21,23,-1,-1,25,-1,27,29,31,33,-1,35,-1,-1,-1,-1,-1,-1,-1,-1,-1,-1,-1,-1,-1,-1],"loss_changes":[6.192452E2,3.1074908E2,1.1369339E2,1.4288184E2,0E0,1.5900963E1,4.8378113E1,4.8932983E1,2.1152496E-1,9.4875264E-1,9.4524E0,4.8853226E0,1.0330353E1,0E0,0E0,4.3750525E-2,0E0,7.343441E-2,1.2680387E-1,3.9963531E-1,4.8616028E-1,0E0,4.418373E-1,0E0,0E0,0E0,0E0,0E0,0E0,0E0,0E0,0E0,0E0,0E0,0E0,0E0,0E0],"parents":[2147483647,0,0,1,1,2,2,3,3,5,5,6,6,7,7,8,8,9,9,10,10,11,11,12,12,15,15,17,17,18,18,19,19,20,20,22,22],"right_children":[2,4,6,8,-1,10,12,14,16,18,20,22,24,-1,-1,26,-1,28,30,32,34,-1,36,-1,-1,-1,-1,-1,-1,-1,-1,-1,-1,-1,-1,-1,-1],"split_conditions":[2.0008087E-3,2.0008087E-3,1E0,2.0008087E-3,-8.709893E-4,1.2001038E-2,1E0,2.0008087E-3,1E0,4.0016174E-3,5.498047E-1,4.0016174E-3,1E0,-1.8498091E-1,-1.20008595E-1,7.7783203E-1,-7.0717506E-2,1E0,2.0008087E-3,4.0016174E-3,1E0,1.1076403E-1,6.1816406E-1,1.8133877E-1,2.8097677E-1,-1.1946924E-1,-8.692239E-2,-8.709893E-4,5.3386088E-3,2.3490744E-2,5.1977757E-2,5.1977757E-2,8.137089E-2,8.137089E-2,1.1076403E-1,1.3856943E-1,1.7351805E-1],"split_indices":[1,2,2,0,0,3,3,3,0,0,0,0,0,0,0,3,0,1,2,2,1,0,1,0,0,0,0,0,0,0,0,0,0,0,0,0,0],"split_type":[0,0,0,0,0,0,0,0,0,0,0,0,0,0,0,0,0,0,0,0,0,0,0,0,0,0,0,0,0,0,0,0,0,0,0,0,0],"sum_hessian":[7.333394E3,5.122278E3,2.2111162E3,3.7998655E3,1.3224121E3,1.36957E3,8.415464E2,3.2306917E3,5.691739E2,9.109812E2,4.5858865E2,4.1588013E2,4.2566626E2,2.9056445E3,3.2504697E2,2.1884783E1,5.4728906E2,2.6394562E2,6.470356E2,3.178574E2,1.4073126E2,2.7073975E2,1.4514038E2,1.1564382E2,3.1002246E2,1.5522853E1,6.3619294E0,1.2187427E1,2.517582E2,6.451722E2,1.8633956E0,3.1458105E2,3.2763393E0,4.087003E0,1.3664426E2,5.3567996E0,1.3978358E2],"tree_param":{"num_deleted":"0","num_feature":"4","num_nodes":"37","size_leaf_vector":"0"}},{"base_weights":[-8.555198E-2,-2.4752408E-1,2.7703506E-1,-3.8806236E-1,1.4755487E-2,1.085665E-1,5.7029E-1,-4.8204863E-1,-5.5996034E-2,-2.875898E-2,4.4266465E-3,4.5257177E-2,2.581125E-1,3.6188406E-1,7.9724723E-1,-5.373458E-1,-1.0030531E-1,-1.16898276E-1,-2.100524E-3,4.4314396E-2,1.2586589E-1,4.6968415E-2,1.01828486E-1,3.3942828E-1,1.608481E-1,1.738697E-1,2.747012E-1,-1.6153896E-1,-1.3075453E-1,-4.2433407E-2,-6.1950013E-2,1.1636074E-2,4.6578284E-2,2.5527045E-2,4.5505453E-2,1.01828486E-1,1.3133828E-1,-3.0509206E-2,-1.8585004E-2,1.3583987E-2,2.5527045E-2],"categories":[],"categories_nodes":[],"categories_segments":[],"categories_sizes":[],"default_left":[0,0,0,0,0,0,0,0,0,0,0,0,0,0,0,0,0,0,0,0,0,0,0,0,0,0,0,0,0,0,0,0,0,0,0,0,0,0,0,0,0],"id":22,"left_children":[1,3,5,7,9,11,13,15,-1,17,-1,19,21,23,25,27,-1,29,-1,31,33,-1,-1,35,-1,-1,-1,-1,-1,-1,37,-1,39,-1,-1,-1,-1,-1,-1,-1,-1],"loss_changes":[3.9068173E2,2.1277084E2,1.0142363E2,1.0543588E2,5.0766945E-2,1.2352257E1,3.515155E1,4.0606506E1,0E0,2.0452382E-1,0E0,6.424129E-2,6.513277E0,4.291046E0,9.286987E0,2.218628E-1,0E0,2.981253E-2,0E0,9.576082E-3,4.5725465E-2,0E0,0E0,6.443596E-2,0E0,0E0,0E0,0E0,0E0,0E0,1.0782564E-2,0E0,5.513966E-2,0E0,0E0,0E0,0E0,0E0,0E0,0E0,0E0],"parents":[2147483647,0,0,1,1,2,2,3,3,4,4,5,5,6,6,7,7,9,9,11,11,12,12,13,13,14,14,15,15,17,17,19,19,20,20,23,23,30,30,32,32],"right_children":[2,4,6,8,10,12,14,16,-1,18,-1,20,22,24,26,28,-1,30,-1,32,34,-1,-1,36,-1,-1,-1,-1,-1,-1,38,-1,40,-1,-1,-1,-1,-1,-1,-1,-1],"split_conditions":[1E0,2.0008087E-3,1E0,2.0008087E-3,1E0,8.598633E-1,8.901367E-1,2.0008087E-3,-5.5996034E-2,2.0008087E-3,4.4266465E-3,2.6000977E-2,6.1816406E-1,5.6591797E-1,2.0008087E-3,2.0008087E-3,-1.0030531E-1,3.798828E-1,-2.100524E-3,4.0016174E-3,1E0,4.6968415E-2,1.01828486E-1,2.0008087E-3,1.608481E-1,1.738697E-1,2.747012E-1,-1.6153896E-1,-1.3075453E-1,-4.2433407E-2,9.399414E-2,1.1636074E-2,2.0008087E-3,2.5527045E-2,4.5505453E-2,1.01828486E-1,1.3133828E-1,-3.0509206E-2,-1.8585004E-2,1.3583987E-2,2.5527045E-2],"split_indices":[0,3,3,1,3,2,2,2,0,2,0,3,1,1,1,0,0,1,0,1,1,0,0,2,0,0,0,0,0,0,3,0,2,0,0,0,0,0,0,0,0],"split_type":[0,0,0,0,0,0,0,0,0,0,0,0,0,0,0,0,0,0,0,0,0,0,0,0,0,0,0,0,0,0,0,0,0,0,0,0,0,0,0,0,0],"sum_hessian":[6.6501143E3,4.5969277E3,2.0531868E3,3.2595562E3,1.3373713E3,1.304913E3,7.482738E2,2.72352E3,5.3603613E2,2.592607E1,1.3114453E3,9.177093E2,3.8720364E2,3.9143173E2,3.5684204E2,2.4294814E3,2.9403848E2,1.6994081E1,8.931987E0,9.0863184E2,9.07744E0,2.7397943E2,1.13224236E2,2.734723E2,1.1795946E2,1.2255737E2,2.3428467E2,2.4159497E3,1.3531726E1,1.2922217E1,4.071864E0,2.6928415E2,6.393477E2,4.327476E0,4.7499647E0,2.6886697E2,4.6053243E0,1.264876E0,2.8069882E0,6.376217E2,1.7259698E0],"tree_param":{"num_deleted":"0","num_feature":"4","num_nodes":"41","size_leaf_vector":"0"}},{"base_weights":[-5.0691966E-2,-1.7997701E-1,2.2981751E-1,-3.0450827E-1,7.4760746E-3,1.07171305E-1,4.729165E-1,-3.987474E-1,-4.1938204E-2,6.0322702E-2,2.1729186E-1,2.9004392E-1,7.5385153E-1,-1.3722579E-1,-8.078122E-2,4.3504566E-2,1.818849E-2,4.1642185E-2,8.701318E-2,8.701318E-2,1.3338338E-1,1.5711883E-1,8.7239534E-1,7.4760746E-3,1.561993E-2,2.0941871E-1,2.6636797E-1],"categories":[],"categories_nodes":[],"categories_segments":[],"categories_sizes":[],"default_left":[0,0,0,0,0,0,0,0,0,0,0,0,0,0,0,0,0,0,0,0,0,0,0,0,0,0,0],"id":23,"left_children":[1,3,5,7,-1,9,11,13,-1,15,17,19,21,-1,-1,23,-1,-1,-1,-1,-1,-1,25,-1,-1,-1,-1],"loss_changes":[2.2264279E2,1.3849213E2,5.769905E1,7.871384E1,0E0,6.6353083E0,3.7203796E1,3.3386963E1,0E0,2.0155907E-3,6.90127E0,2.5608654E0,7.024933E0,0E0,0E0,1.4610413E-1,0E0,0E0,0E0,0E0,0E0,0E0,4.5768738E-1,0E0,0E0,0E0,0E0],"parents":[2147483647,0,0,1,1,2,2,3,3,5,5,6,6,7,7,9,9,10,10,11,11,12,12,15,15,22,22],"right_children":[2,4,6,8,-1,10,12,14,-1,16,18,20,22,-1,-1,24,-1,-1,-1,-1,-1,-1,26,-1,-1,-1,-1],"split_conditions":[2.0008087E-3,2.0008087E-3,1E0,2.0008087E-3,7.4760746E-3,8.9208984E-1,1E0,2.0008087E-3,-4.1938204E-2,1E0,4.8388672E-1,4.0016174E-3,1E0,-1.3722579E-1,-8.078122E-2,2.0008087E-3,1.818849E-2,4.1642185E-2,8.701318E-2,8.701318E-2,1.3338338E-1,1.5711883E-1,8.901367E-1,7.4760746E-3,1.561993E-2,2.0941871E-1,2.6636797E-1],"split_indices":[2,0,1,1,0,0,3,3,0,2,3,0,0,0,0,3,0,0,0,0,0,0,2,0,0,0,0],"split_type":[0,0,0,0,0,0,0,0,0,0,0,0,0,0,0,0,0,0,0,0,0,0,0,0,0,0,0],"sum_hessian":[6.137073E3,4.2011484E3,1.9359246E3,2.9007869E3,1.3003617E3,1.287704E3,6.482205E2,2.3471736E3,5.536133E2,9.044651E2,3.8323892E2,3.7495468E2,2.732658E2,2.0562017E3,2.9097186E2,1.869989E1,8.857652E2,2.7389694E2,1.0934199E2,2.6524405E2,1.0971064E2,9.47504E1,1.7851541E2,1.6057602E1,2.6422887E0,1.8913335E0,1.7662408E2],"tree_param":{"num_deleted":"0","num_feature":"4","num_nodes":"27","size_leaf_vector":"0"}},{"base_weights":[-2.4317417E-2,-1.36598E-1,2.0125853E-1,-2.4443235E-1,9.699078E-3,1.0093697E-1,4.154711E-1,-3.2447597E-1,-1.0605104E-1,5.366734E-2,2.0988472E-1,2.5820404E-1,6.729667E-1,-1.1326681E-1,-6.4579055E-2,-4.5247495E-2,-3.1815313E-2,3.233026E-2,1.6369907E-2,4.3921806E-2,2.5820404E-1,7.746121E-2,4.2955318E-1,1.3967562E-1,2.5450337E-1,9.699078E-3,4.3448307E-2,6.069151E-2,7.746121E-2,1.0316359E-1,1.3367172E-1,1.13667855E-2,1.3034493E-2],"categories":[],"categories_nodes":[],"categories_segments":[],"categories_sizes":[],"default_left":[0,0,0,0,0,0,0,0,0,0,0,0,0,0,0,0,0,0,0,0,0,0,0,0,0,0,0,0,0,0,0,0,0],"id":24,"left_children":[1,3,5,7,-1,9,11,13,15,17,19,21,23,-1,-1,-1,-1,25,-1,-1,27,-1,29,-1,-1,-1,31,-1,-1,-1,-1,-1,-1],"loss_changes":[1.4604396E2,8.997422E1,4.1140076E1,4.9027847E1,0E0,6.716729E0,2.6503174E1,2.2454742E1,3.197956E-2,2.6563644E-2,2.8860931E0,3.00449E0,9.594109E0,0E0,0E0,0E0,0E0,6.643351E-3,0E0,0E0,1.7961502E-2,0E0,1.6395187E-1,0E0,0E0,0E0,3.0715317E-3,0E0,0E0,0E0,0E0,0E0,0E0],"parents":[2147483647,0,0,1,1,2,2,3,3,5,5,6,6,7,7,8,8,9,9,10,10,11,11,12,12,17,17,20,20,22,22,26,26],"right_children":[2,4,6,8,-1,10,12,14,16,18,20,22,24,-1,-1,-1,-1,26,-1,-1,28,-1,30,-1,-1,-1,32,-1,-1,-1,-1,-1,-1],"split_conditions":[2.0008087E-3,2.0008087E-3,1E0,2.0008087E-3,9.699078E-3,9.458008E-1,1E0,2.0008087E-3,1E0,1E0,4.0016174E-3,2.0008087E-3,8.901367E-1,-1.1326681E-1,-6.4579055E-2,-4.5247495E-2,-3.1815313E-2,2.0008087E-3,1.6369907E-2,4.3921806E-2,1E0,7.746121E-2,4.8388672E-1,1.3967562E-1,2.5450337E-1,9.699078E-3,8.8012695E-2,6.069151E-2,7.746121E-2,1.0316359E-1,1.3367172E-1,1.13667855E-2,1.3034493E-2],"split_indices":[3,1,0,2,0,1,1,0,2,3,2,2,2,0,0,0,0,2,0,0,3,0,3,0,0,0,3,0,0,0,0,0,0],"split_type":[0,0,0,0,0,0,0,0,0,0,0,0,0,0,0,0,0,0,0,0,0,0,0,0,0,0,0,0,0,0,0,0,0],"sum_hessian":[5.7640684E3,3.8487463E3,1.9153218E3,2.6078896E3,1.2408567E3,1.3054265E3,6.098953E2,2.0740134E3,5.3387634E2,9.1145996E2,3.939665E2,3.686146E2,2.4128072E2,1.7929447E3,2.8106863E2,2.056296E1,5.133134E2,1.6453636E1,8.9500635E2,3.0902283E2,8.4943665E1,2.650131E2,1.03601494E2,1.0419199E2,1.3708871E2,1.1457704E1,4.9959316E0,3.7575545E0,8.118611E1,3.0702972E0,1.005312E2,1.2960173E0,3.6999145E0],"tree_param":{"num_deleted":"0","num_feature":"4","num_nodes":"33","size_leaf_vector":"0"}},{"base_weights":[-6.8710954E-3,-8.642998E-2,1.5651949E-1,-1.7052688E-1,1.0513426E-2,8.241124E-2,3.3413136E-1,-2.4525072E-1,-6.7741066E-2,1.3265238E-2,1.6819839E-1,2.082713E-1,6.4601403E-1,-3.0141866E-1,-4.6948772E-2,-2.6608244E-2,-2.0322321E-2,1.0954552E-1,6.2481392E-2,6.2481392E-2,1.0607764E-1,1.281428E-1,2.4343422E-1,-9.086792E-2,-6.8687186E-2,3.1862378E-2,4.7672525E-2],"categories":[],"categories_nodes":[],"categories_segments":[],"categories_sizes":[],"default_left":[0,0,0,0,0,0,0,0,0,0,0,0,0,0,0,0,0,0,0,0,0,0,0,0,0,0,0],"id":25,"left_children":[1,3,5,7,-1,9,11,13,15,-1,17,19,21,23,-1,-1,-1,25,-1,-1,-1,-1,-1,-1,-1,-1,-1],"loss_changes":[7.124566E1,4.8152847E1,2.3596687E1,3.3723488E1,0E0,4.1463385E0,2.58489E1,1.9013664E1,3.1881332E-3,0E0,2.2805977E0,1.9568434E0,6.894783E0,2.3623657E-1,0E0,0E0,0E0,9.81369E-2,0E0,0E0,0E0,0E0,0E0,0E0,0E0,0E0,0E0],"parents":[2147483647,0,0,1,1,2,2,3,3,5,5,6,6,7,7,8,8,10,10,11,11,12,12,13,13,17,17],"right_children":[2,4,6,8,-1,10,12,14,16,-1,18,20,22,24,-1,-1,-1,26,-1,-1,-1,-1,-1,-1,-1,-1,-1],"split_conditions":[1E0,2.0008087E-3,1E0,2.0008087E-3,1.0513426E-2,8.901367E-1,1E0,2.0008087E-3,1E0,1.3265238E-2,4.5996094E-1,4.0016174E-3,1E0,2.0008087E-3,-4.6948772E-2,-2.6608244E-2,-2.0322321E-2,4.0016174E-3,6.2481392E-2,6.2481392E-2,1.0607764E-1,1.281428E-1,2.4343422E-1,-9.086792E-2,-6.8687186E-2,3.1862378E-2,4.7672525E-2],"split_indices":[1,2,2,3,0,3,3,0,3,0,0,0,0,1,0,0,0,2,0,0,0,0,0,0,0,0,0],"split_type":[0,0,0,0,0,0,0,0,0,0,0,0,0,0,0,0,0,0,0,0,0,0,0,0,0,0,0],"sum_hessian":[5.4787437E3,3.6849312E3,1.7938126E3,2.425522E3,1.2594092E3,1.266734E3,5.2707855E2,1.882996E3,5.42526E2,8.7755035E2,3.8918365E2,3.4929938E2,1.7777916E2,1.6120939E3,2.70902E2,1.6713284E1,5.2581274E2,3.0172028E2,8.746336E1,2.555837E2,9.37157E1,7.287094E1,1.0490822E2,1.6012042E3,1.088969E1,2.9936594E2,2.3543603E0],"tree_param":{"num_deleted":"0","num_feature":"4","num_nodes":"27","size_leaf_vector":"0"}},{"base_weights":[5.5368147E-3,-5.870235E-2,1.3526957E-1,-1.2666665E-1,3.828361E-2,6.694451E-2,3.0196598E-1,-1.8732235E-1,-1.3257457E-2,-3.0064331E-3,1.1485083E-2,1.1980212E-2,1.3598551E-1,1.8445525E-1,5.5762756E-1,-2.3605187E-1,-3.472708E-2,-7.7338936E-3,5.2915765E-3,2.708723E-2,5.5336576E-2,1.8445525E-1,9.7028166E-2,1.1131243E-1,2.2900246E-1,-7.097787E-2,-5.2771326E-2,5.5336576E-2,7.618237E-2],"categories":[],"categories_nodes":[],"categories_segments":[],"categories_sizes":[],"default_left":[0,0,0,0,0,0,0,0,0,0,0,0,0,0,0,0,0,0,0,0,0,0,0,0,0,0,0,0,0],"id":26,"left_children":[1,3,5,7,9,11,13,15,-1,17,-1,-1,19,21,23,25,-1,-1,-1,-1,-1,27,-1,-1,-1,-1,-1,-1,-1],"loss_changes":[4.394411E1,2.8004673E1,1.986889E1,2.0350567E1,4.0864468E-2,2.3067265E0,1.623825E1,1.2404926E1,0E0,1.9860461E-2,0E0,0E0,1.5246773E0,1.5680199E0,7.03458E0,2.594757E-2,0E0,0E0,0E0,0E0,0E0,6.1184168E-2,0E0,0E0,0E0,0E0,0E0,0E0,0E0],"parents":[2147483647,0,0,1,1,2,2,3,3,4,4,5,5,6,6,7,7,9,9,12,12,13,13,14,14,15,15,21,21],"right_children":[2,4,6,8,10,12,14,16,-1,18,-1,-1,20,22,24,26,-1,-1,-1,-1,-1,28,-1,-1,-1,-1,-1,-1,-1],"split_conditions":[1E0,2.0008087E-3,1E0,2.0008087E-3,1E0,8.598633E-1,8.901367E-1,2.0008087E-3,-1.3257457E-2,2.0008087E-3,1.1485083E-2,1.1980212E-2,6.1816406E-1,5.6591797E-1,2.0008087E-3,2.0008087E-3,-3.472708E-2,-7.7338936E-3,5.2915765E-3,2.708723E-2,5.5336576E-2,2.0008087E-3,9.7028166E-2,1.1131243E-1,2.2900246E-1,-7.097787E-2,-5.2771326E-2,5.5336576E-2,7.618237E-2],"split_indices":[0,3,3,1,3,2,2,2,0,2,0,0,1,1,1,0,0,0,0,0,0,2,0,0,0,0,0,0,0],"split_type":[0,0,0,0,0,0,0,0,0,0,0,0,0,0,0,0,0,0,0,0,0,0,0,0,0,0,0,0,0],"sum_hessian":[5.270967E3,3.5257065E3,1.7452604E3,2.2475298E3,1.2781769E3,1.2388754E3,5.0638504E2,1.7390468E3,5.0848297E2,2.382901E1,1.2543478E3,8.916278E2,3.4724753E2,3.402225E2,1.6616252E2,1.4730067E3,2.6604004E2,1.5313949E1,8.515062E0,2.6705667E2,8.0190834E1,2.5827185E2,8.195067E1,8.274433E1,8.341818E1,1.462294E3,1.071272E1,2.5487303E2,3.3988206E0],"tree_param":{"num_deleted":"0","num_feature":"4","num_nodes":"29","size_leaf_vector":"0"}},{"base_weights":[1.2040535E-2,-3.165531E-2,9.811791E-2,-7.555589E-2,9.96939E-3,5.0556857E-2,2.2519948E-1,-1.3571976E-1,-6.348689E-3,9.96939E-3,1.1241459E-1,1.3787816E-1,4.7617376E-1,-1.7765558E-1,-2.353231E-2,7.282294E-2,4.136345E-2,1.3787816E-1,7.644544E-2,9.2107795E-2,2.109782E-1,-1.7914955E-1,-3.8414493E-2,2.1846883E-2,3.160517E-2,4.136345E-2,5.8904443E-2,-5.4138403E-2,-4.607968E-2],"categories":[],"categories_nodes":[],"categories_segments":[],"categories_sizes":[],"default_left":[0,0,0,0,0,0,0,0,0,0,0,0,0,0,0,0,0,0,0,0,0,0,0,0,0,0,0,0,0],"id":27,"left_children":[1,3,5,7,-1,9,11,13,-1,-1,15,17,19,21,-1,23,-1,25,-1,-1,-1,27,-1,-1,-1,-1,-1,-1,-1],"loss_changes":[1.9248888E1,1.5839878E1,1.0403559E1,1.3931588E1,0E0,1.8856082E0,1.2607134E1,8.298933E0,0E0,0E0,1.3063178E0,1.013711E0,6.429741E0,1.6427612E-1,0E0,6.7772865E-3,0E0,6.284344E-2,0E0,0E0,0E0,6.0455322E-2,0E0,0E0,0E0,0E0,0E0,0E0,0E0],"parents":[2147483647,0,0,1,1,2,2,3,3,5,5,6,6,7,7,10,10,11,11,12,12,13,13,15,15,17,17,21,21],"right_children":[2,4,6,8,-1,10,12,14,-1,-1,16,18,20,22,-1,24,-1,26,-1,-1,-1,28,-1,-1,-1,-1,-1,-1,-1],"split_conditions":[1E0,1E0,1E0,2.0008087E-3,9.96939E-3,9.458008E-1,8.901367E-1,2.0008087E-3,-6.348689E-3,9.96939E-3,4.0016174E-3,5.6591797E-1,2.0008087E-3,2.0008087E-3,-2.353231E-2,4.0016174E-3,4.136345E-2,2.0008087E-3,7.644544E-2,9.2107795E-2,2.109782E-1,2.0008087E-3,-3.8414493E-2,2.1846883E-2,3.160517E-2,4.136345E-2,5.8904443E-2,-5.4138403E-2,-4.607968E-2],"split_indices":[3,2,0,0,0,1,2,1,0,0,2,1,1,3,0,0,0,2,0,0,0,2,0,0,0,0,0,0,0],"split_type":[0,0,0,0,0,0,0,0,0,0,0,0,0,0,0,0,0,0,0,0,0,0,0,0,0,0,0,0,0],"sum_hessian":[5.1158936E3,3.393744E3,1.7221494E3,2.545233E3,8.4851117E2,1.2541674E3,4.67982E2,1.6346628E3,9.1057E2,8.9416473E2,3.6000262E2,3.274092E2,1.4057278E2,1.3878784E3,2.4678438E2,2.941978E2,6.5804794E1,2.5289005E2,7.451916E1,7.421987E1,6.6352905E1,1.377042E3,1.083641E1,2.9191E2,2.2878082E0,2.497087E2,3.1813533E0,1.3622177E3,1.4824379E1],"tree_param":{"num_deleted":"0","num_feature":"4","num_nodes":"29","size_leaf_vector":"0"}},{"base_weights":[1.6880048E-2,-1.7595353E-2,8.51904E-2,-5.261835E-2,1.0139258E-2,4.8718054E-2,1.8607998E-1,-9.527202E-2,-2.823124E-3,1.1143766E-2,7.632546E-2,1.17399015E-1,4.477004E-1,-1.335736E-1,-1.5702365E-2,5.6735672E-2,3.5219707E-2,3.5219707E-2,2.3543206E-1,8.476491E-2,1.8894541E-1,-4.0413216E-2,-2.7887223E-2,1.7020702E-2,2.6120204E-2,6.722941E-2,8.476491E-2],"categories":[],"categories_nodes":[],"categories_segments":[],"categories_sizes":[],"default_left":[0,0,0,0,0,0,0,0,0,0,0,0,0,0,0,0,0,0,0,0,0,0,0,0,0,0,0],"id":28,"left_children":[1,3,5,7,-1,9,11,13,-1,-1,15,17,19,21,-1,23,-1,-1,25,-1,-1,-1,-1,-1,-1,-1,-1],"loss_changes":[1.1788647E1,9.783562E0,6.1688747E0,7.11643E0,0E0,3.915589E-1,1.0431445E1,5.7109833E0,0E0,0E0,8.224268E-1,1.109853E0,3.2964706E0,9.7099304E-2,0E0,6.116569E-2,0E0,0E0,1.2676716E-2,0E0,0E0,0E0,0E0,0E0,0E0,0E0,0E0],"parents":[2147483647,0,0,1,1,2,2,3,3,5,5,6,6,7,7,10,10,11,11,12,12,13,13,15,15,18,18],"right_children":[2,4,6,8,-1,10,12,14,-1,-1,16,18,20,22,-1,24,-1,-1,26,-1,-1,-1,-1,-1,-1,-1,-1],"split_conditions":[1E0,1E0,1E0,2.0008087E-3,1.0139258E-2,8.901367E-1,1E0,2.0008087E-3,-2.823124E-3,1.1143766E-2,4.5996094E-1,4.0016174E-3,1E0,2.0008087E-3,-1.5702365E-2,4.0016174E-3,3.5219707E-2,3.5219707E-2,1.3999939E-2,8.476491E-2,1.8894541E-1,-4.0413216E-2,-2.7887223E-2,1.7020702E-2,2.6120204E-2,6.722941E-2,8.476491E-2],"split_indices":[1,0,2,2,0,3,3,3,0,0,0,0,0,1,0,2,0,0,3,0,0,0,0,0,0,0,0],"split_type":[0,0,0,0,0,0,0,0,0,0,0,0,0,0,0,0,0,0,0,0,0,0,0,0,0,0,0],"sum_hessian":[5.0041016E3,3.3261677E3,1.6779338E3,2.4860447E3,8.4012305E2,1.2334978E3,4.4443597E2,1.5941307E3,8.9191394E2,8.7082196E2,3.6267587E2,3.30436E2,1.1399997E2,1.3104149E3,2.8371582E2,2.932188E2,6.945707E1,2.5078343E2,7.965259E1,6.099367E1,5.3006298E1,1.3006099E3,9.805031E0,2.910635E2,2.1552892E0,7.848407E1,1.1685157E0],"tree_param":{"num_deleted":"0","num_feature":"4","num_nodes":"27","size_leaf_vector":"0"}},{"base_weights":[1.817828E-2,-3.606826E-3,6.2282853E-2,-2.8260808E-2,8.801404E-3,3.223578E-2,1.4197956E-1,-6.257414E-2,1.6158074E-4,8.801404E-3,5.4586202E-2,8.710767E-2,3.431942E-1,-9.689698E-2,-9.305331E-3,4.196211E-2,2.6132302E-2,2.6132302E-2,5.4135177E-2,6.454528E-2,1.6931789E-1,-9.8251656E-2,-1.9187214E-2,1.2588633E-2,1.9360468E-2,-2.9772356E-2,-2.4331355E-2],"categories":[],"categories_nodes":[],"categories_segments":[],"categories_sizes":[],"default_left":[0,0,0,0,0,0,0,0,0,0,0,0,0,0,0,0,0,0,0,0,0,0,0,0,0,0,0],"id":29,"left_children":[1,3,5,7,-1,9,11,13,-1,-1,15,17,19,21,-1,23,-1,-1,-1,-1,-1,25,-1,-1,-1,-1,-1],"loss_changes":[4.73073E0,4.446554E0,3.893618E0,4.0017595E0,0E0,1.8632078E-1,6.071229E0,3.9865036E0,0E0,0E0,7.4588543E-1,6.117959E-1,3.6968203E0,9.903431E-2,0E0,1.8691294E-2,0E0,0E0,0E0,0E0,0E0,3.2580376E-2,0E0,0E0,0E0,0E0,0E0],"parents":[2147483647,0,0,1,1,2,2,3,3,5,5,6,6,7,7,10,10,11,11,12,12,13,13,15,15,21,21],"right_children":[2,4,6,8,-1,10,12,14,-1,-1,16,18,20,22,-1,24,-1,-1,-1,-1,-1,26,-1,-1,-1,-1,-1],"split_conditions":[1E0,1E0,1E0,2.0008087E-3,8.801404E-3,1E0,4.8388672E-1,2.0008087E-3,1.6158074E-4,8.801404E-3,1E0,6.1816406E-1,2.0008087E-3,2.0008087E-3,-9.305331E-3,4.0016174E-3,2.6132302E-2,2.6132302E-2,5.4135177E-2,6.454528E-2,1.6931789E-1,2.0008087E-3,-1.9187214E-2,1.2588633E-2,1.9360468E-2,-2.9772356E-2,-2.4331355E-2],"split_indices":[2,3,0,0,0,1,3,1,0,0,3,1,1,3,0,0,0,0,0,0,0,2,0,0,0,0,0],"split_type":[0,0,0,0,0,0,0,0,0,0,0,0,0,0,0,0,0,0,0,0,0,0,0,0,0,0,0],"sum_hessian":[4.922389E3,3.2955142E3,1.6268751E3,2.417998E3,8.775161E2,1.1824681E3,4.44407E2,1.5073512E3,9.106469E2,8.742474E2,3.0822076E2,3.3226474E2,1.1214227E2,1.2638386E3,2.4351254E2,2.5211287E2,5.610789E1,2.6217664E2,7.008812E1,6.7245026E1,4.4897247E1,1.2535701E3,1.0268547E1,2.4781479E2,4.2980666E0,1.2394493E3,1.4120775E1],"tree_param":{"num_deleted":"0","num_feature":"4","num_nodes":"27","size_leaf_vector":"0"}},{"base_weights":[1.7824238E-2,1.6055078E-3,4.9809907E-2,-1.8878855E-2,7.7123125E-3,2.9728152E-2,1.0289231E-1,-4.086747E-2,1.0243278E-3,2.853235E-2,3.2905594E-2,6.631023E-2,3.143462E-1,-7.1071826E-2,-5.6179566E-3,8.482822E-3,9.215692E-3,9.215692E-3,1.9893069E-2,6.631023E-2,4.8730183E-2,5.97797E-2,1.423722E-1,-2.1618117E-2,-1.3469753E-2,1.9893069E-2,3.4311626E-2],"categories":[],"categories_nodes":[],"categories_segments":[],"categories_sizes":[],"default_left":[0,0,0,0,0,0,0,0,0,0,0,0,0,0,0,0,0,0,0,0,0,0,0,0,0,0,0],"id":30,"left_children":[1,3,5,7,-1,9,11,13,-1,15,17,19,21,23,-1,-1,-1,-1,-1,25,-1,-1,-1,-1,-1,-1,-1],"loss_changes":[2.5239382E0,2.8891847E0,1.7419343E0,1.7594063E0,0E0,3.5789013E-3,5.1025963E0,2.6137562E0,0E0,4.4345856E-5,4.585975E-1,6.18042E-1,1.6161366E0,5.551052E-2,0E0,0E0,0E0,0E0,0E0,8.209461E-2,0E0,0E0,0E0,0E0,0E0,0E0,0E0],"parents":[2147483647,0,0,1,1,2,2,3,3,5,5,6,6,7,7,9,9,10,10,11,11,12,12,13,13,19,19],"right_children":[2,4,6,8,-1,10,12,14,-1,16,18,20,22,24,-1,-1,-1,-1,-1,26,-1,-1,-1,-1,-1,-1,-1],"split_conditions":[1E0,1E0,1E0,2.0008087E-3,7.7123125E-3,1E0,8.901367E-1,2.0008087E-3,1.0243278E-3,1.2001038E-2,4.0016174E-3,4.5996094E-1,1E0,2.0008087E-3,-5.6179566E-3,8.482822E-3,9.215692E-3,9.215692E-3,1.9893069E-2,4.0016174E-3,4.8730183E-2,5.97797E-2,1.423722E-1,-2.1618117E-2,-1.3469753E-2,1.9893069E-2,3.4311626E-2],"split_indices":[1,0,3,2,0,2,2,3,0,3,0,0,0,1,0,0,0,0,0,2,0,0,0,0,0,0,0],"split_type":[0,0,0,0,0,0,0,0,0,0,0,0,0,0,0,0,0,0,0,0,0,0,0,0,0,0,0],"sum_hessian":[4.8644165E3,3.228444E3,1.6359724E3,2.396371E3,8.3207294E2,1.1880702E3,4.4790222E2,1.503875E3,8.9249615E2,8.704601E2,3.1761014E2,3.561264E2,9.177581E1,1.2222815E3,2.815935E2,8.627746E2,7.6855035E0,2.4672975E2,7.088039E1,2.897612E2,6.636522E1,5.4718758E1,3.7057053E1,1.2128326E3,9.448776E0,2.8770944E2,2.0517452E0],"tree_param":{"num_deleted":"0","num_feature":"4","num_nodes":"27","size_leaf_vector":"0"}},{"base_weights":[1.6370168E-2,7.216624E-3,3.43804E-2,-8.303169E-3,6.239554E-3,2.0798512E-2,7.824146E-2,-2.426172E-2,1.8743015E-3,6.239554E-3,3.0857205E-2,4.9519986E-2,2.3035859E-1,-1.5539226E-2,-2.7021074E-3,2.5827859E-2,1.4855997E-2,1.4855997E-2,3.5647206E-2,4.1981786E-2,1.2357818E-1,7.748358E-3,1.1302177E-2],"categories":[],"categories_nodes":[],"categories_segments":[],"categories_sizes":[],"default_left":[0,0,0,0,0,0,0,0,0,0,0,0,0,0,0,0,0,0,0,0,0,0,0],"id":31,"left_children":[1,3,5,7,-1,9,11,13,-1,-1,15,17,19,-1,-1,21,-1,-1,-1,-1,-1,-1,-1],"loss_changes":[7.9487574E-1,1.397054E0,1.0875862E0,8.656691E-1,0E0,3.0946374E-2,2.8121555E0,1.834372E0,0E0,0E0,2.3880482E-1,3.1565207E-1,1.7054653E0,0E0,0E0,2.3286358E-2,0E0,0E0,0E0,0E0,0E0,0E0,0E0],"parents":[2147483647,0,0,1,1,2,2,3,3,5,5,6,6,7,7,10,10,11,11,12,12,15,15],"right_children":[2,4,6,8,-1,10,12,14,-1,-1,16,18,20,-1,-1,22,-1,-1,-1,-1,-1,-1,-1],"split_conditions":[1E0,2.0008087E-3,8.901367E-1,2.0008087E-3,6.239554E-3,1E0,4.8388672E-1,2.0008087E-3,1.8743015E-3,6.239554E-3,5.6591797E-1,6.1816406E-1,2.0008087E-3,-1.5539226E-2,-2.7021074E-3,2.0008087E-3,1.4855997E-2,1.4855997E-2,3.5647206E-2,4.1981786E-2,1.2357818E-1,7.748358E-3,1.1302177E-2],"split_indices":[0,1,2,2,0,3,3,3,0,0,1,1,1,0,0,2,0,0,0,0,0,0,0],"split_type":[0,0,0,0,0,0,0,0,0,0,0,0,0,0,0,0,0,0,0,0,0,0,0],"sum_hessian":[4.822099E3,3.1980952E3,1.6240037E3,2.3459097E3,8.521856E2,1.2044253E3,4.195784E2,1.4628789E3,8.8303064E2,8.952878E2,3.091375E2,3.2390253E2,9.567588E1,1.1869218E3,2.7595718E2,2.4602147E2,6.3116028E1,2.5867288E2,6.522964E1,6.2673122E1,3.3002754E1,2.4307022E2,2.9512622E0],"tree_param":{"num_deleted":"0","num_feature":"4","num_nodes":"23","size_leaf_vector":"0"}},{"base_weights":[1.4620824E-2,9.112606E-3,2.5338922E-2,-6.5132894E-4,5.1677297E-3,1.7225765E-2,5.6020763E-2,-1.1118625E-2,2.4861654E-3,5.1677297E-3,1.9064384E-2,3.6623262E-2,1.7704418E-1,-3.5512332E-2,-4.2471118E-4,1.8145073E-2,1.0986979E-2,1.0986979E-2,3.2050118E-2,3.2050118E-2,9.687107E-2,-3.6448255E-2,-5.5392054E-3,5.4435222E-3,8.21525E-3,-1.1088055E-2,-8.236841E-3],"categories":[],"categories_nodes":[],"categories_segments":[],"categories_sizes":[],"default_left":[0,0,0,0,0,0,0,0,0,0,0,0,0,0,0,0,0,0,0,0,0,0,0,0,0,0,0],"id":32,"left_children":[1,3,5,7,-1,9,11,13,-1,-1,15,17,19,21,-1,23,-1,-1,-1,-1,-1,25,-1,-1,-1,-1,-1],"loss_changes":[2.827561E-1,5.3942245E-1,4.9076426E-1,3.5968158E-1,0E0,8.4874034E-4,1.6579616E0,1.2511063E0,0E0,0E0,2.6741853E-1,3.4773526E-1,9.152293E-1,3.5491705E-2,0E0,3.5476387E-3,0E0,0E0,0E0,0E0,0E0,9.199619E-3,0E0,0E0,0E0,0E0,0E0],"parents":[2147483647,0,0,1,1,2,2,3,3,5,5,6,6,7,7,10,10,11,11,12,12,13,13,15,15,21,21],"right_children":[2,4,6,8,-1,10,12,14,-1,-1,16,18,20,22,-1,24,-1,-1,-1,-1,-1,26,-1,-1,-1,-1,-1],"split_conditions":[1E0,1E0,1E0,2.0008087E-3,5.1677297E-3,9.458008E-1,5.6591797E-1,1E0,2.4861654E-3,5.1677297E-3,4.0016174E-3,2.0008087E-3,8.901367E-1,2.0008087E-3,-4.2471118E-4,4.0016174E-3,1.0986979E-2,1.0986979E-2,3.2050118E-2,3.2050118E-2,9.687107E-2,2.0008087E-3,-5.5392054E-3,5.4435222E-3,8.21525E-3,-1.1088055E-2,-8.236841E-3],"split_indices":[3,2,0,1,0,1,1,0,0,0,2,2,2,3,0,0,0,0,0,0,0,2,0,0,0,0,0],"split_type":[0,0,0,0,0,0,0,0,0,0,0,0,0,0,0,0,0,0,0,0,0,0,0,0,0,0,0],"sum_hessian":[4.792336E3,3.166742E3,1.6255941E3,2.3402166E3,8.2652545E2,1.2291799E3,3.9641418E2,1.4510104E3,8.8920605E2,8.9133887E2,3.3784106E2,3.0567914E2,9.073504E1,1.1927329E3,2.5827747E2,2.8455408E2,5.3286976E1,2.4229553E2,6.3383617E1,6.2200565E1,2.853448E1,1.1825082E3,1.0224818E1,2.8243576E2,2.1183102E0,1.1686392E3,1.386904E1],"tree_param":{"num_deleted":"0","num_feature":"4","num_nodes":"27","size_leaf_vector":"0"}},{"base_weights":[1.272798E-2,1.070364E-2,1.6704766E-2,2.4815376E-3,4.111261E-3,4.111261E-3,3.880106E-2,-2.3302964E-3,2.427861E-3,2.6252631E-2,1.7780139E-1,-2.552863E-2,8.6438603E-4,7.87579E-3,2.600362E-2,3.978029E-2,7.574993E-2,-7.869489E-3,-3.3971018E-3],"categories":[],"categories_nodes":[],"categories_segments":[],"categories_sizes":[],"default_left":[0,0,0,0,0,0,0,0,0,0,0,0,0,0,0,0,0,0,0],"id":33,"left_children":[1,3,5,7,-1,-1,9,11,-1,13,15,17,-1,-1,-1,-1,-1,-1,-1],"loss_changes":[3.824091E-2,2.661033E-1,2.3051247E-1,8.342595E-2,0E0,0E0,1.7165308E0,9.019374E-1,0E0,2.4723412E-1,2.2797847E-1,2.1648943E-2,0E0,0E0,0E0,0E0,0E0,0E0,0E0],"parents":[2147483647,0,0,1,1,2,2,3,3,6,6,7,7,9,9,10,10,11,11],"right_children":[2,4,6,8,-1,-1,10,12,-1,14,16,18,-1,-1,-1,-1,-1,-1,-1],"split_conditions":[1E0,1E0,1E0,2.0008087E-3,4.111261E-3,4.111261E-3,1E0,2.0008087E-3,2.427861E-3,4.0016174E-3,4.0008545E-2,2.0008087E-3,8.6438603E-4,7.87579E-3,2.600362E-2,3.978029E-2,7.574993E-2,-7.869489E-3,-3.3971018E-3],"split_indices":[1,0,2,2,0,0,3,3,0,0,0,1,0,0,0,0,0,0,0],"split_type":[0,0,0,0,0,0,0,0,0,0,0,0,0,0,0,0,0,0,0],"sum_hessian":[4.771415E3,3.1643357E3,1.6070795E3,2.339564E3,8.247718E2,1.2188159E3,3.8826352E2,1.4458468E3,8.9371716E2,3.118258E2,7.643773E1,1.16517E3,2.8067685E2,2.4492603E2,6.6899765E1,4.935057E1,2.708716E1,1.1557657E3,9.404271E0],"tree_param":{"num_deleted":"0","num_feature":"4","num_nodes":"19","size_leaf_vector":"0"}},{"base_weights":[1.0819947E-2],"categories":[],"categories_nodes":[],"categories_segments":[],"categories_sizes":[],"default_left":[0],"id":34,"left_children":[-1],"loss_changes":[0E0],"parents":[2147483647],"right_children":[-1],"split_conditions":[3.2459844E-3],"split_indices":[0],"split_type":[0],"sum_hessian":[4.756436E3],"tree_param":{"num_deleted":"0","num_feature":"4","num_nodes":"1","size_leaf_vector":"0"}},{"base_weights":[7.564899E-3],"categories":[],"categories_nodes":[],"categories_segments":[],"categories_sizes":[],"default_left":[0],"id":35,"left_children":[-1],"loss_changes":[0E0],"parents":[2147483647],"right_children":[-1],"split_conditions":[2.26947E-3],"split_indices":[0],"split_type":[0],"sum_hessian":[4.7606396E3],"tree_param":{"num_deleted":"0","num_feature":"4","num_nodes":"1","size_leaf_vector":"0"}},{"base_weights":[5.294334E-3],"categories":[],"categories_nodes":[],"categories_segments":[],"categories_sizes":[],"default_left":[0],"id":36,"left_children":[-1],"loss_changes":[0E0],"parents":[2147483647],"right_children":[-1],"split_conditions":[1.5883003E-3],"split_indices":[0],"split_type":[0],"sum_hessian":[4.7636045E3],"tree_param":{"num_deleted":"0","num_feature":"4","num_nodes":"1","size_leaf_vector":"0"}},{"base_weights":[3.7033043E-3],"categories":[],"categories_nodes":[],"categories_segments":[],"categories_sizes":[],"default_left":[0],"id":37,"left_children":[-1],"loss_changes":[0E0],"parents":[2147483647],"right_children":[-1],"split_conditions":[1.1109913E-3],"split_indices":[0],"split_type":[0],"sum_hessian":[4.765671E3],"tree_param":{"num_deleted":"0","num_feature":"4","num_nodes":"1","size_leaf_vector":"0"}},{"base_weights":[2.5973744E-3],"categories":[],"categories_nodes":[],"categories_segments":[],"categories_sizes":[],"default_left":[0],"id":38,"left_children":[-1],"loss_changes":[0E0],"parents":[2147483647],"right_children":[-1],"split_conditions":[7.7921234E-4],"split_indices":[0],"split_type":[0],"sum_hessian":[4.7671504E3],"tree_param":{"num_deleted":"0","num_feature":"4","num_nodes":"1","size_leaf_vector":"0"}},{"base_weights":[1.8124884E-3],"categories":[],"categories_nodes":[],"categories_segments":[],"categories_sizes":[],"default_left":[0],"id":39,"left_children":[-1],"loss_changes":[0E0],"parents":[2147483647],"right_children":[-1],"split_conditions":[5.437466E-4],"split_indices":[0],"split_type":[0],"sum_hessian":[4.7681436E3],"tree_param":{"num_deleted":"0","num_feature":"4","num_nodes":"1","size_leaf_vector":"0"}},{"base_weights":[1.2716484E-3],"categories":[],"categories_nodes":[],"categories_segments":[],"categories_sizes":[],"default_left":[0],"id":40,"left_children":[-1],"loss_changes":[0E0],"parents":[2147483647],"right_children":[-1],"split_conditions":[3.8149455E-4],"split_indices":[0],"split_type":[0],"sum_hessian":[4.768869E3],"tree_param":{"num_deleted":"0","num_feature":"4","num_nodes":"1","size_leaf_vector":"0"}},{"base_weights":[8.919783E-4],"categories":[],"categories_nodes":[],"categories_segments":[],"categories_sizes":[],"default_left":[0],"id":41,"left_children":[-1],"loss_changes":[0E0],"parents":[2147483647],"right_children":[-1],"split_conditions":[2.675935E-4],"split_indices":[0],"split_type":[0],"sum_hessian":[4.7693774E3],"tree_param":{"num_deleted":"0","num_feature":"4","num_nodes":"1","size_leaf_vector":"0"}},{"base_weights":[6.255268E-4],"categories":[],"categories_nodes":[],"categories_segments":[],"categories_sizes":[],"default_left":[0],"id":42,"left_children":[-1],"loss_changes":[0E0],"parents":[2147483647],"right_children":[-1],"split_conditions":[1.8765805E-4],"split_indices":[0],"split_type":[0],"sum_hessian":[4.7697334E3],"tree_param":{"num_deleted":"0","num_feature":"4","num_nodes":"1","size_leaf_vector":"0"}},{"base_weights":[4.3002886E-4],"categories":[],"categories_nodes":[],"categories_segments":[],"categories_sizes":[],"default_left":[0],"id":43,"left_children":[-1],"loss_changes":[0E0],"parents":[2147483647],"right_children":[-1],"split_conditions":[1.2900867E-4],"split_indices":[0],"split_type":[0],"sum_hessian":[4.769942E3],"tree_param":{"num_deleted":"0","num_feature":"4","num_nodes":"1","size_leaf_vector":"0"}},{"base_weights":[3.014908E-4],"categories":[],"categories_nodes":[],"categories_segments":[],"categories_sizes":[],"default_left":[0],"id":44,"left_children":[-1],"loss_changes":[0E0],"parents":[2147483647],"right_children":[-1],"split_conditions":[9.044724E-5],"split_indices":[0],"split_type":[0],"sum_hessian":[4.770114E3],"tree_param":{"num_deleted":"0","num_feature":"4","num_nodes":"1","size_leaf_vector":"0"}},{"base_weights":[2.1154554E-4],"categories":[],"categories_nodes":[],"categories_segments":[],"categories_sizes":[],"default_left":[0],"id":45,"left_children":[-1],"loss_changes":[0E0],"parents":[2147483647],"right_children":[-1],"split_conditions":[6.346367E-5],"split_indices":[0],"split_type":[0],"sum_hessian":[4.770235E3],"tree_param":{"num_deleted":"0","num_feature":"4","num_nodes":"1","size_leaf_vector":"0"}},{"base_weights":[1.4851861E-4],"categories":[],"categories_nodes":[],"categories_segments":[],"categories_sizes":[],"default_left":[0],"id":46,"left_children":[-1],"loss_changes":[0E0],"parents":[2147483647],"right_children":[-1],"split_conditions":[4.4555585E-5],"split_indices":[0],"split_type":[0],"sum_hessian":[4.77032E3],"tree_param":{"num_deleted":"0","num_feature":"4","num_nodes":"1","size_leaf_vector":"0"}},{"base_weights":[1.04106315E-4],"categories":[],"categories_nodes":[],"categories_segments":[],"categories_sizes":[],"default_left":[0],"id":47,"left_children":[-1],"loss_changes":[0E0],"parents":[2147483647],"right_children":[-1],"split_conditions":[3.1231895E-5],"split_indices":[0],"split_type":[0],"sum_hessian":[4.7703784E3],"tree_param":{"num_deleted":"0","num_feature":"4","num_nodes":"1","size_leaf_vector":"0"}},{"base_weights":[7.314825E-5],"categories":[],"categories_nodes":[],"categories_segments":[],"categories_sizes":[],"default_left":[0],"id":48,"left_children":[-1],"loss_changes":[0E0],"parents":[2147483647],"right_children":[-1],"split_conditions":[2.1944476E-5],"split_indices":[0],"split_type":[0],"sum_hessian":[4.7704204E3],"tree_param":{"num_deleted":"0","num_feature":"4","num_nodes":"1","size_leaf_vector":"0"}},{"base_weights":[5.128851E-5],"categories":[],"categories_nodes":[],"categories_segments":[],"categories_sizes":[],"default_left":[0],"id":49,"left_children":[-1],"loss_changes":[0E0],"parents":[2147483647],"right_children":[-1],"split_conditions":[1.5386553E-5],"split_indices":[0],"split_type":[0],"sum_hessian":[4.770449E3],"tree_param":{"num_deleted":"0","num_feature":"4","num_nodes":"1","size_leaf_vector":"0"}},{"base_weights":[3.6025584E-5],"categories":[],"categories_nodes":[],"categories_segments":[],"categories_sizes":[],"default_left":[0],"id":50,"left_children":[-1],"loss_changes":[0E0],"parents":[2147483647],"right_children":[-1],"split_conditions":[1.0807676E-5],"split_indices":[0],"split_type":[0],"sum_hessian":[4.7704697E3],"tree_param":{"num_deleted":"0","num_feature":"4","num_nodes":"1","size_leaf_vector":"0"}},{"base_weights":[2.5172483E-5],"categories":[],"categories_nodes":[],"categories_segments":[],"categories_sizes":[],"default_left":[0],"id":51,"left_children":[-1],"loss_changes":[0E0],"parents":[2147483647],"right_children":[-1],"split_conditions":[7.551745E-6],"split_indices":[0],"split_type":[0],"sum_hessian":[4.7704844E3],"tree_param":{"num_deleted":"0","num_feature":"4","num_nodes":"1","size_leaf_vector":"0"}},{"base_weights":[1.7814898E-5],"categories":[],"categories_nodes":[],"categories_segments":[],"categories_sizes":[],"default_left":[0],"id":52,"left_children":[-1],"loss_changes":[0E0],"parents":[2147483647],"right_children":[-1],"split_conditions":[5.3444696E-6],"split_indices":[0],"split_type":[0],"sum_hessian":[4.7704956E3],"tree_param":{"num_deleted":"0","num_feature":"4","num_nodes":"1","size_leaf_vector":"0"}},{"base_weights":[1.2243743E-5],"categories":[],"categories_nodes":[],"categories_segments":[],"categories_sizes":[],"default_left":[0],"id":53,"left_children":[-1],"loss_changes":[0E0],"parents":[2147483647],"right_children":[-1],"split_conditions":[3.673123E-6],"split_indices":[0],"split_type":[0],"sum_hessian":[4.770501E3],"tree_param":{"num_deleted":"0","num_feature":"4","num_nodes":"1","size_leaf_vector":"0"}},{"base_weights":[8.575677E-6],"categories":[],"categories_nodes":[],"categories_segments":[],"categories_sizes":[],"default_left":[0],"id":54,"left_children":[-1],"loss_changes":[0E0],"parents":[2147483647],"right_children":[-1],"split_conditions":[2.5727034E-6],"split_indices":[0],"split_type":[0],"sum_hessian":[4.770506E3],"tree_param":{"num_deleted":"0","num_feature":"4","num_nodes":"1","size_leaf_vector":"0"}},{"base_weights":[6.167843E-6],"categories":[],"categories_nodes":[],"categories_segments":[],"categories_sizes":[],"default_left":[0],"id":55,"left_children":[-1],"loss_changes":[0E0],"parents":[2147483647],"right_children":[-1],"split_conditions":[1.850353E-6],"split_indices":[0],"split_type":[0],"sum_hessian":[4.77051E3],"tree_param":{"num_deleted":"0","num_feature":"4","num_nodes":"1","size_leaf_vector":"0"}},{"base_weights":[4.401691E-6],"categories":[],"categories_nodes":[],"categories_segments":[],"categories_sizes":[],"default_left":[0],"id":56,"left_children":[-1],"loss_changes":[0E0],"parents":[2147483647],"right_children":[-1],"split_conditions":[1.3205074E-6],"split_indices":[0],"split_type":[0],"sum_hessian":[4.7705127E3],"tree_param":{"num_deleted":"0","num_feature":"4","num_nodes":"1","size_leaf_vector":"0"}},{"base_weights":[3.138177E-6],"categories":[],"categories_nodes":[],"categories_segments":[],"categories_sizes":[],"default_left":[0],"id":57,"left_children":[-1],"loss_changes":[0E0],"parents":[2147483647],"right_children":[-1],"split_conditions":[9.414531E-7],"split_indices":[0],"split_type":[0],"sum_hessian":[4.770515E3],"tree_param":{"num_deleted":"0","num_feature":"4","num_nodes":"1","size_leaf_vector":"0"}},{"base_weights":[2.0196437E-6],"categories":[],"categories_nodes":[],"categories_segments":[],"categories_sizes":[],"default_left":[0],"id":58,"left_children":[-1],"loss_changes":[0E0],"parents":[2147483647],"right_children":[-1],"split_conditions":[6.0589315E-7],"split_indices":[0],"split_type":[0],"sum_hessian":[4.7705156E3],"tree_param":{"num_deleted":"0","num_feature":"4","num_nodes":"1","size_leaf_vector":"0"}},{"base_weights":[1.4421711E-6],"categories":[],"categories_nodes":[],"categories_segments":[],"categories_sizes":[],"default_left":[0],"id":59,"left_children":[-1],"loss_changes":[0E0],"parents":[2147483647],"right_children":[-1],"split_conditions":[4.3265135E-7],"split_indices":[0],"split_type":[0],"sum_hessian":[4.7705166E3],"tree_param":{"num_deleted":"0","num_feature":"4","num_nodes":"1","size_leaf_vector":"0"}},{"base_weights":[9.885034E-7],"categories":[],"categories_nodes":[],"categories_segments":[],"categories_sizes":[],"default_left":[0],"id":60,"left_children":[-1],"loss_changes":[0E0],"parents":[2147483647],"right_children":[-1],"split_conditions":[2.9655104E-7],"split_indices":[0],"split_type":[0],"sum_hessian":[4.770517E3],"tree_param":{"num_deleted":"0","num_feature":"4","num_nodes":"1","size_leaf_vector":"0"}},{"base_weights":[6.797753E-7],"categories":[],"categories_nodes":[],"categories_segments":[],"categories_sizes":[],"default_left":[0],"id":61,"left_children":[-1],"loss_changes":[0E0],"parents":[2147483647],"right_children":[-1],"split_conditions":[2.039326E-7],"split_indices":[0],"split_type":[0],"sum_hessian":[4.7705176E3],"tree_param":{"num_deleted":"0","num_feature":"4","num_nodes":"1","size_leaf_vector":"0"}},{"base_weights":[5.4267866E-7],"categories":[],"categories_nodes":[],"categories_segments":[],"categories_sizes":[],"default_left":[0],"id":62,"left_children":[-1],"loss_changes":[0E0],"parents":[2147483647],"right_children":[-1],"split_conditions":[1.628036E-7],"split_indices":[0],"split_type":[0],"sum_hessian":[4.770518E3],"tree_param":{"num_deleted":"0","num_feature":"4","num_nodes":"1","size_leaf_vector":"0"}},{"base_weights":[4.3947838E-7],"categories":[],"categories_nodes":[],"categories_segments":[],"categories_sizes":[],"default_left":[0],"id":63,"left_children":[-1],"loss_changes":[0E0],"parents":[2147483647],"right_children":[-1],"split_conditions":[1.3184352E-7],"split_indices":[0],"split_type":[0],"sum_hessian":[4.770518E3],"tree_param":{"num_deleted":"0","num_feature":"4","num_nodes":"1","size_leaf_vector":"0"}},{"base_weights":[3.4196458E-7],"categories":[],"categories_nodes":[],"categories_segments":[],"categories_sizes":[],"default_left":[0],"id":64,"left_children":[-1],"loss_changes":[0E0],"parents":[2147483647],"right_children":[-1],"split_conditions":[1.02589375E-7],"split_indices":[0],"split_type":[0],"sum_hessian":[4.770518E3],"tree_param":{"num_deleted":"0","num_feature":"4","num_nodes":"1","size_leaf_vector":"0"}},{"base_weights":[2.4980977E-7],"categories":[],"categories_nodes":[],"categories_segments":[],"categories_sizes":[],"default_left":[0],"id":65,"left_children":[-1],"loss_changes":[0E0],"parents":[2147483647],"right_children":[-1],"split_conditions":[7.494293E-8],"split_indices":[0],"split_type":[0],"sum_hessian":[4.770518E3],"tree_param":{"num_deleted":"0","num_feature":"4","num_nodes":"1","size_leaf_vector":"0"}},{"base_weights":[1.9934932E-7],"categories":[],"categories_nodes":[],"categories_segments":[],"categories_sizes":[],"default_left":[0],"id":66,"left_children":[-1],"loss_changes":[0E0],"parents":[2147483647],"right_children":[-1],"split_conditions":[5.98048E-8],"split_indices":[0],"split_type":[0],"sum_hessian":[4.770518E3],"tree_param":{"num_deleted":"0","num_feature":"4","num_nodes":"1","size_leaf_vector":"0"}},{"base_weights":[1.9866852E-7],"categories":[],"categories_nodes":[],"categories_segments":[],"categories_sizes":[],"default_left":[0],"id":67,"left_children":[-1],"loss_changes":[0E0],"parents":[2147483647],"right_children":[-1],"split_conditions":[5.9600556E-8],"split_indices":[0],"split_type":[0],"sum_hessian":[4.770518E3],"tree_param":{"num_deleted":"0","num_feature":"4","num_nodes":"1","size_leaf_vector":"0"}},{"base_weights":[1.9859357E-7],"categories":[],"categories_nodes":[],"categories_segments":[],"categories_sizes":[],"default_left":[0],"id":68,"left_children":[-1],"loss_changes":[0E0],"parents":[2147483647],"right_children":[-1],"split_conditions":[5.9578074E-8],"split_indices":[0],"split_type":[0],"sum_hessian":[4.770518E3],"tree_param":{"num_deleted":"0","num_feature":"4","num_nodes":"1","size_leaf_vector":"0"}},{"base_weights":[1.8365968E-7],"categories":[],"categories_nodes":[],"categories_segments":[],"categories_sizes":[],"default_left":[0],"id":69,"left_children":[-1],"loss_changes":[0E0],"parents":[2147483647],"right_children":[-1],"split_conditions":[5.5097907E-8],"split_indices":[0],"split_type":[0],"sum_hessian":[4.770518E3],"tree_param":{"num_deleted":"0","num_feature":"4","num_nodes":"1","size_leaf_vector":"0"}},{"base_weights":[1.3812097E-7],"categories":[],"categories_nodes":[],"categories_segments":[],"categories_sizes":[],"default_left":[0],"id":70,"left_children":[-1],"loss_changes":[0E0],"parents":[2147483647],"right_children":[-1],"split_conditions":[4.143629E-8],"split_indices":[0],"split_type":[0],"sum_hessian":[4.770518E3],"tree_param":{"num_deleted":"0","num_feature":"4","num_nodes":"1","size_leaf_vector":"0"}},{"base_weights":[9.241363E-8],"categories":[],"categories_nodes":[],"categories_segments":[],"categories_sizes":[],"default_left":[0],"id":71,"left_children":[-1],"loss_changes":[0E0],"parents":[2147483647],"right_children":[-1],"split_conditions":[2.772409E-8],"split_indices":[0],"split_type":[0],"sum_hessian":[4.770518E3],"tree_param":{"num_deleted":"0","num_feature":"4","num_nodes":"1","size_leaf_vector":"0"}},{"base_weights":[9.241363E-8],"categories":[],"categories_nodes":[],"categories_segments":[],"categories_sizes":[],"default_left":[0],"id":72,"left_children":[-1],"loss_changes":[0E0],"parents":[2147483647],"right_children":[-1],"split_conditions":[2.772409E-8],"split_indices":[0],"split_type":[0],"sum_hessian":[4.770518E3],"tree_param":{"num_deleted":"0","num_feature":"4","num_nodes":"1","size_leaf_vector":"0"}}]},"name":"gbtree"},"learner_model_param":{"base_score":"5E-1","boost_from_average":"1","num_class":"0","num_feature":"4","num_target":"1"},"objective":{"name":"binary:logistic","reg_loss_param":{"scale_pos_weight":"1"}}},"version":[1,7,3]}